-0.00155826,-0.00470633,-0.00665441;0.00121622,-0.0055561,-0.00350743;0.00768894,-0.00167667,-0.000201948;
0.00700693,-0.00738814,0.00183023;0.0020458,-0.0270628,-0.00196769;-0.0119838,-0.0169655,0.0105325;
-0.00990919,-0.0145202,-0.0109127;-0.00965064,-0.0232419,-0.000759169;-0.00274868,-0.0100527,0.0109642;
-0.00491268,-0.00287386,0.00179738;-0.00186355,0.00169114,0.00151883;0.00222787,0.00956043,0.00404083;
-0.0011485,0.000305601,0.000379993;-0.00113194,-0.000360907,-0.00104895;0.000207229,0.000110021,-0.00110544;
0.00300227,0.00406447,0.0141259;0.00810874,0.0103395,0.00945138;0.0120664,0.0219699,0.00756806;
-0.00373873,-0.00296407,-0.00560438;-0.000822356,0.00455635,0.000420765;0.0061942,0.00674456,-0.00230234;
0.00127842,0.00171573,-0.00102673;0.00184691,0.000475771,-0.00108652;0.000658189,0.00147306,0.000190883;
0.000271884,0.00342598,-0.000620739;0.00473533,0.000214253,0.000135872;0.00815551,0.0022754,-0.0013484;
0.00334025,-0.00227594,0.0215858;0.0196373,-0.00455298,0.0238355;0.0083955,-0.00536885,0.0117397;
0.00622191,-0.00462693,-0.00151065;0.00114276,-0.00205432,0.00534309;0.00482429,0.00160855,0.00758197;
0.00163815,-0.012293,0.0029305;-0.00213829,-0.015367,-0.00155007;-0.0116801,-0.0110021,0.0142023;
-0.0143034,0.00121336,0.000919296;-0.0203248,-0.00522195,0.014657;-0.00654277,0.00576609,0.00808434;
0.00856158,-0.0249093,-0.0174839;-0.012269,-0.049394,0.00924126;-0.0186393,-0.0243443,0.00102498;
-0.0111308,0.00977922,-0.00139447;0.00398239,0.00202967,0.00839709;0.018192,0.00267412,0.00119559;
0.0135337,-0.0118232,0.00468402;-0.00449526,-0.0271033,-0.000606822;-0.018255,-0.0130379,0.0298151;
-0.00841875,-0.0265105,0.0057374;-0.00170701,-0.0208691,0.0268894;-0.00344467,-0.0135871,0.0171814;
-0.00450608,0.0096121,0.000299567;0.0053619,0.00795463,0.00424553;0.0159807,0.00350813,-0.000121906;
0.00839897,0.00174243,0.00329837;-0.000607247,-0.00448303,0.0058438;-0.0016212,0.00090671,0.0101616;
-0.00292355,0.00480987,0.0215192;0.00905151,0.00622804,0.0222721;0.0162161,0.00615444,0.00918788;
0.0196359,-0.0180971,0.0197999;0.00265972,-0.0434213,0.00547283;-0.0112465,-0.0248724,0.028181;
-0.00259136,-0.0025095,0.00975726;-0.00972051,-0.00105924,0.0114748;0.00685096,0.00969573,0.0204658;
-0.00460961,-0.0102997,-0.00387185;0.00114673,-0.00596599,0.0026113;0.00235585,0.00281892,0.0132183;
-0.00376075,0.0406878,0.0340695;0.0279479,0.0500867,0.0233761;0.0559447,0.042269,0.0232658;
-6.2001e-05,0.00987074,0.014471;0.0127402,0.0233644,0.0134173;0.0338952,0.0246468,-0.000485421;
0.00100177,-0.00620287,0.00995772;0.000209448,0.00177688,0.00514884;0.00709069,0.0170171,0.0192565;
0.00137653,-0.00428983,-0.00165529;0.00318237,-0.00542928,0.00995538;-0.00221914,-0.00588569,-0.00303913;
0.00272256,-0.00365437,0.00252848;0.00326246,-0.00330998,-0.00267234;0.00164133,-0.00252245,0.00341176;
0.000143025,-0.00379084,0.00149063;0.00213311,-0.00271818,0.0010803;-0.001196,0.000328607,0.00491444;
-0.0155802,-0.0164164,0.00251269;-0.0118574,-0.0223095,0.00409879;-0.004128,-0.00361726,0.012021;
0.00412406,-0.000594883,0.00692039;0.00589713,-0.000569168,0.00259701;-0.000167658,0.00112536,0.00606282;
-0.00162627,0.000366276,-0.000785957;0.00223244,0.000324626,0.00290526;0.00193066,-0.00238068,-0.00183846;
0.00667398,-0.0107524,0.0260996;0.0184056,-0.031069,0.00941352;-0.017264,-0.0330025,0.0383599;
0.000302818,-0.000417734,-4.07336e-05;-0.000148726,-0.000692165,0.000674045;0.00112262,-0.000493444,-0.000376531;
-0.00292035,0.0067781,0.00145253;-0.00413177,0.00216392,0.006134;0.00815188,0.00498472,0.023426;
-0.00901725,0.0173639,0.00973094;-0.00443439,0.0124817,0.0084467;0.00891377,0.0200119,0.0174906;
0.00827395,0.00267095,0.0171299;0.0124039,0.00383153,0.00445444;0.00743309,0.0100519,0.013702;
-0.00718037,-0.0208812,-0.0172675;-0.0125095,-0.00741995,0.00741554;0.01467,0.0103601,-0.00276017;
0.0156455,-0.0248955,0.00869751;0.00286669,-0.0450992,0.0104054;-0.0209784,-0.0252329,0.022947;
0.00861986,-0.0111883,0.000849729;-0.0019143,-0.0201282,0.00178866;-0.00736467,-0.00484223,0.0232974;
#
-0.00369756,-0.00184216,-0.00108498;-0.00672437,-0.00358953,-0.00570471;-0.00845634,-0.00573794,-0.00432257;
0.0102858,0.00367269,0.00439793;-0.0146433,-0.0136118,0.0074634;-0.00600453,0.00724742,0.0189084;
-0.00399475,-0.0101111,-0.00453068;-0.0197726,-0.0163343,-0.00811052;-0.00915372,-0.0125425,-0.0061702;
0.00221289,-0.00188682,-0.00310018;0.00814054,0.00368094,0.00133819;0.0105178,0.00847229,0.00449735;
0.000716555,0.000222679,0.000659186;-0.000489972,-0.000787209,-0.00126505;0.000613268,0.00115593,-0.000907627;
0.00068961,0.00207476,-0.00736674;0.00578704,-0.00639485,-0.00618499;0.00422451,-0.00291863,-0.00334372;
0.00345482,-0.00220424,-0.000760005;0.00667698,7.87307e-05,0.00022986;0.00725794,0.00172684,0.00256878;
0.000938604,-0.00350822,-0.00339252;-0.00190893,-0.0033338,-0.0019675;-0.00224798,-0.00233596,-0.00228521;
-0.00214602,-0.0027743,-0.00328342;0.00345138,0.00031651,-0.00243736;0.00156416,-8.24951e-05,-0.00234308;
0.00244561,-0.018401,-0.0244738;0.00731372,0.0234173,0.00296473;0.010631,0.0272159,0.0207419;
0.013409,0.0182423,0.0162887;0.000100641,-0.00382984,0.0152524;0.00782423,0.00341534,0.0164107;
-0.000885524,-0.000924497,0.00988546;-0.00266502,-0.00551131,-0.00451993;-0.00129497,0.00998512,0.00362878;
0.00801918,0.00725912,0.00164187;-0.00459382,-0.00750701,0.00904204;0.00300746,-0.00965255,-0.00245163;
-0.0175137,-0.0396,-0.0321346;-0.0561334,-0.0482756,-0.0159417;-0.0390955,-0.0187142,0.000282963;
0.00477906,0.000977717,-0.00672093;0.0169792,0.00829564,0.00326134;0.0120587,0.00314204,-0.00531368;
0.012158,0.0131025,0.0296975;-0.0147962,-0.00936381,-0.00732772;0.00843761,0.0153877,0.01738;
0.00387704,-0.0145196,-0.00412838;-0.0185317,-0.0146039,0.000994519;-0.00393463,0.0247941,0.0230754;
0.00621813,0.0060996,0.00175099;0.00957728,0.00691796,0.00216654;0.00866823,-0.00036078,-0.00601022;
-0.00824483,-0.00117155,-0.00985354;-0.0251271,-0.0223553,-0.00788136;-0.0107777,-0.00815122,0.000400508;
0.0279159,0.028247,0.0199939;0.0418008,0.0394733,0.0293282;0.0413186,0.0419308,0.0354308;
-0.00873573,-0.022431,0.00506453;-0.0235131,-0.0260167,-0.0154868;-0.00598358,0.0243999,0.0258079;
-0.00505471,0.00262583,-0.00382774;-0.0349106,-0.0209842,-0.0179577;0.00714371,-0.000383513,0.000134938;
-0.00404768,-0.00563969,0.00387011;-0.00741864,-0.00538419,-0.00481119;-0.00181291,-0.000201581,-0.00514267;
0.00633821,0.0012753,-0.000518312;0.00503262,-0.00050156,-0.0107272;0.0168848,0.000703574,-0.00183088;
0.0176637,0.00587761,0.00312429;0.0220456,0.0152371,0.00698822;0.0225607,0.00860579,0.0095128;
0.00839086,0.0035867,0.00881277;0.025278,0.00563968,0.0050796;0.0203239,0.0237707,0.00932729;
-0.00049856,-0.00419303,-0.0102726;-0.00719017,-0.00335689,-0.00161313;-0.0077842,-0.00311733,-0.00286164;
0.00248024,0.001677,0.0029391;0.00373794,-0.0011008,-0.003885;0.00300005,0.00746954,0.00242295;
0.00131523,-0.00130583,-0.000680369;0.000208775,0.00121674,0.00223081;-0.00246504,0.00334675,0.00326144;
-0.00200529,-0.00803601,-0.00223087;-0.00511111,-0.0102264,0.002459;-0.00850706,-0.00165048,0.00286241;
0.00396972,0.00432322,0.00579755;0.000854496,-0.000654198,0.00169379;0.00216466,0.00399649,0.00932815;
0.000405432,-0.00103549,-0.00305691;0.000989738,0.00112544,0.000610285;-0.00240592,-0.00140253,-0.000741911;
0.0223096,0.0101779,0.0344313;-0.0136495,-0.0151522,-0.00365654;0.0126367,0.0553311,0.0349728;
0.000957131,-0.000874507,0.000244602;0.000470735,-0.000161257,-0.000725214;-0.00102046,0.000152885,-0.000730955;
0.00441071,-0.00417715,0.00446392;-0.026273,-0.0233422,-0.0163016;-0.0025846,-0.0129252,-0.00671451;
0.00520301,-8.50381e-05,-0.00486075;-0.00209323,-0.0209518,-0.0169211;0.00182451,-0.0170414,-0.021179;
0.00645544,0.00426909,0.00262805;0.00672106,0.0133046,0.0105835;0.0114726,0.0161529,0.0143308;
0.00633622,-0.0191468,-0.0132834;-0.00261755,-0.0278641,-0.0106971;0.002398,-0.0091055,0.00233672;
-0.0166008,-0.0280258,-0.00799713;-0.023418,-0.0180239,-0.00708765;-0.0249292,0.0104849,0.021116;
-0.014015,-0.0207959,-0.0141861;-0.0375385,-0.0315734,-0.0282108;-0.0189315,-0.00576877,-0.00136467;
#
0.00513355,-0.000237427,-0.0021796;0.00308361,0.000624551,-0.00141214;0.00287278,0.00182916,-0.00137989;
0.00237146,0.00376318,0.00208424;0.00745838,0.00900599,-0.00200036;0.0128002,0.0128453,0.000479631;
0.00510574,0.000340566,-0.00561039;0.0121388,0.00926914,-0.00176917;0.0100583,0.00695885,-0.00940926;
-0.00374871,0.000106833,-0.00120897;-0.00242716,-0.00439736,-0.00511565;0.00177692,-0.00363115,-0.000745017;
-0.00101813,-4.7366e-05,-0.000529633;-6.20948e-05,-0.000901197,-0.000969866;-0.000249443,-0.00076498,-0.000590316;
-0.00138294,0.00488363,0.00774161;0.000272149,-0.00493392,-0.00231136;0.00359378,-0.00620566,0.00142157;
-0.00193478,-0.00188067,-0.00329631;-0.00320203,-0.00352111,-0.00421438;-0.00118796,-0.0033011,-0.00323634;
-0.000728509,0.000411437,0.00182112;4.45652e-05,-0.000129403,-0.000561356;0.000623004,0.00134266,-0.000365049;
-0.000636843,-0.000530121,0.000881058;-0.000349804,-0.000575496,0.000481734;0.00197594,0.00142503,-0.000345566;
-0.00677772,0.00278,-0.00654993;-0.0116976,-0.00390264,-0.00386458;0.0127715,0.0068186,-0.00305783;
0.00318971,0.00253256,2.89308e-05;0.00672596,0.00301436,-0.00343836;0.0050075,0.00247693,-0.000100146;
-0.00104518,0.00843894,0.000306765;-0.00157406,0.00066162,-0.00579068;-0.00119032,0.0012281,-0.00086087;
0.00276661,-0.0104457,-0.00035761;0.00968681,0.000950234,-0.00503012;0.0120726,-0.00126214,-0.00992499;
0.00411606,0.0034777,-0.00353732;0.0133371,0.0146165,0.000255652;0.0188039,0.010889,-0.00427445;
-0.00237344,-0.00658278,-0.000187169;0.00211539,-0.00304089,-0.00012393;0.00575606,-0.000839519,-0.00839644;
0.0125624,0.0164021,-0.0014651;0.0101432,0.00828914,-0.00887482;-0.00292875,0.00977108,0.0023391;
-4.36159e-05,0.0112109,-0.0177237;-0.00659373,-0.0171175,-0.0209716;0.0107165,0.006783,-0.00179241;
0.00130322,-0.00374369,0.00115822;0.000153118,-0.00181163,0.000328962;0.0015018,-0.000572025,-0.00306439;
0.00935595,0.00595205,-0.00124605;0.00833416,0.00410275,0.000299246;0.00492687,0.00961135,0.00781904;
-0.00454338,0.00112232,-0.00190262;-0.00423996,-0.00119925,-0.00272569;0.00390984,0.00149948,-0.006215;
1.95144e-05,0.0247817,0.00453787;-0.00153391,0.0100595,-0.00613107;0.00983465,0.011272,-0.00184267;
0.0238112,0.00546198,-0.0076504;0.0148347,0.00479302,-0.00117473;0.00597887,0.0126725,0.00721492;
0.00997028,0.000321416,-0.00320151;0.0105401,0.00290415,-0.00499771;0.00569866,0.00222856,-0.0038647;
0.0139097,-0.00182082,0.00170866;0.000325989,-0.0129104,-0.00149746;0.00496439,0.00499072,0.00816724;
0.00171748,-0.00248431,-0.0031341;-0.00519253,-0.0111421,-0.00188604;-0.00118874,-0.00262364,0.000487506;
-0.00391015,0.0117737,0.00507349;-0.00507449,-0.0065905,-0.0109182;-0.0028785,-0.0116756,0.00124114;
-0.000520703,0.000570397,-0.00408359;-0.00204393,-0.00206619,-0.00303235;0.00203829,0.00169468,-0.00282155;
-0.000548939,0.0068998,0.00286381;-0.000510502,0.00119783,-0.00197611;-0.00214008,-0.00230129,0.000174333;
-0.00133309,0.00260401,-0.000930212;-0.000909107,-0.00084131,-0.00305264;0.00121675,0.000388506,0.00147946;
0.00178592,-0.00486721,-0.00404867;0.0107957,0.00237465,-0.00878316;0.0133753,-0.000994495,-0.0164167;
0.0013786,0.00380702,0.00160972;-0.00043341,0.000106354,-0.00136224;0.00243055,0.00156858,0.00230814;
0.00022991,-0.000862499,-0.000921681;0.000595392,0.00135422,7.49371e-06;0.000661333,-0.000314751,-0.0019254;
-0.000109556,0.025787,-0.00208888;-0.0136873,-0.00940631,-0.0216756;0.0103863,0.0151111,0.00858163;
-0.00104936,7.43756e-05,0.000132996;-0.00037619,0.000362291,-0.000548796;-0.000399746,-0.000876856,0.000807868;
0.0217664,0.0044725,0.00179515;0.0213208,0.00742269,0.000497122;0.011235,0.0135002,0.00501097;
0.0121944,-0.00446985,0.00482097;0.0137208,-0.00208221,-0.00251903;0.0139292,0.00390145,0.0034235;
-0.000179749,0.00561487,0.000387414;-0.000513464,-0.000774841,0.0023144;0.00548942,0.00717436,0.00662901;
-0.00297531,0.00516645,-0.008269;-0.000404737,-0.00658317,-0.0105149;0.00392335,-0.00836077,-0.00832337;
-0.0023147,0.0173729,0.000997051;-0.00131369,0.00786914,-0.00282699;0.0133034,0.013495,-0.000944952;
0.00836688,0.00678974,-0.0048857;0.00678015,0.00309368,-0.00469;0.00891374,0.0112954,0.00404011;
#
0.000343394,-0.00333342,-0.00554984;-0.00534001,0.000355789,0.00308883;-0.00246548,-0.00401258,-0.00150783;
-0.00509032,-0.0194766,-0.00449011;0.0108408,0.0132026,0.0182195;0.00738041,0.015687,0.0104128;
-0.00172195,-0.00796669,-0.00321338;0.00330031,0.00471227,0.00664922;0.00394011,-0.000291748,-0.00636236;
0.000392911,-0.00208217,-0.000949292;0.00158675,0.000858824,-0.00247541;-0.00764064,-0.00115062,0.00282122;
0.00035941,0.00117188,-0.000340567;0.00090269,-0.000459073,1.1924e-05;0.00106185,-0.000258364,0.000897088;
0.000945701,-0.00571556,-0.00504492;-0.00177064,-0.0028024,-0.00899538;-0.00730665,0.00228593,0.0120822;
0.00284792,0.00526426,0.00292076;-0.00116284,-0.00143748,-0.00182696;0.00240638,0.00113338,-0.000460303;
-0.00174153,-0.000608342,-0.00131789;-0.000956627,-0.00198162,-0.00129299;-0.00185712,0.000456123,0.000194609;
0.00234483,-0.00103976,-0.0029757;0.000468485,0.00543361,0.00387364;-0.00267827,-0.00708994,-0.0012737;
-0.00909128,-0.0378004,-0.0296598;0.0129405,0.0181316,0.0197101;-0.00997139,0.0180898,0.0116365;
0.00591052,0.00843748,0.0108854;0.00974987,0.00541855,0.0106535;0.0278353,0.0269676,0.0165633;
-0.00728768,-0.0155322,-0.00718139;-0.00661166,-0.0105369,-0.00532183;-0.00500741,0.00425369,0.00108249;
-0.00571481,-0.00581171,0.0117564;0.00146641,0.00471755,-0.00173278;0.00451945,0.00384804,-0.00136489;
-0.0355781,-0.0580201,-0.0177782;0.0108074,0.0333951,0.0209178;0.00999003,0.0228105,-0.00297529;
0.00897394,0.00612883,-0.00167677;-0.00160613,-0.00147259,-0.00964744;-0.00640552,-0.00512972,-0.00185422;
-0.00463427,-0.0128065,0.00147597;-0.00732697,-0.0083264,0.00365445;0.0262969,0.0295417,0.00634536;
-0.0318227,-0.0503726,-0.0285102;0.00786227,0.00395456,0.0174664;0.0139666,0.0447634,0.00942015;
0.00779455,0.0067509,-0.000886586;-4.34389e-05,-0.000368418,-0.00339946;0.000982868,-0.00093413,0.00465855;
-0.0142025,-0.0146535,-0.00199567;0.00569903,0.00347727,0.0116976;0.00876134,0.0149173,-0.00179313;
0.0194845,0.00817082,0.0118893;0.017529,0.013233,0.00956054;0.00767088,0.00708393,0.01575;
-0.0243733,-0.0536355,-0.0211532;0.0235414,0.0341163,0.0292275;0.00624487,0.0164551,0.0163609;
-0.0123424,-0.0126752,0.00661101;0.0101313,0.00521946,0.0168593;0.0164527,0.0167569,0.000939254;
0.000508531,-0.00482476,-0.0053206;-0.00347306,0.00185113,5.44883e-05;0.00338801,0.00220137,0.00454624;
0.00233216,-0.00779589,-0.0107769;0.00532064,-0.010812,0.0089888;-0.0113442,0.00247346,0.0110938;
0.00807038,0.00275506,-0.000886518;0.00856247,0.000546629,0.0101899;0.00113616,0.0088336,0.00949931;
0.00510415,-0.0030464,0.00147197;0.000505742,-0.00388167,-0.0109893;-0.0171385,-0.000517155,0.0165687;
-0.00405712,-0.0102763,-0.00488349;-0.00274258,-2.22472e-05,-0.000186021;0.00487381,0.0157103,0.00179976;
0.00208233,-0.00232433,0.000284789;-0.00150211,-0.00499432,-0.00649359;-0.00647291,0.000929345,0.00815821;
-0.00309795,-0.00598045,-0.00685756;-0.00181353,-0.00122619,0.00278082;-0.00368551,0.000894629,0.00258575;
-0.00463293,-0.011736,-0.00139313;-0.000655918,0.00840386,-0.00189329;-0.00807035,-0.00822939,-0.00420685;
-0.000380043,-0.00514043,-0.00177176;0.00504409,0.00593933,0.00735072;0.00400041,0.00590901,0.00875442;
0.00131888,-0.000753466,-0.00189152;-0.00100369,-0.0010038,-0.00115176;-0.00211123,-0.000971995,0.000195936;
-0.0363759,-0.0597565,-0.0354586;0.00406126,-0.0236917,-0.00620182;0.000958395,0.0550905,0.0421509;
-0.000122668,0.000901039,-8.8719e-05;-8.44212e-06,-0.000173335,0.000105112;0.000885944,0.000732639,-0.000744854;
-0.01053,-0.0100528,-0.00517775;-0.00193402,0.00270006,0.0142452;0.0156573,0.0172422,0.013914;
-0.00227887,0.00215155,-0.00558748;0.00094473,0.00517571,0.00227992;0.00388258,0.00019021,0.00883797;
-0.000188803,-0.00717829,-0.00625407;0.0171097,0.0146866,0.019273;-0.00437077,0.00410528,0.014081;
-0.0054967,-0.00903615,-0.0022823;0.00976484,0.0104424,0.00362482;0.0113065,0.0252913,0.00845771;
-0.0230883,-0.0472398,-0.0203009;0.0129977,0.0219978,0.0237494;0.00663054,0.0128256,0.0124478;
-0.0225324,-0.0341894,-0.0150992;-7.95017e-05,0.0097994,0.0155902;0.00183906,0.00139768,-0.01528;
#
0.000344512,7.35999e-05,-0.00166116;0.00494295,-0.00114101,-0.00569265;0.00292178,-0.00106598,-0.00714956;
-0.00141754,-0.00631293,-0.0123347;-0.00696655,-0.00768448,-0.00675899;-0.00991917,-0.00393924,0.00230095;
-0.00291131,-0.0122223,-0.0135403;-0.0033229,-0.0102915,-0.0141638;-0.00975812,-0.0152639,-0.00604614;
-0.000911091,0.00322632,0.00748062;-0.00230821,0.00227707,0.00553498;-0.00227969,0.000941779,0.00289431;
0.00045796,0.000278207,-0.000599671;-0.000963597,-0.00102591,0.000769307;0.000833848,-0.000555435,-0.000721515;
-0.000886113,0.000634319,0.00897606;0.00489089,0.00391908,0.0058413;0.00178998,0.00754829,0.00213922;
0.00580624,0.00897423,0.00880227;0.00305532,0.00604955,0.00196204;0.00787342,0.00585917,0.000995563;
0.00177315,0.00187349,0.00231891;0.00147654,0.00275986,-0.000470809;0.00186711,0.00333609,-0.00128264;
0.000945312,0.000881181,-0.00206379;0.00253758,-0.000601611,-0.00176465;0.00217253,-0.00042061,-0.00320472;
0.0131954,0.0161464,-0.00102024;0.00349344,0.00861083,0.00148017;0.0140299,0.0046212,-0.00266376;
0.00639937,0.00202565,0.000719179;0.00544643,0.00379114,-0.00395745;0.00995828,0.00759546,-0.00129493;
0.00193693,0.00386512,0.0050862;0.00076078,-0.003044,-0.00316699;-0.00471086,-0.00852183,0.000708697;
-0.000877301,-0.009682,-0.00767123;-0.00214641,-0.00803044,-0.0064465;-0.0114625,0.00259616,-0.00221754;
0.0129395,0.00265615,-0.0143698;0.00604392,-0.0037847,-0.0140633;0.0178232,0.0368931,0.00142658;
-0.00156884,-0.00520715,-0.00687509;-0.00296629,-0.00655388,-0.00834455;-0.00360458,-0.0147104,-0.00867942;
0.00573827,0.00135755,-0.000638104;0.00820172,0.00458988,-0.0110869;0.00130269,-0.00286432,0.000913992;
0.0423489,0.0391303,0.00754045;0.00965326,0.011755,-0.00873623;0.0347269,0.0200458,-0.00179825;
-0.00156054,-0.00124822,-0.00319882;0.00116995,-0.000951044,-0.00398443;0.00214593,-0.0051675,-0.00713652;
0.00799516,-0.00165864,-0.00476357;0.00684042,0.00314925,-0.00184008;0.011975,0.00604871,4.03915e-05;
-0.00370466,0.00163439,-0.00660469;-0.000468148,3.53388e-06,0.00111318;-0.0045113,-0.0103984,-0.000474888;
5.61355e-06,0.00818959,-0.00506122;0.00568218,0.00316799,-0.00358311;-0.00254863,-0.0021012,0.000782579;
0.0103915,-0.000685477,-0.0103832;0.0109081,0.00825757,-0.0145719;0.0193286,0.00996902,-0.00866097;
-0.00594955,-0.00602972,-0.00148855;-0.00154369,-0.00698873,-0.00545979;-0.00523873,-0.00792644,-0.00470826;
0.00542769,0.0106642,0.000394554;0.0224035,0.0190075,0.00135889;0.030986,0.0150998,-0.0068091;
0.00936478,0.0143671,0.00962334;0.0131515,0.0137923,0.00550471;0.0221704,0.0229985,0.00472371;
-0.000549633,0.010009,0.0221869;0.000388266,0.00825779,0.0115984;-0.00413926,0.00421988,0.00524811;
0.0110317,0.00993834,0.000776837;0.00130672,0.000668722,-0.00267574;0.0139824,0.0111458,0.00142165;
0.000637319,0.00198334,0.00528597;0.00234175,0.00127584,0.0028254;-0.000161683,0.000179218,0.00129538;
0.00153803,0.00208386,0.00114961;-0.00161365,-0.00196982,0.000679731;-0.00208102,-0.000666396,-0.00116971;
-0.00849626,-0.0136016,-0.0105357;-0.00911996,-0.0158311,-0.00797094;-0.0252843,-0.0160254,-0.00121874;
-0.000165132,0.00112687,4.97687e-05;0.00142092,0.000495161,0.00075928;-0.00161972,0.00166157,0.00136748;
0.000284155,0.00109732,-0.00198679;0.000568181,-0.000812072,-0.000907524;0.0023381,0.000252592,-0.000398403;
0.0159582,0.0195912,0.00536356;0.00309934,0.00210908,-0.00331928;0.00667347,-0.00458891,-0.000372133;
-0.00111266,0.000137144,0.000395279;0.000288775,0.000208042,0.000472389;0.000470815,-0.00076046,0.00022344;
0.00302419,-0.00372276,-0.0124518;0.0106761,0.00838572,-0.0115949;0.00483726,0.0121072,-0.00356387;
0.000403602,-9.11579e-05,-0.00208935;0.00572651,0.00998106,-0.00703382;0.00240908,0.0197361,-0.00133722;
0.00129146,-0.000500981,0.000408471;-0.000419025,0.00304375,0.00557328;-0.000438912,0.00307036,0.00532763;
0.027917,0.0326911,0.0199562;0.0174266,0.0243352,0.00622784;0.0348206,0.0410792,0.00899209;
0.00323251,0.00496432,-0.00532235;0.000699617,-0.000856155,-0.00347209;-0.00751798,-0.00822625,-0.00248045;
0.0082758,0.00407535,-0.00594048;0.0110998,0.00409694,-0.0104428;0.00712338,-0.00225952,-0.00344948;
#
0.00446105,0.00399829,-0.00398078;-0.00668738,-0.000716609,0.000933352;-0.0106032,-0.00711589,0.00257985;
0.0198204,0.013264,0.0142494;0.0115297,0.0137893,0.0118064;0.0271277,0.0280958,0.0261895;
-0.00126282,0.00594761,0.00386362;-0.00495174,0.00701279,0.00803943;-0.0130823,0.000503133,0.00130709;
-0.00730604,-0.00449926,-0.0065225;-0.00209242,-0.00776399,-0.0152292;0.00833814,-0.00108594,-0.00581847;
-0.00114559,-0.000261162,0.000797028;-0.00071964,0.000429612,-0.000943641;-0.00069654,-0.000345841,-0.000746128;
-0.015148,-0.00756301,-0.0119386;-0.0157853,-0.0175585,-0.0337402;-0.00693217,-0.0193803,-0.00664323;
-0.00424206,-0.000344701,-0.0022469;0.00409832,-0.0012854,0.000697993;0.00306245,-0.00217494,-0.00405366;
-0.00328914,-0.00129152,-0.00121837;-0.00135368,-0.00258045,-0.00156081;0.00229603,8.54832e-05,0.00249781;
-0.000660446,-0.00109201,-0.00348621;-0.00788883,-0.00701492,-0.00578274;-0.00792575,-0.00356649,0.000858711;
0.0215527,-0.00236241,-0.0271776;0.00377659,-0.0376487,-0.0333179;0.00286879,-0.018637,-0.0236544;
0.00993403,0.0146319,0.0162686;0.00612745,0.0135493,0.0172962;0.00620097,0.0133935,0.0207558;
0.00680643,0.00801659,0.00436016;0.00425522,0.00107277,-0.00333429;0.0127367,0.00769793,0.00316131;
0.00159921,-0.00158393,0.0130487;-0.00674067,0.00592936,0.0089187;-0.0179153,-0.000856213,0.00379713;
0.0306007,0.0193304,0.0156224;0.0149369,0.0325512,0.042559;0.00372661,0.0177372,0.0348296;
-0.00997777,-0.0100176,-0.00098638;-0.0156659,-0.00665067,-0.0108807;-0.0197006,-0.0220458,-0.0159597;
0.012016,0.0283397,0.022668;0.013279,0.0143222,0.0164093;0.013621,0.0326859,0.0333035;
0.00228501,0.0100244,-0.0134999;0.0223459,0.00860748,0.00268821;0.0378914,0.0369138,0.0133661;
-0.00643618,-0.00175238,0.000987357;-0.011735,-0.00272336,-0.00105253;-0.0189469,-0.0195086,-0.00519114;
-0.00636309,-0.000134388,0.000189818;-0.0101478,0.00108573,-0.00016135;-0.00408133,0.013044,0.0135963;
0.0108877,-0.00235719,-0.00277878;0.00190768,-0.00794909,-0.0196947;0.0145304,0.00368077,-0.00756378;
0.0237302,0.00809979,-0.00496458;0.0168842,0.00141356,-0.0055589;0.0417714,0.0336189,0.0195516;
-0.0136533,-0.000753882,-0.0074658;-0.0226443,-0.0103718,0.00346581;-0.0173627,0.00980666,0.0117267;
-0.00150862,0.00188417,-0.00721463;-0.00586358,-0.00441834,-0.0056919;-0.00473693,-0.00555242,-0.000156709;
-0.0322443,-0.0265912,-0.0408396;-0.0359826,-0.0621366,-0.059198;-0.0288972,-0.0337868,-0.0252046;
-0.0128773,-0.00740202,-0.0173306;-0.00318208,-0.0208157,-0.0243143;-0.00598051,-0.0139353,-0.014401;
-0.0140058,-0.00238097,-0.00841747;-0.000638474,-0.00549656,-0.0337437;0.0226198,0.000708973,-0.00357286;
0.00416291,0.00240228,0.00025654;0.00369426,0.00282093,0.00623839;-0.00585094,-0.00686157,-0.00281696;
-0.00206655,-0.000979844,0.00021649;0.00133597,0.000982835,-0.00666503;0.00765002,-0.00461225,-0.00297008;
0.000440055,0.0040401,0.00149965;0.00313611,0.00111644,-0.00196396;0.00560295,0.00287799,0.00357353;
7.68323e-05,-0.006198,-0.00172156;-0.00921301,-0.00887417,-0.0143205;-0.000492969,-0.00283882,-0.0114956;
0.0052272,0.00613437,0.00242229;0.00179624,-0.00178447,-0.00208865;0.00950884,0.00558676,0.00291413;
0.000933123,0.000346114,0.000942537;-0.00164734,-0.00276433,-0.000832605;-0.00233511,-0.00210604,-0.0028301;
0.0270804,0.0205546,0.00300696;0.0240649,0.0050076,-0.0205407;0.0588625,0.0321173,0.0226362;
-0.000822965,0.00105362,0.00107009;-0.000370946,0.000793097,0.000893092;0.000732841,-0.000452653,-0.00120218;
-0.00148269,0.00583323,0.00371015;-0.0170501,-0.00180882,0.0131715;-0.0122349,-0.000439455,0.0124939;
-0.018027,-0.0151046,-0.00739253;-0.0242836,-0.0156119,-0.00753673;-0.0202085,-0.0137493,0.00770822;
0.00800361,0.00500021,-0.00429256;0.00347013,-0.0103769,-0.0140641;0.0119717,0.00730819,-0.000229864;
-0.00782894,0.000675918,3.72038e-05;-0.000102264,0.000662858,0.0016517;0.0064321,0.00143347,0.000318835;
0.0286002,0.0127437,-0.00569888;0.0111621,-0.00499886,-0.00259564;0.0387307,0.0255179,0.0145016;
-0.00644543,-0.00340787,-0.0101962;-0.01604,-0.0243817,-0.00878206;0.00635089,0.0207562,0.015308;
#
0.00138196,0.00128515,-0.00298203;-0.0013596,-0.000691945,-0.00515127;0.000570933,0.00711784,0.00296359;
0.0110649,0.0077822,0.00132175;0.00151262,-0.00598132,-0.00474394;0.00371236,-0.00304281,-0.00197176;
0.00928244,0.00583392,-0.00422047;0.00238329,-0.00473821,-0.00307091;0.00022197,0.00833066,0.00200897;
-0.00354498,-0.00450132,-0.000115909;-0.00280213,-0.00207841,-0.00285536;0.00240133,0.000429643,-0.00379239;
-0.000831115,0.000567198,-0.000935319;0.000574578,0.00131731,0.00127719;-0.000298237,0.000821837,0.00106464;
-0.000476704,-0.00254855,-0.00365311;-0.000370374,-0.00817077,-0.00483037;0.00850268,-0.00196123,-0.00488499;
0.00131017,0.00407016,0.00261225;0.00161594,0.00576124,0.00456245;0.00455034,0.00212919,0.00462253;
0.000992902,-0.000158515,0.000254422;-0.00128073,0.00109754,-0.000171182;-0.000299785,-4.51301e-05,1.95362e-05;
-0.000406011,0.00155683,-0.00297261;0.00119488,-0.000575192,-0.00236286;0.00180938,0.00599321,0.00338828;
-0.00986968,-0.0187558,-0.0105375;-0.0106592,-0.0352485,-0.0300157;-0.013859,-0.0194149,-0.00372882;
0.0203939,0.015996,0.013677;0.0165218,0.015827,0.0157208;0.0121984,0.0125271,0.0192718;
-0.000274047,-0.00998036,0.00386687;-0.00661618,-0.0120658,-0.0114985;-0.0127845,-0.0156051,-0.0150663;
0.00813295,0.0114199,0.00308319;-0.00183864,0.00168839,0.0107381;0.0127278,0.00696446,-0.00375351;
0.00222685,-0.00694055,-0.016884;-0.0267459,-0.0367216,-0.0111235;0.00371158,-0.0144785,-0.00899174;
0.0121451,0.00892947,-0.00292441;0.00739182,0.00250352,-3.70862e-05;0.00356057,0.0130728,0.00300116;
0.0195562,0.000195094,0.0238797;0.0059601,-0.00152212,0.000562354;-0.00707351,-0.000428908,0.00821039;
0.00136378,-0.0157602,0.00499856;-0.0076779,-0.0225331,-0.0199509;-0.017369,-0.0388207,0.0114193;
0.00838729,0.00991144,0.00198244;0.0067157,0.00517803,0.00253337;0.00526446,0.0101737,0.0066166;
0.00954881,0.00251232,0.00161202;0.00116853,-0.00312522,0.00151351;0.000215611,-0.00397954,0.0130357;
0.0174051,0.0109612,0.0113941;0.0149459,0.00498739,0.00793954;0.014462,0.010817,0.00967472;
-0.003281,-0.0237494,-0.00205391;-0.0239934,-0.0439895,-0.0289605;-0.00974791,-0.0135164,-0.00882806;
0.00987121,0.00689999,0.0152493;0.00462755,0.00199252,0.0032971;0.00216183,0.00483866,0.0259069;
0.00598994,0.00163538,0.00479388;-0.000440304,0.000487942,-0.00381639;0.00442767,0.0165299,0.00282696;
0.0103608,0.0126322,0.0133731;0.00593234,-0.00499752,-0.0106546;0.0102106,0.00134802,0.0181217;
0.00949384,0.00877132,0.0144528;0.0102704,0.00887572,0.00656878;0.0202356,0.0095918,0.0232857;
0.000512373,-0.00842031,0.00505194;-0.0032925,-0.00834908,-0.00647517;0.00748962,-0.00170184,-0.0098541;
0.00122268,-0.00252875,-0.00531531;-0.00353715,-0.00363775,-0.00188776;-0.00394533,-0.0107011,-0.00153945;
0.000555833,-0.00315467,0.00264558;-0.000782332,-0.00269459,-0.00239281;-0.00135956,-0.00266341,-0.0069291;
-0.0016523,-0.00337447,-0.00240615;-0.00104354,-0.00267641,-0.00578587;-0.00188268,-0.00376223,-0.0045652;
0.00629279,0.00321708,-0.00416721;-0.00469553,-0.0085916,-0.0102081;0.00509435,0.00934041,-0.0161225;
0.00176189,0.000401666,0.00511475;0.00252601,-0.00184898,-0.00152308;0.00351566,0.000937858,0.00071885;
0.000957919,0.000326881,-0.00048449;0.00110351,-0.00253401,-0.00147718;-0.000903105,-0.00133576,-0.000267066;
-0.00476355,-0.0184912,0.0039447;-0.0161432,-0.04109,-0.0374426;-0.0279105,-0.0608917,-0.0395488;
0.000356313,-0.00111737,0.000503006;0.000792699,-0.00102369,-0.00112254;0.00114817,-0.0006919,0.000233605;
0.0123087,0.0131702,0.00908636;0.00492727,0.00348516,-0.00179506;0.00570288,0.0144143,0.015001;
0.00373533,0.0134819,0.00824895;0.000439966,0.00830592,0.00173648;0.013554,0.0187126,0.000630153;
0.006389,-0.00392014,0.00654052;0.00400008,-0.00714244,-0.00370812;0.00783287,-0.00195088,0.0045513;
0.0121896,0.00490727,0.00818702;0.000582941,0.0116724,0.0148444;0.0214086,0.00868722,0.0259641;
-0.00374567,-0.0241299,-0.00653565;-0.0197683,-0.0384532,-0.027008;-0.011458,-0.0162039,-0.0115128;
0.0018734,-0.0134002,-0.00254997;-0.0118362,-0.0217655,-0.0199004;-0.0127386,-0.0081014,0.00349817;
#
0.000454089,-5.44757e-05,0.000629303;-0.000103465,-0.00084311,-0.00042202;3.33931e-05,0.000503035,-0.000791576;
-0.000630001,-0.00062335,-0.000814397;0.000403954,0.000412679,-0.000107483;-0.000504694,0.000123208,0.000202265;
-0.00118987,0.000125918,0.000481482;-0.000850995,-0.000871853,0.000243627;0.000979643,-0.000627939,-0.00085274;
0.000954677,0.000859324,-0.000171817;-0.00107449,0.00108777,0.000865976;-0.000587946,-9.16573e-05,-0.000207667;
0.000496443,0.00026164,-0.000538126;0.000872445,0.000456184,0.000896927;0.000885654,3.07609e-05,-0.000448818;
-0.000698361,0.000406871,-0.00067566;-0.0007446,-0.00072773,-0.000617183;0.000179287,0.0011408,-0.000647328;
0.000806075,-0.000719563,-5.83774e-05;0.000709072,0.00022704,-3.83782e-05;0.000515614,0.000493235,0.000204886;
0.000364079,-0.000838056,6.45725e-05;-0.000444553,-0.00115991,0.000430444;0.00037392,0.000131513,-0.00104376;
0.000997553,-0.00015356,-0.000963435;0.000701879,0.000603121,-0.00106717;0.000407761,-0.000532368,-1.20371e-05;
-0.00115637,0.000903814,-0.00112398;-0.000171772,0.000974476,-0.0007113;-0.000489473,-0.000985547,0.000802771;
-0.000497189,-0.000508406,8.26264e-05;7.68064e-05,-0.000722065,-0.00102513;0.00037017,-0.00048826,0.000265631;
2.84721e-06,0.00109177,0.000294479;0.000194985,0.000653545,1.46328e-05;-0.00112214,0.000426431,0.000941864;
-0.00116543,-0.000764326,-0.00111994;-0.000125656,-0.000464222,-0.000428236;3.22142e-05,-0.000171846,-0.000996793;
-0.00016868,0.000427124,-0.000904641;0.00107097,-0.000397448,-0.000900224;0.000583175,-0.00081045,-0.000329144;
-4.54516e-05,0.00090417,0.000219751;0.000245376,0.000553655,0.000653629;0.000712963,-0.000734172,0.000133042;
0.000220488,0.000738741,0.0006588;-0.000114509,0.000487158,-0.000987476;0.000227357,-0.000945547,0.000904547;
0.000217113,0.000705217,-0.00025778;-0.000677481,0.00097666,-0.00116279;0.000834219,-0.00123269,0.00103795;
0.00045395,0.00100016,-0.00111159;1.07715e-05,-0.00120165,0.000478769;-0.000536668,8.30798e-05,0.000459193;
0.00106353,-0.000397215,-0.00028852;0.000192636,0.000665499,0.000670686;-0.00114986,-0.000420949,-0.00114148;
0.000915201,-0.00122039,0.000958741;-0.000910649,-0.000975064,-0.00123609;0.00083095,0.000212523,-0.00119412;
-0.000411276,0.000948742,-0.000903041;0.000528833,0.000906962,-0.000110017;-0.000765575,0.00052555,0.000157504;
0.000333801,0.000973777,0.000436048;-0.000655405,9.48557e-05,-7.9284e-05;-0.000977895,3.13976e-05,-0.00106916;
-0.000877956,0.000209828,0.00017254;-0.000877314,-0.000801548,-0.000170414;0.000889728,0.000499822,-0.00103779;
0.000401129,-0.000692219,-0.000629205;-0.00128121,7.40129e-05,-0.000698891;0.000234305,-4.86998e-05,0.000942444;
0.000730876,-0.000923238,0.000373795;-0.000649097,-0.000981285,-0.000114907;-0.000365629,-0.00110673,0.00105354;
-0.000151054,0.000171978,-0.000122453;0.000921091,-0.00120047,-0.00121265;-0.000786294,2.47153e-05,-0.000390612;
0.000509463,-0.000220473,0.000201384;-0.00110291,0.000395956,-0.000993025;-0.00114551,0.000108007,-0.000610869;
-0.000808557,-0.000622255,-0.000559515;0.000654871,0.00047556,0.000302443;-0.000203801,0.000992921,0.000980166;
0.000223291,0.000532582,0.000264421;-0.000608443,-0.000493455,-0.000799326;0.000210829,-0.000105628,-0.000963543;
-0.000890318,0.000371809,0.00021864;-2.36475e-05,0.00109809,-0.000732437;-0.000673452,0.000158357,0.000518319;
-0.000695745,-0.000643632,0.00022374;7.15634e-05,0.000768572,0.000328313;7.11603e-05,-0.001195,0.000636686;
-0.000528521,-1.99268e-05,-0.00115702;0.000783748,-0.000208728,0.000270806;0.000969227,-0.00074432,0.000406142;
-0.000149472,-0.000294732,-0.00122918;-0.000867454,-9.90047e-05,-0.00127258;-0.000468521,0.000415788,-0.000182602;
7.26254e-05,0.000588415,0.000648294;0.000243441,0.00104175,0.00107696;-5.04161e-05,0.000352511,-1.77553e-05;
-0.00109158,0.000370773,-0.000668714;0.000286856,0.00100293,0.000246792;0.000774772,-0.00119035,0.000467385;
0.00057293,0.000672038,0.000883459;3.70331e-05,-0.000965609,0.000870045;0.000804838,-0.000675734,0.000982338;
-0.0012082,-0.000849297,0.000242161;-0.000489603,0.000441044,0.000784291;0.00092633,-0.000113137,0.00102016;
0.0004321,-0.00124877,-0.000935489;-0.000406531,0.000173971,0.000637851;0.000120731,-0.000467757,-0.00120666;
0.000118114,-8.28363e-05,0.000483993;-0.000285361,0.000276762,-0.000920108;0.000335754,0.000844617,-0.000182582;
-0.000386103,0.000275378,-0.000103461;0.000919509,0.000466708,0.000342502;-0.000427662,0.000675445,-0.000837316;
#
-0.00416797,-0.00881234,-0.000742343;-0.00196067,-0.000419637,0.000232814;0.00143726,0.00396086,-0.00638326;
0.0144052,0.0151956,0.0133234;0.0177133,0.0017386,-0.00345544;0.0094775,-0.0141174,-0.0107825;
0.00579189,-0.000703264,0.0110394;-0.00545243,-0.00218468,0.00886388;0.00787603,-0.00265695,-0.0143888;
-0.0120238,-0.00717744,-0.000885773;-0.000607442,-0.00509083,-0.00297473;0.000457674,-0.00598823,-0.000276296;
-0.000680716,-0.000924634,-0.00115498;0.000181526,-0.000771738,0.000388486;-0.000905327,-0.000751234,0.000685637;
-0.0242997,-0.0146323,-0.00862415;-0.00211086,-0.00428683,-0.00434904;0.00405572,-0.00839524,-0.00441791;
-0.000352956,0.00281926,-0.00135983;0.00421305,0.00547064,0.00569321;-0.00295444,0.00694349,0.0126018;
-0.00159741,-0.00134148,0.000392093;0.00417066,0.000351523,0.000700126;0.00295122,0.000364048,0.000991215;
-0.00456459,-0.00637167,-0.000233352;-0.000754067,-0.00183288,0.00377001;0.00354524,0.00164447,-0.00239498;
-0.00420616,-0.0323422,-0.0322934;-0.000234181,-0.04309,-0.0280268;-0.0132921,-0.0254503,-0.0354361;
0.0237821,0.0218853,0.00917587;0.0244859,0.0267791,0.0141483;0.0215033,0.0200831,0.0204056;
0.00125322,-0.00657936,0.00070187;0.0102815,-0.00753128,-0.0208014;0.0126065,-0.0100384,-0.02184;
-0.00137134,0.0225339,0.0203944;-0.0137792,0.0184124,0.0240425;0.000180254,-0.00759965,0.00589386;
0.0360534,0.0184721,-0.0162295;0.0187029,-0.00127249,-0.016933;-0.0253321,-0.035546,-0.0159444;
-0.00393751,-0.000589912,0.0149155;-0.0130808,0.00478109,0.0256527;0.0230668,0.0153867,0.00323025;
0.0215312,0.00745012,0.011929;0.0319654,0.0101373,-0.0183282;0.030958,0.00836829,-0.0158028;
0.0162077,-0.00243535,-0.0324908;0.0374563,-0.00501178,-0.0276685;-0.0132088,-0.0253929,-0.0175646;
-0.00175593,0.00154906,0.00950352;-0.00574344,0.00542145,0.0166003;0.0174959,0.0145398,0.00889248;
0.00591588,0.0019943,-0.00972566;0.00413331,0.00504444,-0.0101434;-0.00511047,0.00148787,-0.00496864;
0.0131282,0.0086659,0.0248922;0.00873807,0.00514845,0.0218979;0.0299038,0.0169707,0.00826753;
0.0104698,-0.0187158,-0.0225824;0.0229601,-0.0297908,-0.0492856;0.012337,-0.0309473,-0.0357634;
-0.00331108,-0.00703233,-0.00699406;-0.00300978,0.00029075,-0.00836373;-0.00824006,0.0103201,-0.00674066;
-0.00644389,-0.00841414,0.00703568;0.000530969,-0.00244303,-0.000479949;0.0122611,-0.00428611,-0.0132712;
-0.0278733,-0.0310668,-0.0203414;-0.0171832,-0.0126925,-0.00214778;-0.00650598,0.00822038,-0.00123841;
-0.00181911,-0.000966105,-0.00319886;0.00316943,0.00674719,0.0167744;-0.00843061,0.0203027,0.027945;
-0.0206646,-0.0154694,-9.91276e-05;0.0124699,-0.0102367,-0.014743;0.0229052,-0.00843835,-0.0036174;
0.0110878,0.00527549,-0.00631702;0.00636947,0.00226513,-0.00172237;-0.00794692,-0.00186135,0.000279073;
-0.000877482,-0.00364261,-2.42052e-05;0.00535073,-0.00287796,-0.00878287;0.00982376,-0.000641319,-0.00617295;
-3.72467e-05,-0.00335588,0.000310364;0.00685541,-0.00194768,-0.00693902;0.00380502,-0.00472758,-0.00400218;
-0.00945697,0.00325107,0.016271;-0.010124,-0.00109289,0.0111468;0.00662171,-0.0224631,-0.0236852;
0.00379398,-0.000169293,0.00241684;0.00645504,-0.00225657,-0.00217219;0.00560822,-0.00417916,-0.00284395;
-0.000441745,-0.00341953,-0.00135294;-0.00108522,-0.00157461,0.00183403;-0.000743985,-0.000313758,-0.00239015;
0.015455,-0.01276,-0.0110934;0.0344116,-0.034576,-0.0583282;0.0210331,-0.049238,-0.0503696;
0.000722354,-0.00023672,0.000556975;0.00112615,0.000761311,-0.0001817;0.000653629,0.0011584,-0.00040879;
0.00687676,-0.00371664,0.00287683;0.00582842,0.000535331,0.00650078;0.0055961,-0.000363371,-5.71182e-05;
-0.0211409,-0.00744272,0.00830527;-0.00886535,-0.00497413,0.0183369;0.000859373,-0.0129391,0.0091464;
0.00565643,-0.00706242,-0.00536468;0.00885756,-0.0114421,-0.0120623;0.000589272,-0.00716821,-0.00906067;
0.00491315,0.00781575,-0.0117724;0.0190393,0.0243847,0.017786;-0.0173359,0.00610138,0.0388979;
0.0116219,-0.0161628,-0.0278713;0.0210983,-0.0274545,-0.0455256;0.0041424,-0.0399537,-0.0431634;
-0.00450483,-0.0164638,-0.0176086;0.00949569,-0.009107,-0.0284382;-0.00946138,-0.0151719,-0.028804;
#
-0.00388534,0.00324882,-0.0026315;0.000555198,0.0045858,-0.00218506;0.00365591,0.0069157,-0.00303891;
0.00816481,-0.00443935,-0.00360978;0.0139694,-0.00351701,-0.00535941;0.00601697,-0.00404897,0.00402379;
-0.00402254,0.00751035,0.00115878;0.00266654,0.0121441,-0.00126362;0.0106844,0.012998,-0.0023216;
0.00428299,-0.00474273,-0.000560017;0.00615589,-0.00471434,-0.000627776;0.00546695,-0.00298227,-0.00309158;
-7.61591e-05,0.00136494,-0.000876531;0.000376623,0.0010178,0.00100826;0.000464388,-0.00058009,0.000425258;
0.0209207,0.00284426,-0.00966038;0.0238289,0.00258005,-0.00828828;0.0235486,-0.000365366,-0.00778829;
0.000401099,-0.00485605,0.000413929;-0.00197343,-0.00159554,0.00141043;-0.0027703,-0.00111945,0.000354834;
0.00268932,-0.00136759,-0.00200977;0.00436855,0.000834136,-9.02924e-05;0.000940761,0.000602594,-0.000912692;
0.000630513,0.0029317,-0.00231384;0.00307862,0.00431905,-0.00276674;0.00597089,0.00230536,-0.00302832;
-0.0140371,-0.0211878,0.00655058;0.0178759,-0.0154906,-0.0167779;-0.00162655,-0.0150806,-0.00203614;
0.00995057,9.68843e-05,-0.00180427;0.0121483,0.000527355,-0.00257972;0.00502676,0.00484271,0.00134525;
0.00139964,-0.00844513,0.00090526;0.00333254,-0.0106779,-0.00239391;0.00561566,-0.00749327,-0.00561034;
0.0119467,0.0127431,-0.0123778;0.014938,0.0080859,-0.00729104;0.0121104,0.000180049,-0.000805776;
0.0233739,-0.0119345,-0.00942623;0.0303684,-0.00642421,-0.00933227;-0.00173635,-0.00286622,0.0177693;
-0.00501735,0.0173169,0.0017038;0.00839923,0.017444,-0.00901831;0.0179868,0.0113138,-0.0121492;
0.00700386,-0.00411314,-0.000790948;0.0027296,-0.00774292,-0.00563234;0.0101534,-0.00451047,-0.00639179;
0.00328249,-0.0299566,0.0077604;0.0386517,-0.015058,-0.0142171;-0.00920566,-0.0178452,0.00329812;
-0.00145674,0.0106435,0.00152472;0.00423605,0.0115646,-0.00518367;0.0121758,0.00658798,-0.00809972;
0.00857057,0.00285783,-0.00136245;0.0110059,0.00305133,-0.00292258;0.00494094,0.00772866,0.00682476;
-0.0127929,0.00235608,0.0110422;7.85877e-06,-0.00153501,-0.00561649;0.0059616,-0.00166714,-0.00855794;
0.0146422,-0.0206116,0.0121407;0.00929157,-0.029342,-0.00149492;0.0157718,-0.0148669,-0.000298868;
-0.00181603,0.0105256,0.00622477;0.000438656,0.0131116,0.000642867;0.00435304,0.0255902,0.00302595;
-0.000161563,0.00688247,-0.00163488;0.00240701,0.00693731,-0.0021955;0.0149868,0.00753235,-0.0104833;
0.000812802,0.026244,0.0113849;0.0103754,0.0251354,-0.00750638;0.0242298,0.0233342,-0.0118793;
0.00337309,-0.0013363,0.00251466;0.00440481,0.00331143,-0.00161888;0.000324549,-0.00119069,0.00188757;
0.0193763,-0.00976704,-0.00419913;0.0166954,-0.0137615,-0.00546352;0.0194862,-0.00991666,-0.0100217;
0.00578224,-0.00764237,-0.00179855;0.011054,-0.00319329,-0.00487892;-0.00771555,-0.0063209,0.000913598;
0.00353404,-0.0059664,0.000259247;0.00159632,-0.00464278,-0.00317987;0.00431379,-0.00319291,-0.00457914;
0.00486561,-0.00221088,-0.00120961;0.00758636,-0.00199699,-0.00227791;0.00225932,-0.00149558,-0.00148793;
0.00105691,0.0118366,-0.00611844;0.0147574,0.00667451,-0.00557891;0.0200355,-0.000765715,-0.00890218;
0.0025878,-0.00284211,0.00102962;0.00714268,-0.00244096,-0.00257797;0.00703496,-0.00165862,0.00189174;
-0.00151973,-0.000307684,0.00113429;0.00158191,0.000898491,-0.00193116;0.000952586,-9.71867e-05,0.000331928;
0.0162485,-0.0185287,0.0147926;0.0261706,-0.0313706,-0.0103408;0.0142164,-0.021891,-0.0108614;
-9.54095e-05,0.000323931,-0.000949533;0.000890702,-0.000649925,0.000270771;0.00108199,0.00106731,-0.00065002;
0.00557355,0.0145046,-0.00490989;0.0087604,0.016908,-0.00543805;0.0156724,0.0162895,-0.00111823;
0.0224865,0.0224587,-0.0126519;0.0230164,0.0186312,-0.00897639;0.0238572,0.00351544,-0.0033346;
0.00346352,-0.00527104,-0.000332911;0.0113942,-0.00463016,-0.00358809;0.00762369,-0.00236561,0.0019577;
0.0178709,-0.0207577,-0.00424821;0.0218615,-0.00299335,-0.00443319;-0.010097,-0.00524548,0.00897269;
0.00892593,-0.0192523,0.00816191;0.0156003,-0.024415,-0.00820489;0.0124763,-0.0133362,0.00605353;
0.00609518,-0.00517203,0.000537127;0.0108296,-0.00307744,-0.00662517;0.00620672,0.00285976,0.00363324;
#
6.98749e-05,0.000626689,-0.00108486;-0.00116193,-0.000977348,0.000381458;-0.000288966,-0.000673377,-0.000250503;
-0.00110338,-0.000113241,-0.000175181;-0.000361356,-0.000210231,0.000560626;-0.000117363,0.000933687,5.60537e-05;
0.000502843,-0.00114457,-0.000334699;0.000684438,0.000284307,-6.52762e-05;0.000781191,0.000409536,0.000769713;
-0.00076525,-1.03311e-05,0.000500237;-0.000981921,-0.000344089,-0.00118729;-0.00106527,0.000162878,-0.00069473;
0.000660514,-0.000907405,0.000961247;0.000286576,0.00101241,-0.000134352;0.000669707,0.000272231,0.000671683;
0.000578721,0.000730643,-3.84136e-05;0.00027988,0.000473007,-6.38943e-05;-0.000682328,0.000128753,-0.00109745;
-0.000253856,0.000342978,-0.000200847;-0.000163341,0.000220283,0.000862137;-0.000187791,-0.000460176,0.000816473;
6.49681e-05,-0.000334552,-0.00105892;-0.000963351,0.000793701,0.00107814;-0.00105589,-0.00113938,-3.4581e-06;
0.000579629,-0.000243965,-0.000620285;0.000171244,-0.000369768,0.000421653;-0.000686088,-0.00110953,-0.000302192;
-0.00107804,-0.000973128,-0.00106186;0.000426633,0.00105109,-0.00117482;-0.00113443,-0.00102486,-0.00117054;
-0.000926147,0.000609239,-0.000789649;-0.000334261,-0.000732003,0.0010656;-9.16933e-05,0.000440068,-0.000658124;
-0.000453357,0.00102499,-0.000475339;0.000575592,-0.000322697,-0.00104059;0.000606019,6.40279e-05,0.000357961;
-0.00102887,0.000704437,-0.000476179;0.000183374,-0.000544139,0.000850546;0.000237502,0.000495507,0.000955246;
-0.000387627,0.000850395,-0.00094171;0.000792855,0.000844884,-0.000916013;2.88141e-05,-0.000871731,0.000339445;
0.00035741,0.000677159,-0.000151477;0.000555683,0.00110616,-0.000983912;-0.00113361,-0.000775477,0.000447466;
-0.000408901,-0.000312067,-0.000582323;0.0011094,0.000493087,-0.00123543;-0.000565316,0.000561817,-0.00107944;
-0.000181856,0.0010536,0.000359383;0.000596019,-0.000828801,-0.00132318;0.000484711,-0.000260834,-0.000173117;
0.0010306,-0.0010395,-0.000481768;-0.000441432,-0.000522868,-0.000874222;-0.000564952,0.000824796,0.000696294;
0.000866907,0.000648043,-0.000706541;0.000127896,0.000390745,-0.00031492;0.000211261,-0.00069627,0.00116965;
0.00100026,0.000774525,-0.000808342;-0.001078,0.000856695,0.00056057;-0.000944289,0.000758371,0.000447243;
-0.000690748,-0.000225575,-0.00113526;-0.000503671,0.000352083,0.000874408;-0.000294683,0.000403367,-0.0010085;
-0.000453014,-0.000723418,-0.000933759;-0.000672001,0.000946664,-0.000513138;0.000722712,-0.000180037,0.000848052;
-0.000451846,0.000344785,0.000369175;0.000545895,-0.000539685,-0.000173778;-0.00114264,-0.000384508,-0.000367676;
-0.000312105,0.000546279,0.000194812;-9.82272e-05,0.000893331,0.000951574;-0.00020991,0.000296098,-5.11547e-05;
0.000338329,0.00094255,0.000511577;0.000323068,0.000451509,-0.000460067;0.000709179,-0.000127864,-0.000441202;
-0.000844847,-0.000369159,0.00103582;-0.00122016,0.000162025,0.00104646;-2.68894e-05,-0.000847737,0.000894372;
9.44711e-05,0.000685011,-0.000144458;0.00110741,-0.000711744,-0.000283055;-0.00107821,-0.000722409,0.000298838;
0.000611653,0.000798999,0.000603751;-0.000387362,-0.00124311,0.00100764;2.2031e-05,-0.000369325,-0.0001389;
0.000691074,-2.01468e-05,-0.000909929;-0.000779564,-0.000565666,0.000648032;-0.000213829,-0.000361039,0.000243597;
-0.000922254,-0.00109289,0.000997002;0.000414435,-0.000801633,-0.000384494;-0.000252798,-0.00119554,-0.000362565;
0.000971033,-0.00080179,0.00112845;-0.000801568,-0.000280002,0.000373413;-0.000206442,-0.00015396,-0.000369209;
-0.000792002,-0.000280914,-0.000203927;0.000524745,0.00115138,-0.000409887;-0.00114933,-0.000954832,0.000260407;
0.000413796,2.26095e-05,-0.00122659;-0.000308597,-0.000205793,0.000853487;-0.000904854,0.000579721,0.000854001;
-0.000142881,-0.000741689,0.000771604;0.000260065,-0.00116597,0.000908266;-0.000243246,0.00113798,-0.000927217;
-0.000421624,-0.000199233,-0.00113987;5.18741e-05,0.000981407,-0.000530355;-0.000155877,0.000586131,0.000514166;
-0.00123736,-5.19741e-05,-0.000907583;0.000915155,0.000439303,-0.000257129;0.000155256,0.000625812,3.97719e-05;
0.000299074,-0.00060961,-0.00114351;0.000129831,-0.000275074,0.000933456;0.00111802,-0.00120339,0.000375185;
0.00013241,0.000205851,0.000547555;-0.00028,-0.0011793,-0.00115515;-0.000292883,0.000854239,0.000418748;
-0.000864248,-0.000950583,0.000270178;-0.000400133,0.000396331,0.00055414;-0.000967475,-0.000177272,0.000882188;
0.000106343,7.71139e-05,0.000303642;0.000150969,-0.000302921,-0.000759726;5.75069e-05,-0.00042275,0.00035684;
#
0.000813537,-0.0048643,-0.00240299;0.00290738,-0.00489795,-0.00432087;0.000128241,-0.00172886,0.00121663;
-0.00917178,0.0115966,0.0126376;-0.0127677,0.0105285,0.00978847;-0.00865045,0.000963317,-0.00204343;
0.0120778,-0.008796,-0.000833801;0.0146276,-0.000708986,-0.00389904;-0.0048514,0.00645479,0.00725432;
-0.00750924,0.000772154,-0.00151838;-0.00699336,0.000283317,0.00244713;-0.00227699,-0.00118008,0.00260921;
0.000505668,-0.00069913,-0.000974174;0.000234821,0.000888128,0.000520057;-0.00042803,0.000455199,-0.000924665;
-0.00673823,0.00342879,0.0110275;-0.00951119,-0.00126476,0.0158028;0.00180648,-0.00294072,0.0137511;
-0.00520169,0.00126121,-0.00385811;-0.00419235,0.00324938,-0.00204055;-0.00234157,-0.00241663,-0.00484091;
-0.00221119,0.00127689,0.000661663;-0.00289122,-0.000365291,0.00039484;0.000389073,-0.00109086,-0.00141832;
0.00130664,-0.00307092,-0.00107417;-9.76929e-05,-0.00185695,-8.81561e-05;0.00093315,0.000525796,0.00145763;
0.0053535,0.0158594,-0.0145006;-0.015092,0.00666849,0.00543412;-0.0164033,-0.0143796,-0.00986304;
-0.00356201,0.00335614,-0.00281952;-0.00160154,0.00758527,0.000213819;-0.00305337,-0.00205284,-0.00331125;
-0.00362858,0.00314282,-0.0107301;0.00462044,0.0206784,0.000117724;-0.00916156,0.00608554,0.00304646;
-0.00654283,-0.00606561,0.00688653;0.00323372,-0.00647238,0.00750615;0.0155724,0.00834999,-0.00590065;
-0.0152065,0.0443364,0.0142762;-0.0167001,0.0198975,0.0184513;0.0187154,-0.00428401,-0.0313883;
0.0104592,-0.0183712,-0.00130765;0.00742378,-0.00984925,0.00241186;0.000263814,0.00046274,0.00524968;
0.000450268,0.000312657,-0.0180025;0.0245198,0.0318591,-0.00614112;-0.0111415,0.0164861,0.00844497;
-0.00389625,0.0324204,-0.0220189;-0.00807096,0.0418181,-0.000865032;-0.0271193,-0.0176681,-0.0258484;
0.00635818,-0.00997557,-0.00157839;0.00580673,-0.00591997,-0.000374349;0.00121864,0.00166523,0.00449308;
0.012127,0.00504399,0.00152285;0.00791761,0.00858654,0.00471563;0.00190026,-0.00131633,0.000323477;
0.012993,-0.00117946,-0.00774993;-0.00675703,-0.00351732,-0.000342247;-0.0146786,-0.0086266,-0.00393141;
-0.00447234,0.0462178,0.0024691;-0.0143604,0.0366484,0.00926657;-0.0230533,0.00747637,-0.000974274;
0.041441,0.00888829,-0.0124815;0.0409464,0.00989919,-0.0125675;0.00105083,-0.00383959,-0.00150004;
0.00897707,-0.00659997,-0.000866355;0.0119721,-0.00336075,-0.00570992;-0.000639705,0.00413527,0.00861063;
0.0384324,-0.00351663,-0.00579722;0.0195054,-0.0185882,0.00601232;0.00242066,-0.00797821,0.0159661;
0.00175296,0.00696818,-0.0027235;-0.00576838,-0.00400591,-0.00276783;-0.000527434,-0.00903561,-0.00808656;
-0.0195642,-0.00281321,-0.00657057;-0.0128554,0.0143816,0.00814167;-0.0130236,0.00430249,0.0104627;
-0.00584796,0.00928416,-0.00312546;-0.00447776,0.0118044,0.00503827;-0.000482214,-0.00744903,-0.0096437;
-0.00538977,-0.000108513,-0.00355116;-0.00379707,0.00758249,-0.000234335;-0.00435092,0.00236709,0.00137628;
-0.00312914,0.000713247,-0.00133026;-0.00491466,0.0045444,0.00217324;-0.00140796,0.000251917,0.00100234;
0.0022423,-0.00818693,0.0063929;-0.00191638,-0.00577968,0.00702804;-0.00719102,0.0110615,0.00659282;
-0.00377401,0.00232851,0.000850995;-0.00508777,0.00097607,0.00186921;-0.00301248,-0.000277928,0.000145855;
0.00190068,-0.00140883,-0.00374939;2.4429e-05,-0.000313507,2.15023e-05;0.000320692,-0.000327014,-0.00157212;
-0.0172975,0.0223848,-0.0150028;-0.0111883,0.0443115,0.0137342;-0.0324103,-0.00928187,-0.00212423;
0.00106647,-0.000335397,-4.51779e-05;-0.000181903,0.00119547,-0.000260914;-0.00101493,-0.000513813,-0.000584981;
0.0153407,-0.00690693,0.00411413;0.0267113,-0.0093666,-0.00530324;0.011199,-0.00042699,0.00446451;
0.00339887,-0.00476274,0.011169;0.0158594,-0.0120662,0.00467259;0.0210028,0.00705885,0.000602032;
0.000933267,0.00717961,0.00135287;-0.00503016,0.000172573,0.00566002;-0.00190944,0.0003134,-0.000627816;
-0.0193043,0.0276392,0.00139227;-0.023771,0.0201554,-8.16911e-05;-0.000989598,-0.00914694,-0.018714;
-6.23495e-05,0.0467617,0.011901;-0.0155692,0.0361487,0.0147896;-0.0180405,0.00513264,-0.00404818;
0.00774554,0.0160769,-0.00133389;0.00894785,0.0163508,0.000378903;-0.00568126,0.00601302,0.00142656;
#
-0.00353211,-0.00505193,-0.00319575;-0.0016743,-0.00406893,-0.00499716;-0.00277735,-0.00601892,-0.00664637;
0.0125077,0.00645979,0.00439394;-0.0018776,0.00196921,0.00830608;-0.00880767,-0.00106456,0.00641942;
0.0037186,-0.000528446,-0.00390266;-0.00209177,0.00094208,-0.00200112;-0.0107437,-0.010185,0.00139207;
-0.000554647,0.000328398,0.00101737;-0.00447397,-0.00215407,-0.000136079;-0.00185532,-0.000972824,0.000731775;
-0.000122583,0.000208411,-6.12933e-06;-0.000116446,-0.000984462,0.00062623;-0.000388277,-0.00104788,0.00110118;
-0.00773355,-0.00462186,-0.00410424;-0.00893155,-0.00462031,-0.00299219;-0.0103984,-0.00691067,-0.00360031;
0.000705798,0.00182914,0.00207258;0.00256154,0.00135882,0.000216431;0.00847613,0.00621683,0.00109216;
-0.000574337,-0.00133413,-0.00125815;-0.000577464,-0.00168367,-0.000224992;-0.000184325,-0.0010664,-0.00150661;
-0.00196387,-0.00310566,-0.000632238;-0.000382742,-0.00303137,-0.00106848;-0.000465759,-0.00394304,-0.00256618;
-0.00539782,0.00417312,0.0129088;-0.0218269,-0.0086653,0.00424607;-0.0295301,-0.0264623,-0.0168563;
0.00963644,0.00832876,0.0137135;0.0100944,0.0104353,0.0119074;0.0125975,0.0137709,0.0112918;
0.00258418,0.00437364,0.00381789;-0.0121841,-0.00480339,0.00312054;-0.0174094,-0.00969701,-0.00109179;
0.00570002,-0.00171018,0.00172772;0.0111142,0.00539475,0.00152057;-0.00128157,0.00542137,0.0134931;
-0.0118199,-0.0156089,-0.00525986;-0.0188576,-0.0114532,-0.0127833;-0.0228266,-0.00661102,-0.00277429;
0.0086441,0.00348657,0.00178739;0.00893538,0.00198934,0.000667923;6.13026e-05,-0.00547622,0.000471873;
0.013826,0.0139248,0.0209586;-0.00687756,0.00306464,0.016729;-0.0135139,-0.00298763,0.00662936;
-0.00237792,0.00523132,0.0237384;-0.0298449,-0.0148706,0.00705556;-0.0124379,-0.01332,-0.0200397;
0.00442793,0.00226291,-0.000269592;0.00868756,0.00464396,0.00279666;0.00482845,0.00106719,0.00379088;
-0.00205433,-0.00178564,0.0016561;-0.00616106,-0.00339864,-0.00429439;-0.00605289,-0.00134772,-0.00816478;
0.0176804,0.0205379,0.0243764;0.0126569,0.0176724,0.0220944;0.00349299,0.00745985,0.0154743;
-0.00500782,-0.00396733,0.00270806;-0.021235,-0.00949811,0.00354569;-0.0271631,-0.0153463,-0.00792379;
-0.00472926,-0.00177779,0.000200028;-0.00396848,-0.00287894,-0.00256889;-0.00306088,-0.00706036,-0.0113247;
-0.00125239,0.000710817,-0.000558636;-0.00279029,-0.000992242,0.00135893;-0.0069613,-0.00742758,-0.00333832;
-0.00717485,-0.00139077,-0.00051356;0.00246014,-0.000717447,0.00384494;-0.00246861,-0.00995332,-0.00966273;
0.00186776,0.00464225,0.00761405;0.00939846,0.00755125,0.00702298;0.0179283,0.0143456,0.00509983;
0.00212391,0.00605263,0.00643624;-0.0110944,-0.00124636,0.00402629;-0.0085037,-0.00262459,0.00194769;
-0.000539813,-0.000989927,0.0030858;-0.00563554,-0.003322,-0.0011447;-0.00310626,0.00098476,-0.00424106;
0.00247698,0.00315417,0.00405065;-0.00243139,-0.000535619,0.00293854;-0.00465623,-0.00214918,0.000341666;
-0.000553472,0.000315833,0.000860059;-0.00601988,-0.00172211,-0.000389744;-0.0054834,-0.00458862,-0.00157318;
0.00590069,-0.00140208,0.00146471;-0.000760527,-0.00132153,0.00257445;-0.0187055,-0.0119749,0.00517678;
0.00311724,0.00324902,0.00398366;-0.000388636,0.00238556,0.00455275;-0.00431823,-0.00188322,0.00120619;
-0.000377117,-0.000243736,0.00176784;-1.14575e-05,0.000477372,-0.000138023;-0.00104246,-0.00226205,-0.00135076;
0.00310431,0.0053036,0.00948387;-0.0381578,-0.0140921,0.0110382;-0.0417442,-0.0263711,-0.0145641;
0.00106094,-0.00104768,-0.000372747;-0.000600006,0.000116344,6.74017e-05;-9.63379e-05,0.000607428,6.12423e-05;
-0.000965089,-0.00308127,-0.00154652;0.00239516,-0.000729827,0.00221118;-0.00326396,-0.00781621,-0.00234862;
-0.00373002,-0.00762446,-0.00843135;0.00342666,-0.00269525,-0.00319602;0.00257347,-0.00521956,0.00138821;
0.00248264,0.00680852,0.00728798;-0.00313441,0.00373239,0.00737883;-0.00789684,-0.00282226,0.00112144;
-0.00533208,-0.000570441,0.00849299;0.00284627,0.000505287,-0.00504336;0.0229118,0.0222967,-0.00186798;
-0.00926515,-0.00586641,0.00441499;-0.0224756,-0.0119275,-0.00159453;-0.030641,-0.022122,-0.0110793;
-0.00787232,-0.005908,0.00182596;-0.0178261,-0.0141114,-0.000933871;-0.020692,-0.0208156,-0.0114702;
#
0.00461684,0.000200412,0.000762752;0.000176921,-0.000866348,-0.000507183;-0.00101732,-0.0010402,-0.00211074;
0.0164688,0.0126998,0.0162931;0.00649157,-0.00539785,-0.000333296;0.0218145,0.00820753,0.00539143;
0.0100833,0.00823719,0.0167967;0.00137181,0.00560609,0.0107111;0.00965181,-0.00142374,-0.0074154;
-0.00381655,-0.000743177,-0.00222803;-0.00247634,-0.00407907,-0.00500807;-0.00257781,-0.00444553,-0.00203337;
8.46352e-05,-0.00104212,-0.00112105;-0.000684458,0.000808889,-0.000382271;0.00125475,-0.000780881,0.00034909;
-0.00942722,-0.00308342,-0.00463211;-0.00675581,-0.00922164,-0.0105983;-0.0119246,-0.022019,-0.00010006;
-0.00262358,-0.00158887,-0.000625071;0.00182987,0.00490324,0.00403775;-0.000668965,0.00392786,0.00277134;
-0.00188507,0.000529166,-0.000849457;0.000988215,-0.000607487,-6.53805e-05;0.000804113,0.00143839,0.00331171;
0.000705937,-0.0030649,0.000295345;-0.00400171,-0.0045358,-0.00481661;2.56171e-05,-0.0024744,0.000545748;
0.0136208,0.00194681,-0.00794831;-0.0154567,-0.0549522,-0.0461507;0.00576866,-0.00792717,-0.028954;
0.00545487,0.00651097,0.00265331;0.00771428,0.00963133,0.00440558;0.00589756,0.00740817,0.0100311;
0.00733987,0.00603395,-0.000224941;0.0110057,-0.00205753,-0.00317032;0.00967027,0.00437371,-0.004236;
0.00154813,0.0124743,0.0331142;-0.00813416,0.00992945,0.022627;-0.016348,-0.00545432,0.0136828;
0.0304871,0.0151258,0.0125282;0.0114746,0.00784392,0.00810175;0.00364313,0.0228212,0.0137506;
-0.000407495,0.00474246,0.0152957;-0.0111748,0.00223272,0.00633244;-0.00707904,-0.0159939,-0.00857321;
0.0098997,0.00766806,-0.00074291;0.0214684,0.00440374,0.00115666;0.0103934,0.00901635,-0.000434969;
0.017388,0.0125104,-0.0103498;0.0102787,-0.0200294,-0.0268529;0.0286225,0.0414573,0.0183953;
-0.00236473,0.00123816,0.00511734;-0.00711325,0.00129047,0.00552374;-0.0108037,-0.011493,-0.00341446;
0.00403193,-0.00363164,-0.00842396;0.000557597,-0.00203678,-0.003939;0.00388473,0.0113687,0.00463368;
0.00790317,0.00583478,0.00791532;-0.00915033,-0.0129466,-0.00832628;0.0092261,-0.0124454,-0.0203872;
0.0172435,0.00602737,-0.00700128;-0.00250562,-0.0173295,-0.0239661;0.0313777,-0.00193811,-0.0314909;
0.00034274,-0.0150983,-0.0135939;-0.00597738,-0.00775595,-0.00167422;0.00190254,0.00553543,-0.00352888;
0.00300643,-0.00434795,0.00119303;0.00199484,-0.0061065,-0.00156026;0.00577034,-0.00864418,-0.00605103;
-0.0186538,-0.0245258,-0.0234007;-0.030978,-0.0369934,-0.0299107;-0.0297976,-0.03544,-0.0230556;
-0.00718577,-0.00614549,-0.0121592;-0.0104922,-0.0146602,-0.00996176;-0.0128404,-0.00794091,0.00176078;
-0.00826849,-0.0017567,-0.00961144;0.00724294,-0.00674801,-0.0124511;-0.000985541,-0.0142746,-0.00155158;
0.00473654,0.00542192,0.000955966;0.00270046,-0.00431257,-0.00407899;-0.00272716,0.0077151,0.00310695;
-4.4276e-05,-0.00010212,-0.00359425;0.00734011,0.00179151,-0.0032633;-0.000804599,-0.00639222,-0.00437263;
0.000910736,0.00397728,0.00108325;0.00379378,-0.00296437,-0.00424434;0.00415908,0.00457069,0.00343265;
8.02321e-05,0.0103284,0.0321994;-0.00835057,-0.00222531,0.00768805;0.00712679,-0.0173802,-0.00570578;
0.00216348,0.00162955,-0.000620123;-0.00111833,-0.00781702,-0.007086;0.00370675,-0.00372189,-0.00128518;
0.00115399,0.00183211,0.000134569;0.00130228,-0.0012696,-0.00158086;-7.30071e-05,-0.000518764,-0.00174105;
0.019351,0.0175772,-0.00973102;0.0228858,-0.0155867,-0.0287207;0.0206138,0.00252344,-0.0136538;
-0.000805452,0.00113298,0.00069406;-0.000852425,-0.00095817,-0.0011682;0.000668023,-0.00109653,0.000408148;
0.00296582,-0.00313495,-0.00334281;-0.00303661,-0.00302324,0.000462678;-0.00525599,-0.00448903,0.00411171;
-0.0200048,-0.0125047,-0.00118513;-0.0175229,-0.0073656,0.00241109;-0.0215194,-0.0188762,0.0119783;
0.00255922,0.00153091,-0.00697309;-0.00939881,-0.0230239,-0.0185802;0.00309653,-0.00415842,-0.00516349;
0.00274084,0.00307742,-0.00812324;8.77844e-05,0.000918018,0.0014437;0.00463138,0.018183,0.0227175;
0.0187426,0.0100365,-0.000384453;-0.00271304,-0.0259427,-0.029633;0.0397967,0.0106033,-0.0191562;
0.00419852,-0.00011704,-0.0042655;-0.00519109,-0.017326,-0.0139303;0.0149263,0.013472,-0.00463108;
#
0.00376127,0.00109672,-0.00180424;0.00576664,0.0030371,-0.00173908;0.000665937,0.00311311,7.84968e-05;
-0.00954997,-0.0100638,-0.000268096;-0.00923594,-0.00890886,-0.00183653;-0.00695351,-0.00806599,-0.00817386;
0.00160302,-0.00502125,-0.00329483;0.00469713,0.00211168,-0.00485737;0.00202507,0.00260387,-0.000205891;
-0.00116705,0.00189371,0.00310314;-0.001253,-0.000279874,0.00202221;0.00329333,0.00320838,0.00393622;
-0.000635653,0.00123782,3.12262e-06;0.000435941,0.000215621,-0.000977674;-0.000341263,0.000160447,0.000277643;
0.00296547,0.00104113,0.00348135;0.00397425,0.00102925,0.00432765;0.00470276,0.00309048,0.00461165;
-0.000939273,0.00396538,0.001599;-0.00173783,0.00502928,0.00243962;0.0030175,0.00499518,0.00361611;
0.00102245,1.41826e-05,0.00031652;-0.000203187,0.000394542,0.000430482;0.00251646,0.00141515,0.000822024;
0.00268865,0.00131659,-0.00078808;0.00422199,0.00140135,-0.00231147;0.00268538,0.000101769,0.00155659;
-0.000922385,0.00827821,0.00348247;-0.0053983,0.00334805,-0.00232222;0.0091138,0.00137643,-0.00810377;
-0.00720425,-0.00678468,-0.00622486;-0.00605924,-0.00280324,-0.00333836;-0.00341192,-0.00282969,-0.00501645;
-0.00217011,0.000419338,0.00100575;-0.00259022,0.00269873,-0.00155982;0.00155755,0.00818596,0.00465663;
-0.00163109,-0.00760598,0.00306424;0.00526269,-0.00914563,0.00787977;0.00618367,0.000734286,-0.00117593;
-0.00992064,-0.000563551,0.014597;0.0040093,0.0037052,0.0133221;0.0147275,0.00813735,-0.00339225;
0.00618356,-0.00245798,-0.0044911;0.00536325,-0.00291543,-0.00226018;0.00224573,-0.000523512,0.00137778;
-0.00495001,-0.00724142,-0.00651577;-0.00611708,0.00279011,-0.00863708;-0.00168551,0.00852869,0.00029418;
-0.00407218,0.0191267,0.0098528;-0.0158926,0.00897178,0.00156513;0.0224877,0.0212248,0.00703046;
0.00375313,-0.0006718,-0.00476597;0.00457841,0.000224961,-0.00387143;0.00230599,-0.00108075,0.000995305;
0.000157313,0.00301604,-0.00079499;-0.00213121,0.00373997,0.000605959;0.00190421,0.00202646,0.00249392;
-0.00362513,-0.00525273,-0.0122135;-0.00518944,-0.00508258,-0.0090576;-0.00816257,-0.011849,-0.00952223;
-0.0151314,-0.00295083,0.000413837;-0.00864428,0.00413871,0.00165009;-0.00462004,0.00286986,0.00246382;
0.00806919,0.00828356,-0.00638003;0.010652,0.0113373,-0.00983843;0.00588396,0.0089785,-0.00515759;
0.00344984,-0.00210462,-0.00214489;0.00682674,0.00140401,-0.00765464;-0.000244,0.00801482,-0.00195418;
0.0164772,0.0109465,-0.00389694;0.0146401,0.00799544,-0.00965024;0.0135106,0.00423967,-0.00545827;
-0.00273672,0.00807496,0.000419576;-0.000804598,0.00520365,0.00482979;0.00535983,0.00243227,0.000629279;
-0.0020402,0.00135019,0.0059133;-0.0031133,0.00262769,0.00329587;0.00282456,0.0125175,0.00858626;
-0.00341321,0.00396273,0.0034584;-0.00183822,0.00323685,0.00481307;0.00837173,0.00468846,0.00212527;
-0.000746871,-0.00111889,0.00157725;-0.00159506,0.000229703,-0.00108398;-0.00180708,0.00293805,0.00284191;
-3.8744e-06,0.000109731,0.00165427;-0.00224596,-0.000300384,0.00058818;0.00170177,0.00291025,0.00220567;
0.000349759,-0.00908644,0.00237635;0.00405871,-0.00971724,0.00173992;-0.000799651,0.00414658,-0.00113311;
-0.0035176,-0.00162747,-0.00151065;-0.00262732,-0.00359634,-0.00135057;-0.00267417,-0.00329084,-0.00469749;
0.0010956,0.00173278,0.000842242;0.000483938,0.000522342,-0.000661285;0.00138987,0.000977255,0.000777783;
-0.0160717,0.000472444,0.00422881;-0.0146837,-0.00088355,-4.47704e-05;0.00285153,0.00889272,0.000415112;
-0.000831658,-7.63623e-05,0.00021833;0.000437114,-0.00083695,-0.000551675;0.000223664,-2.26515e-05,-0.000183057;
0.00248875,-0.00404342,-0.00348625;0.00733773,0.00333943,-0.0107234;0.00476379,0.00434888,-0.00602425;
0.00720122,-0.00414234,0.0038168;0.0115091,-0.00469548,0.00241778;0.0116361,0.00635828,-0.00224513;
-0.00574506,-0.00147851,-0.00244189;-0.00640916,-0.00697074,-0.00471192;-0.0048832,-0.00356122,-0.00601562;
-0.00715323,0.0138784,0.0130274;-0.00536523,0.0162591,0.0160757;0.0137839,0.0168446,0.0116905;
-0.0094363,-0.0019539,0.00367533;-0.00946483,0.00371894,0.00453663;-0.0052764,-0.000877961,-0.0040102;
0.00276542,0.00458249,0.00213105;0.00166,0.00778851,-0.00150635;0.00524808,0.00742805,0.00352001;
#
-0.000467935,-0.000546854,-0.000810618;-0.00114285,-0.000643584,0.000639718;0.000609683,-0.000187491,0.000546547;
-0.00100653,0.000747324,0.000321112;0.00090959,-0.000582108,5.01126e-05;3.56769e-05,-0.00107064,5.42519e-05;
-0.000426695,-0.000363265,-0.000631186;-0.00109552,-0.000304612,0.000275487;-0.000270915,-0.000643207,-0.000458439;
0.00095121,0.000501367,-0.000172051;0.000586308,-0.000434216,-0.000900725;-0.0010516,0.000292469,0.000388261;
0.000986972,0.00089544,-0.000319342;0.00110953,-0.000324037,0.000196942;-0.000882875,-0.000635367,0.000698182;
-0.000690567,0.0003921,0.00113235;-0.000507166,-0.000371852,0.000451089;-0.00100141,-0.000684417,-0.000861827;
0.000689843,-0.00110276,3.59957e-05;-0.000869868,0.000501321,0.000902798;-0.000557968,-0.0010218,-0.000884104;
-0.000642049,-0.000577647,0.000775847;-0.0010247,0.00030896,-0.000379854;-0.000849594,-0.000983262,0.000518864;
-0.00104908,-0.00118148,-0.000899805;-0.000766837,0.00110774,0.000509779;-0.000284781,-0.000525474,0.00100195;
2.10007e-05,-0.00107572,-0.00119893;7.10861e-05,-0.000551518,0.00073172;-0.00101804,0.000432346,0.000159282;
0.000207528,0.000674123,-0.000849147;-0.000588416,-0.000934749,0.000191276;-0.00112582,0.000103993,-0.000447603;
-0.000577856,0.000302911,-0.000826567;0.000866679,-0.000323682,-6.16672e-05;0.000272404,-0.000869979,0.00116623;
-0.00119615,0.000441926,0.00076672;-0.000600596,0.00108768,-0.000462195;0.000401244,0.00034217,8.59937e-05;
0.000286919,-0.000586927,-0.000898445;0.000119484,-0.00075274,-0.00107555;-0.00121126,0.000699366,0.000345343;
-0.000306538,0.000233798,0.000783089;-0.000521584,-0.00114862,0.000317987;0.00114619,0.000422538,0.00108173;
-0.000766166,0.000802685,0.000119437;0.00070197,0.000273311,-0.000648337;-0.00104645,-0.00101687,0.000213753;
0.000259068,0.000537595,-0.000525087;-0.00110436,0.00104383,-0.000819659;0.000917896,0.000315519,-0.000235538;
0.000504328,0.000751277,-0.000981584;0.000505127,-0.000607692,-0.000753992;-0.000442462,-0.000947161,-0.000799051;
0.000963955,0.000861624,-0.000724521;-0.0002618,0.000737718,0.000469282;0.000142595,-0.000456066,7.28608e-05;
0.000980863,0.000806216,-0.00121828;-0.000581076,0.000372807,-0.000925759;-0.00123016,-0.000293571,-0.000173539;
-0.00114159,0.000348279,-0.000365823;-0.000172028,0.000616656,0.000450878;0.000227739,0.000516091,-0.00124807;
-0.000311893,0.000737766,-0.000891781;0.00096932,-0.000621414,0.000316094;-0.00111273,-0.00038034,0.000521531;
0.000191354,-0.000632115,-0.00115679;-0.000623033,8.93829e-05,0.000105802;0.000122345,-0.000122328,0.00110978;
-0.000561023,0.000849243,0.000749483;-0.000643239,-0.000116508,-0.00093052;-0.00116876,0.000555631,-0.00111258;
0.00014945,-0.0010937,0.00113528;-0.000863827,0.000343099,-0.000958429;0.000159813,-0.0011171,-0.000463779;
-0.00100731,0.000394643,0.0011235;-0.00081021,-0.000410168,0.000954208;-0.00035947,0.00101451,0.000164843;
0.000728447,-0.000440667,-0.000294076;0.0010839,0.00111294,0.000904426;-0.00085176,-0.00106752,-0.000984733;
-0.000539835,-0.000677096,0.00100799;0.000140677,0.000302547,0.000999322;0.000284407,2.2266e-05,-0.000681093;
-0.000539884,-0.000213021,-0.000650442;-0.000674022,0.000270366,0.000853451;-0.000268998,-0.00058324,0.000201554;
0.000182337,0.00040848,0.000337369;0.000143531,0.000608998,2.27563e-05;0.000992111,0.000563161,-0.000543881;
0.00114636,0.000216115,0.000875028;0.000662588,-0.000313213,-0.000951411;0.000173546,3.33782e-05,1.75312e-06;
-0.000155364,0.00116271,0.000443031;-0.000335165,1.96708e-05,0.000427947;-3.29068e-05,0.000397739,-0.00113204;
-0.000935187,-0.00118319,-0.00114116;0.000168636,-0.000408843,0.000741195;0.000877862,0.000361854,0.000654826;
0.00105759,-0.000678394,0.00108774;-0.00100759,-0.000356443,0.000560221;0.000605072,0.000371073,-0.00117478;
0.000506685,-4.21973e-05,-0.00106824;-0.000935686,-0.000914442,0.000965464;9.19756e-05,9.61498e-06,0.0011482;
-0.000437877,0.00014179,-0.000354781;-0.000758923,-0.000100733,0.000827118;0.000575708,3.1404e-05,0.00043063;
0.000693863,0.000858754,-0.000844789;0.0011057,0.001115,0.000549623;0.000453736,0.00085407,-0.000473221;
-0.000730724,0.000446516,-0.000118993;-4.75942e-06,0.000595302,-0.000848853;0.00102227,-0.00112913,0.000948936;
-0.000625382,0.000359017,-0.000178256;0.00034357,-0.000542543,-0.000679145;-0.000102949,0.000677825,0.00059938;
-0.000964708,0.00011439,0.000648817;0.000347964,0.00094234,8.43728e-05;0.00090748,-0.000668058,0.000507542;
#
-0.00737633,0.000307361,0.00372123;-0.00338798,-0.00264575,0.0046162;-0.00616407,-0.000719932,0.00425028;
-0.00283809,0.0132289,0.010301;-0.00112443,0.0126722,0.00879158;-0.00704669,-0.00325073,-0.00441416;
-0.0184552,0.00756161,0.00982781;-0.0128905,0.0034207,0.00601543;-0.020885,-0.00332387,0.00166321;
0.00600555,-0.00227495,-0.000531017;0.00557548,0.0030877,-0.00235691;0.0100276,0.00555283,-0.00381041;
0.000263341,-0.000682549,-0.000167919;0.000293406,-0.000780389,9.30927e-06;-0.000748118,-0.00125084,0.00046956;
0.00575085,-0.00360688,-0.00575946;0.00146269,0.00393208,0.00171998;0.00916585,0.0127567,-0.00163849;
0.00873569,-0.0027151,-0.00393359;0.00997529,0.000655588,-0.00534512;0.00897835,-0.00229405,-0.00461854;
6.96548e-05,-0.000536349,0.000194036;-0.000156019,-0.000518956,0.000727021;0.00164366,0.000352055,-0.00158458;
-0.00179617,0.000303577,0.00267884;-0.00278927,-0.000604443,0.00212752;-0.00401717,0.00228724,0.00134103;
-0.0173738,0.00170262,0.0141749;0.00065426,0.00994303,0.00820619;0.00530683,-0.010611,-0.0130379;
0.00842533,0.00184503,-0.000706514;0.00256653,0.000870061,6.65644e-05;-0.00180148,-0.00344848,-0.00123599;
-0.0033202,-0.00315356,0.00180808;-0.00521819,0.00260101,0.00440174;0.00644676,0.00317387,-0.00566336;
0.00413614,0.014894,0.00112512;0.000730583,0.0134647,0.00868276;-0.016954,0.00250364,0.00207813;
0.00471333,0.0143159,0.00701354;0.00165421,0.00801446,0.000309612;-0.0282577,-0.0295604,-0.0183641;
-0.0168865,0.00306365,0.00135915;-0.00920921,0.00427656,0.00665738;-0.0180035,0.0103039,0.0117282;
-0.00484918,-0.00520742,0.00167803;-0.0145653,-0.00343523,0.00359578;0.00325887,-0.00324867,-0.00760896;
0.0115751,-0.0116301,-0.01009;0.0052003,0.00443885,-0.00472365;0.0232505,-0.0234547,-0.0397527;
-0.0109758,-0.000910827,0.000839596;-0.00542654,0.000312371,0.00508237;-0.00870351,0.00642336,0.00744071;
-0.0016477,-0.00346494,-0.000968045;-0.00478589,-0.00273651,0.000116543;-0.00142152,-0.0102,-0.00551036;
-0.0137374,0.0044997,0.00973337;-0.00440113,0.00855727,0.00783754;-0.00188057,0.0103156,0.00770669;
7.89241e-05,-0.00143309,-0.00148952;0.0135005,0.0118028,0.00132645;0.00115641,-0.00065148,-0.0147509;
-0.0165402,-0.00794077,0.00365491;-0.0155854,-0.0116192,0.00424927;-0.00966978,-0.0213493,-0.00108221;
-0.0115393,0.00580379,0.00654191;-0.0137253,0.00121632,0.00851716;-0.0102027,0.00127618,0.00227866;
-0.0223808,-0.0125356,0.00200676;-0.0116337,-0.00606583,0.00759436;-0.00311092,-0.0034526,0.00472664;
0.00816362,-0.00577103,-0.00556859;0.0157234,0.000650923,-0.0049462;0.0122819,-0.00290277,-0.00483105;
0.0134609,-0.00725799,-0.00468339;0.00615071,0.00386058,-0.00163675;0.0265545,0.0185147,-0.00580798;
-0.00056805,-0.00335282,-0.0027684;0.000310386,0.000510881,-0.000459893;0.00228287,-0.00876326,-0.00624325;
0.00247739,-0.00306388,-0.000944922;-0.00202339,-0.000515174,0.00203262;0.00608133,0.00358023,-0.00141496;
0.00140872,-0.00269463,-0.000586962;-0.000140101,0.0016976,0.00186977;0.00727549,0.00323105,-0.00290246;
-0.011566,0.021096,0.00604323;-0.00875272,0.0180495,0.0140222;-0.0178927,0.00711841,0.000266595;
-0.000812613,-0.000333688,0.00281746;-0.00204643,0.00195069,0.00215887;0.000236627,-4.82254e-05,-0.00188992;
-0.00316117,-0.000697212,0.00138923;0.000106902,0.000322376,-0.000141964;-1.86955e-06,-6.49509e-05,0.000486232;
-0.00463047,-0.0153367,-0.00373794;-0.00437071,0.0207674,0.0201032;0.026687,0.0106943,-0.0211285;
0.00085736,0.000551867,0.00106607;-0.00090713,0.000738663,0.000674087;-0.00030642,-0.000638896,-0.000904169;
-0.0123382,0.0032627,0.00517817;-0.012736,-0.00132842,0.00697031;-0.0118745,-0.00874207,0.0011733;
0.00635694,0.0069106,-0.000382573;-0.00347729,0.00681061,0.00585341;-0.00864037,0.00774212,0.00079564;
-0.00962929,-0.000290462,0.00751117;-0.00529196,0.00494438,0.00450263;0.0012469,-0.00372666,-0.00314811;
0.0352565,-0.00268902,-0.0181892;0.0333622,0.00125186,-0.0198033;0.0236582,-0.014409,-0.0298567;
-0.00276281,0.000728515,0.00731537;0.00951515,0.0123292,0.00387653;-0.000767066,-0.0116825,-0.0201521;
-0.00525588,-0.00122836,0.00493042;-0.00417391,0.00186231,0.00289496;-0.00652625,-0.0154104,-0.0128375;
#
-0.00497224,-0.00459907,-0.00781335;0.00197702,-0.0068227,-0.013199;0.0033128,-0.0031643,-0.010044;
0.023908,0.0100918,0.00747938;0.0132278,-0.0109457,0.00141218;0.0101768,-0.0193411,0.00673398;
0.00546896,0.00114819,-0.00770203;-0.0034026,-0.00410749,-0.00777018;-0.00805755,-0.0154108,-0.0012619;
-0.0123699,-0.00791364,0.00438449;-0.00600048,-0.00436791,0.00164853;-0.00203112,-0.003957,0.000940659;
0.00070942,0.000159701,-0.00149643;-0.000296017,0.00129591,-0.00163114;-0.000502188,5.65424e-05,0.000172992;
-0.0246581,-0.0164226,0.000176376;-0.0114686,-0.0101495,-0.00408777;0.00331373,-0.00232747,-0.00531987;
-0.00307637,-0.00262038,-0.0009809;0.00168332,0.00212469,0.00253163;0.00253237,0.00812961,0.000495912;
-0.000993678,-0.00061471,-0.00197622;0.000212599,1.64935e-05,-0.00303761;0.00105568,-0.0008654,-0.000727598;
-0.00621497,0.000678553,-0.00280388;0.00044529,-0.00146705,-0.00428896;0.00392538,-0.00288686,-0.00649641;
-0.0296588,-0.0125931,0.0217664;-0.0122591,-0.0208422,0.0270772;-0.0014186,-0.0396951,-0.0130449;
0.0187838,0.00785532,0.00715013;0.019149,0.00530083,0.0126082;0.0249855,0.0224778,0.022912;
-0.000707405,-0.00287922,0.00501095;-0.00372798,-0.0153992,-0.000139866;0.00279199,-0.0215502,0.0111805;
0.0116105,0.009608,0.00134337;0.0129119,0.00432263,-0.0021467;-0.00409839,0.00302057,0.00949818;
0.0143175,-0.0238963,-0.0263959;0.0201729,-0.0367479,-0.0045636;-0.00440662,-0.0321635,-0.00820585;
-0.00371267,0.0181608,0.00912439;0.00159746,0.0116783,0.0033884;0.00603026,-0.000925805,-0.0143711;
0.0206329,0.00356878,0.00421227;0.0120232,-0.00873408,0.00398802;0.0213321,-0.004605,0.0485674;
-0.016545,-0.0275523,-0.00154891;0.00407777,-0.0165411,0.0197482;0.00317241,-0.0234765,0.0168298;
-0.000886448,0.0135505,0.00711927;0.00679978,0.0143172,0.00259588;0.0106977,0.00970423,-0.00287584;
0.00349183,-0.00893269,-0.010573;0.00148399,-0.00729333,0.00168887;-0.000553131,0.00273952,0.00331728;
0.0131339,0.0379104,0.0499089;0.00701172,0.0239292,0.0476229;0.0200734,0.0075657,0.0148476;
-0.00300936,-0.0141052,0.00763421;-0.0149889,-0.0381488,0.0145215;0.00982419,-0.0478643,0.0151341;
-0.00610054,-0.0106311,-0.0217889;-0.00443647,-0.00114393,0.00133649;-0.00113743,0.00672822,0.00727874;
-0.00569472,-0.0061257,-0.00917042;-0.00186303,-0.00811415,-0.0152611;0.00365748,-0.00332086,-0.000284867;
-0.0384104,0.00230503,-0.00325022;-0.0209321,0.0184966,-0.00312469;0.00489699,0.0132676,-0.00614906;
-0.0042642,0.00282019,0.0142125;0.00805188,0.0201263,0.0105487;0.01235,0.0227645,0.00737141;
-0.0261121,-0.0135658,0.0134135;-0.0108142,-0.00770462,0.00627597;0.0113637,-0.0026387,0.00923901;
0.00307426,-0.00646331,0.00143585;0.00649647,-0.00466135,0.00738265;0.000492409,-0.0056923,-0.00517203;
-0.000708159,0.00111106,0.00627472;-0.00205591,-0.00376055,0.00086728;0.00534406,-0.00793055,0.00166983;
-0.00273578,-0.00231666,0.0029052;0.00214301,-0.00188994,0.00194402;0.00221017,-0.00651568,0.00358098;
3.89455e-05,0.00200578,0.00857349;-0.00437435,-0.0149493,-0.0078048;-0.0130649,-0.0273364,-0.00348207;
0.00414256,0.00293982,0.00681585;0.00349184,-0.00106856,0.00413598;0.00859223,0.00203588,0.00759731;
0.000174475,0.000155497,0.000665532;0.000809816,-0.00136505,0.000569792;-0.00115464,-0.00265704,-0.00215438;
-0.000707287,-0.00666804,0.0204083;0.00112924,-0.0242714,0.0231341;0.014014,-0.0655584,0.0279706;
0.00101219,-0.000392171,0.000205403;1.42597e-05,0.000656184,0.000684649;0.000772409,-0.00092939,-0.000518057;
0.0020677,-0.00528969,-0.020387;0.00532092,-0.00217022,-0.0107257;0.0125486,0.00400746,0.0165305;
-0.01885,-0.00441985,-0.0145963;-0.00519189,-0.00033509,-0.0114989;-0.00122974,-0.000635827,0.0133206;
-0.000697545,-0.00225709,0.0161311;0.00589555,-0.000411535,0.0131966;0.00898717,-0.0029778,0.00981705;
-0.0104183,-0.0242568,-0.0141482;0.00211048,-0.00246934,0.000580541;0.010781,0.0159,-0.00244606;
-0.0071354,-0.0204747,-0.0025173;-0.0155018,-0.0475616,0.0133465;-0.00439304,-0.0554491,0.00182396;
-0.010893,-0.0213318,-0.0208854;-0.0108113,-0.0337998,-0.0115676;-0.00775062,-0.0265651,0.0032884;
#
0.00112714,-0.000748167,-0.000425985;0.000850869,1.04503e-05,0.000856711;-0.000830583,-0.000308325,-2.0874e-05;
-3.40656e-05,4.36665e-05,0.000940547;-7.74398e-05,0.000289178,-0.000185538;0.00010734,-0.0004642,0.00101486;
-0.000872152,-0.00118383,-0.000711654;-0.00103742,0.000381586,-0.00028111;0.00104922,-0.000700298,0.000618004;
0.000579675,0.000702634,0.000394455;0.000397456,-0.000257339,-4.9988e-05;0.00031711,0.000149855,0.00107332;
0.00087047,0.000324121,0.000897968;0.000661967,0.000449053,-0.000199125;-0.000761504,-0.000632821,0.00101356;
-0.00104808,-1.98856e-05,-0.000469628;-0.000868315,-0.00106578,2.37752e-05;9.4228e-05,-0.000614472,-0.000258098;
0.000625733,0.00109535,0.000982077;0.000618284,-0.000318693,0.000925065;0.000877364,4.62488e-05,-0.000832161;
-0.000747105,0.000708655,-3.38974e-05;-0.000190466,0.000503844,0.000789278;-0.000911039,9.52421e-05,0.000980024;
-0.000127865,-0.000110815,0.000203369;-2.59659e-06,0.000603665,0.000593376;-0.000952377,-0.000510303,0.000398586;
-1.29172e-05,-0.000304097,0.000338811;-0.00101147,-9.05716e-05,-0.000905861;1.7248e-05,0.00112004,-0.000390009;
-0.00111982,-0.00098154,-0.000147463;-0.000194704,-0.000175317,4.38032e-05;-0.00104411,0.000388876,-0.00022556;
-0.00084037,0.000127898,-9.08742e-05;0.000235178,-0.000711502,0.000579668;-0.000559147,-0.00104493,-7.8107e-05;
0.000113491,0.000622203,-0.000473956;0.000355719,-0.0010613,-0.000692767;-0.00044991,-0.000120417,0.00064281;
-8.55788e-05,-2.15955e-06,0.000961416;-0.000763026,0.000443056,-0.000419462;0.000622796,-0.000401327,0.000621238;
-0.00103137,-0.00064935,-0.000886331;-0.000643216,0.00115964,0.000191823;0.00113351,-0.000449481,0.000698839;
0.00105204,-0.00103389,-0.000419674;0.0008572,-6.45573e-05,-0.000884929;-4.62714e-05,-0.00100302,-0.00100107;
0.000681734,-0.000238181,-0.000376112;-0.000420047,-4.00628e-05,0.00038546;-0.000933355,-0.0004105,-0.000985295;
-0.000618903,-0.000799998,0.000253409;-0.000191832,9.21826e-05,-0.000873474;0.00095953,-0.000646331,-0.00074236;
0.000819043,0.000254777,-0.00111208;0.000751133,-0.000290999,-0.000679199;9.77032e-05,0.000821452,-0.000704984;
-0.00120372,0.00111668,0.00111265;-0.000911781,-0.000364459,4.99308e-05;0.000464555,-0.0009408,-0.00104389;
-0.00107874,0.000892772,-0.00118372;-0.0011919,0.000335811,0.000782573;0.000846374,0.000208429,-0.000123149;
0.000386222,0.000342153,-0.000621159;0.00022837,0.00111075,0.000881029;-0.000149722,-0.000913214,0.000572049;
0.000341259,-0.000424966,0.000334227;-0.000834298,0.000294781,-0.000843891;0.000317994,-0.000748634,0.000216216;
0.000422268,7.44574e-05,0.000202949;-0.000595509,0.000408521,-0.000619405;0.00101416,-0.000310659,0.000461837;
-0.0011043,0.000293253,0.000398345;-0.00121822,-0.000501608,-0.000881402;-0.00121732,-0.000877255,-0.000405316;
0.000631234,0.000478386,-0.00105213;-0.000547297,0.000672214,-0.000285136;7.44261e-05,0.000440464,0.00103146;
-0.00101355,-0.000417566,-0.000342434;0.000602387,-0.000466594,0.00079679;0.00115677,0.000887699,0.000257643;
0.000561929,0.000560882,0.000168665;0.000186028,-4.24188e-05,-0.000498512;0.000548099,-0.000249271,0.000913798;
0.00114606,0.00062988,-0.000757769;-0.000711131,0.000727349,-0.000945888;0.000221002,0.000716855,-0.000582465;
-0.000947543,0.000639784,0.000752335;0.000547391,0.000754185,-0.00104644;0.000221667,-0.00102255,0.000673621;
-0.000389579,0.000563409,0.000961741;-0.000225586,-0.000504598,0.000285591;-0.000498003,0.00115834,0.000699953;
-0.000244442,0.000694281,0.000830365;-0.000641546,-0.00116019,0.000614285;0.0010052,3.97095e-05,-0.000492174;
8.92037e-05,0.000815318,-0.000754337;-2.0534e-05,-6.6639e-05,-0.000951741;-0.00120466,-0.000808924,-0.00102338;
0.000864564,0.00023201,0.00112564;0.000552114,0.00105922,0.000299036;-0.0005249,-0.000219867,0.000645402;
0.000477065,0.000957043,0.000790571;0.000275955,-0.000414261,-0.0010607;0.00105723,0.000563964,0.000349455;
0.000701493,0.00110139,-0.000763151;0.000247791,-0.000903883,0.000795664;9.27182e-05,0.000871666,0.000181549;
0.000116453,-0.000609432,-0.00115239;0.000705168,0.000634124,-0.00011912;1.04881e-05,-0.00119939,0.000641273;
-0.000168911,-0.000298197,0.000303867;0.000294599,0.000604894,0.000468982;-0.000880342,-0.00116506,-0.000935529;
-0.000173816,-0.000427122,-0.00116222;0.000254759,-0.00101278,0.00052315;0.000674668,-0.000102759,0.000798735;
0.000240925,-0.000432774,0.000204397;0.0007724,-0.000241297,-0.00017669;0.00108238,-0.00109975,0.00024361;
#
0.000522611,0.00117354,2.87822e-05;0.000229525,0.000203592,-0.000348033;-0.000922439,-0.000785046,0.000245311;
0.000610136,4.30193e-05,-0.000928961;-0.000949425,0.000231667,-0.000467723;0.000874682,-0.00107825,0.000670615;
-0.000916809,0.00073388,-1.91827e-05;-0.000199301,-0.000987071,0.0007517;-0.000924244,-0.00048285,-0.000847368;
-0.000385708,0.000435912,-0.000203325;-0.000631717,0.00116994,-0.000511324;0.000463604,-0.0003363,0.00067045;
-0.000541234,0.000776154,-0.00109812;-0.000260947,0.000938587,-7.08424e-05;-0.000158272,-7.43076e-05,0.000498837;
-0.000691277,0.00053992,-0.000775331;-0.000601669,0.000339777,0.000481429;0.000638101,0.000659706,-0.00113884;
-1.19518e-05,-0.000232191,-0.000968982;0.000495918,-0.0011836,0.000300167;0.00104342,0.00104269,0.00113921;
-0.000284114,-0.000942807,0.00093744;-0.000480947,0.000432344,-0.000244421;-0.00042329,0.000562977,0.000993289;
-0.000997473,-0.000867025,-0.000565582;-0.000325175,-0.000640787,-0.000116662;-0.000749079,0.00101792,-0.00115988;
0.000167105,-0.000687352,-0.000543413;0.000235452,-0.00041498,-0.000689727;0.000124293,-0.00102587,0.000749194;
0.000656284,0.000825653,0.000814752;-0.000147395,-0.000166837,0.00118601;-0.00101211,0.000163267,0.000925224;
0.000193563,-0.000292191,0.000985877;-0.000423595,0.000166004,0.000163647;0.000736366,-0.000953304,0.000833978;
-0.000738308,-0.00024172,-0.00101675;0.000774736,0.00114608,-0.00110079;-0.00108977,0.000643892,0.000686297;
-0.000242341,-0.000515562,0.00114367;-0.000341326,-0.000262229,0.000327887;-0.000277196,0.000297198,-0.000422731;
0.00046996,4.26073e-05,-0.000699968;-0.00110971,-0.000763696,0.000153919;0.00107269,-0.000467256,0.000857307;
-0.000940664,0.000686875,-8.08183e-05;0.000685945,-9.07688e-05,-0.000828949;-0.000249445,0.000313337,-0.000916482;
-0.00020422,-0.00111536,-0.00108407;-0.000763141,0.000421592,-0.000295231;-0.00094108,-0.00108364,-0.000992013;
0.00113719,-0.00040244,-0.000184351;-0.000664598,-0.000581448,0.000819227;-7.29984e-06,0.00104275,-0.000911709;
0.000360103,9.8171e-05,-0.000317;0.000413033,-0.000410684,0.00103376;0.000632031,1.71315e-05,0.000326477;
-0.00075907,-0.000163506,0.000150163;0.00103371,0.000542647,0.000575649;0.000110404,0.000748375,-0.000326977;
0.000619422,-0.000652086,0.000971409;-0.00100938,-0.000106733,0.000200717;-2.41153e-05,-0.000210417,0.000768077;
0.000783574,-0.000453829,-0.00113194;0.000606159,0.000349713,-0.000792747;-0.000760856,0.000613265,0.000733843;
0.000742587,-0.000754353,0.00113676;0.000910797,9.1394e-06,-0.000317522;-2.30439e-05,-0.0003923,0.00018865;
0.00110607,-0.000528572,-0.00118751;-0.000539423,0.000314918,0.000718515;0.00113269,-0.000278119,0.000200739;
0.000599893,-7.35611e-05,0.000291023;-0.00093506,-0.000295717,0.000181095;-0.000989042,-0.00105446,0.000657791;
-0.000196949,0.000715009,0.000170572;-0.00094268,0.000266331,-0.00111985;-0.000673226,0.00101258,-0.000485273;
0.000914407,-0.000581239,0.000326708;-0.000235757,0.000170003,-0.000493892;-0.000257436,-0.000706507,0.00108071;
0.000799949,-0.000660407,0.000896437;0.00110035,0.00100006,0.000213227;0.000218901,-0.000459934,0.000409642;
-0.000799772,0.000428142,-0.000913672;-0.000167528,8.79149e-05,-0.000976822;0.00046791,-0.000585073,-0.000596929;
-0.000294305,0.000556609,0.000829966;0.000510905,-0.00036245,-0.00030203;6.77447e-05,-0.000203863,-0.000660135;
-6.75206e-05,-0.000285432,0.000528042;-0.000514933,0.00104376,-0.000625001;0.000143685,-0.000108284,-0.000251857;
-0.000740432,0.000961895,-0.00112192;0.000867669,-0.000895251,0.000648012;0.00116285,0.000881563,0.00102791;
-0.000776179,-0.000572073,-0.000331124;3.34881e-05,-0.000627429,-0.000329061;-0.000992795,0.000395265,0.00027512;
0.000841119,-0.000853449,0.000109203;0.000632113,-0.000739043,-0.000683528;0.000590173,-0.000220007,0.00100366;
-0.000251246,0.000355804,5.95754e-05;-0.000482126,-0.000776891,-0.000977297;0.00105686,0.000985623,0.00059385;
-0.0011607,0.00106662,0.000682275;-0.000502443,0.000276098,-0.00102085;-0.000757957,-0.00110829,0.000823849;
0.000964351,-0.000886147,0.00103414;-0.000947966,0.000524031,0.000452969;-0.000590622,-0.00013492,-0.00117189;
0.000276887,-0.000355119,0.000767105;-0.000815114,0.000315086,0.000745008;-0.000332842,0.000769064,-0.00118826;
-0.00064814,0.000190237,-0.000104436;-0.000465191,0.000207842,0.00023156;-0.00093522,-0.000701282,-0.000703867;
-0.000142596,-0.000124755,0.000354651;-0.000274897,-0.00112345,0.000624811;0.000515799,-0.000614387,-0.000557287;
#
-0.000666308,-0.00257803,-0.00230642;-0.00129976,-0.000408953,-0.00417067;0.00159144,-0.00620764,-0.00704173;
0.0150702,0.0123333,0.00473478;0.0112038,0.000133416,-0.00261134;-0.000729314,-0.00699255,-0.00480159;
0.0115581,0.00722161,-0.0027249;0.00858388,0.00583517,-0.00850421;0.000601996,-0.0119329,-0.0164422;
0.00282548,-0.000755651,-0.00352032;-0.0011296,-0.00187432,-0.000654595;-0.000911383,0.000981559,0.000637721;
-0.000355508,-0.000434445,-0.00132048;0.000884477,-0.00106773,0.000418036;0.000852053,-0.00112574,7.01248e-05;
-0.00446919,-0.00350723,-0.00562123;-0.00597113,-0.00838966,-0.00502009;-0.00959549,-0.00874859,-0.00139715;
0.00278186,0.000373654,-0.00104773;0.0026373,0.00284545,0.00385649;0.0076526,0.00792178,0.00644288;
0.000645257,-0.000743261,-0.00111693;0.000815578,-0.00207143,1.61334e-05;0.000174544,-0.000762087,-0.000708632;
-0.000784674,0.000237767,-0.0002509;-0.000715917,-0.000693346,-0.000280336;-0.000213386,-0.00382191,-0.00283005;
-0.00179712,-0.00434747,0.000135897;-0.00637585,-0.00678733,0.0036161;-0.0175472,-0.016431,-0.0104035;
0.0116376,0.00760021,0.00694468;0.00992602,0.00259428,0.00695273;0.00982591,0.00682418,0.00746023;
0.00807356,0.00436328,-0.00116276;-2.43297e-05,-0.00687499,-0.00291411;-0.00549251,-0.01002,-0.00121464;
0.0103513,0.00298017,0.00050043;0.0173743,0.00412821,-0.00901807;0.0040206,-0.00701934,-0.00505347;
-0.00328954,-0.0141449,-0.0105243;0.00166036,-0.0180061,-0.0204726;-0.0144955,-0.0209826,-0.0123101;
0.00725128,0.011258,0.00529399;0.0143524,0.0149037,0.00366019;0.0122521,-0.00121424,-0.00815643;
0.0145075,0.00894367,0.00419406;0.000600592,-0.00702821,-0.000920765;-0.00491767,-0.00896234,0.00606392;
0.00637693,-0.00635826,-0.00589476;-0.0078321,-0.0215586,0.00837134;-0.0100838,-0.00434003,0.000151111;
0.00257924,0.00480424,0.00334819;0.00773308,0.00913446,0.00307209;0.00899457,0.00387905,-0.00198222;
-0.0018458,-0.00520903,-0.00331505;-0.00551345,-0.00930201,-0.00670906;-0.00794241,-0.00757581,-0.0065909;
0.0175001,0.0227861,0.0229385;0.0150748,0.0225242,0.0190487;0.0116752,0.0111362,0.00941299;
0.00731455,0.00123264,-0.00185675;-0.00528098,-0.0155675,-0.00477758;-0.0118785,-0.0180258,-0.00106923;
-0.00681133,-0.00790031,-0.00696379;-0.0142314,-0.010083,-0.00508195;-0.0066585,-0.00929073,-0.00841611;
0.00578919,0.00297637,-0.00157058;0.00302301,-0.00281721,-0.00845454;-0.00316182,-0.0115515,-0.00901223;
-0.0131676,-0.0104909,-0.00575049;-0.0161212,-0.00429665,-0.000783168;-0.00469139,-0.00515879,-0.00878866;
0.000166325,0.00233936,0.00889633;-0.00108404,0.00902814,0.0139033;0.0100785,0.0156843,0.0119068;
0.00998086,0.00416712,-0.00187731;-0.00358824,-0.00662851,-0.000317826;-0.00547329,-0.00367263,0.00635655;
0.000862814,-0.00138043,-0.00223378;0.00299385,-0.00408559,0.00125694;-0.00234834,-0.00124146,-0.0019629;
0.0041158,0.00241553,0.00167121;-0.000197595,-0.00205049,-0.00140667;-0.000896914,-0.00230926,0.00174176;
0.00216696,-2.9192e-05,-0.00176643;-0.00179327,-0.00185966,-0.000132923;-0.00137946,-0.00196815,-0.00131918;
0.0178756,0.0122441,0.00142979;0.0157411,0.00450963,-0.0112211;-0.00450042,-0.0204773,-0.0154132;
0.00297224,0.00271036,0.00191954;-3.93825e-05,-2.6367e-05,0.00130383;-0.00192371,-0.00295553,0.00113558;
0.000732379,-0.00105124,-0.000286256;0.000673482,5.15902e-05,0.000396943;-0.000944322,0.000127731,-0.00196877;
0.0128775,0.00442619,-0.00413687;-0.00355683,-0.0229394,0.00302372;-0.0204409,-0.0173646,-0.000533258;
0.000763794,0.00042449,0.00106411;0.000513219,-0.00110878,0.000126492;0.000477305,-6.91623e-05,0.000179376;
0.000522311,-0.00603254,-0.0048948;-0.00376388,-0.00921568,-0.00636477;-0.0031948,-0.0133178,-0.00701408;
-0.00367374,-0.00800681,-0.00679523;-0.00109924,-0.0103687,-0.00851259;-0.00222261,-0.0149311,-0.00244358;
0.00221758,0.000820575,0.00140485;-0.00249581,-0.00278562,0.00237669;-0.00852825,-0.00426475,0.00025923;
0.00751065,-0.00192777,-0.0012597;0.00320049,-0.00580492,0.00549465;0.0097674,0.0161975,0.0105311;
0.00313561,-0.00356806,-0.0043525;-0.00510798,-0.0174562,-0.0073471;-0.0171543,-0.0252009,-0.00641906;
0.00143386,-0.00868917,-0.00804985;-0.009628,-0.0162032,-0.013057;-0.0134218,-0.0216932,-0.0108589;
#
-0.00116214,-0.000212269,0.00519858;-0.00162293,0.00288658,0.00409942;-0.00038269,-4.14669e-05,-0.000345717;
0.000909599,0.00187477,0.00212357;0.00797383,0.0110814,0.00536445;0.0107414,0.0164234,0.00895672;
-0.00423833,0.00443017,0.0119526;0.00179697,0.0116504,0.018656;0.00555948,0.0167125,0.0139929;
0.000941123,0.00418624,0.00221773;0.00429855,0.00682076,0.00217132;0.000794502,3.51731e-05,-0.000748946;
0.000681222,-0.000205036,0.00113595;-0.00109465,0.000839406,0.000282319;0.000396357,-2.38105e-05,-0.000552339;
0.00373181,0.00887996,0.00623564;0.00916299,0.0149966,0.00504383;0.00779326,0.00305212,-0.00148266;
0.00162433,-0.000329175,-0.00307617;0.000664494,-0.0031982,-0.00327697;-0.00170374,-0.00351322,-0.00267448;
-0.000865755,-0.000844572,0.00038487;0.00131464,0.00105074,-0.000486754;0.000528473,-0.000979273,-4.9634e-05;
0.00022151,0.00131757,0.00196167;-0.000750821,0.00214649,0.00293342;-1.91519e-06,-0.000169185,-0.000333022;
-0.000423212,-0.00396207,-0.00425256;0.0050878,0.00350197,0.00760065;0.00690222,0.0127231,0.00714571;
0.000216073,0.000148096,-0.00164797;0.00374904,-0.000957619,-0.00547725;0.000696571,-0.00339156,-0.00444778;
-0.00103688,0.00297748,0.00543223;0.00750527,0.00841833,-0.00106913;-0.00185456,-7.43006e-05,-0.00103856;
0.00162365,0.0109505,0.005681;0.0053173,0.0168491,0.00885059;0.0115448,0.0177126,0.00532558;
0.00860636,-0.0020033,-0.015181;0.00763043,-0.0027124,-0.0118145;0.0178607,0.0128605,0.000183755;
-0.00549937,0.00381904,0.0133296;-0.0048867,0.0156462,0.0222177;0.00467208,0.0173071,0.0120933;
-0.00188705,0.00188901,0.00701222;0.0135753,0.00727843,-0.00593825;-0.00224585,-0.011884,-0.01018;
0.00295906,-0.000384812,-0.0135118;0.021897,-0.0064949,-0.016482;0.000366747,-0.00227571,-0.0030359;
-0.00196111,0.00131487,0.00596094;-0.00350049,0.00539307,0.00888181;-0.00177387,0.00458629,0.0025749;
0.00267443,-0.00112264,-0.00454994;0.0069835,-0.00316467,-0.00496474;0.00199265,-0.00271078,-0.00139265;
-0.00286379,0.000900147,0.00558495;-0.00144308,0.0112393,0.0131564;0.00696514,0.0136172,0.0101319;
-0.000160156,0.00012231,0.00203542;0.00899264,0.00684928,-0.00331118;0.00964969,0.0066712,0.00284957;
0.00391212,-0.00466584,-0.00255201;0.00455068,-0.00837728,-0.00431011;-0.00064439,-0.00595958,-0.00122467;
-0.00357574,0.0039909,0.0122477;0.00184178,0.00894137,0.0121151;-0.00218732,0.00285032,0.00415934;
0.00297091,0.00212788,0.00287457;0.00421138,0.00583077,0.00802733;-0.00163819,-0.00108507,0.00115314;
0.00236916,-0.000657614,-0.00359462;0.00141943,-0.00732245,-0.00178912;-0.00473946,-0.00710968,-0.00364828;
0.00140509,0.0109171,0.00701646;0.0115148,0.0164823,0.00325523;0.00326417,-0.00714284,-0.00347731;
0.00107885,-0.00210621,-0.00660545;0.00283975,-0.00276578,-0.00436685;0.000474766,-0.00081893,-0.00153518;
-0.00128775,0.00141036,0.00128819;0.00434493,0.00381612,0.00083674;0.00150162,-0.00262626,-0.00151095;
0.000904432,0.0027187,0.00124783;0.00436754,0.00314862,0.000908309;0.000372399,-0.000622412,-0.000630635;
-0.00642352,0.0175718,0.0189642;0.00973248,0.0302166,0.0282301;0.0122058,0.0318445,0.0212025;
0.00165469,0.000198787,0.00209314;0.00302887,0.00238757,0.000136896;0.00128489,0.00281983,0.00097322;
-0.00149026,-0.00104969,-0.000273613;-0.00082185,0.00139592,0.00101964;0.000561033,0.000496232,-0.000173984;
-0.00223448,-0.000324095,0.000128577;0.0232163,0.0106174,-0.0046834;-0.00278493,0.00164256,0.00561249;
-0.000471844,0.00102722,-0.000766749;-0.00106794,-0.000343111,-0.000794814;-0.000331565,-0.000477108,-0.00101732;
0.00191478,0.000502966,0.00454444;0.00367181,-0.000102026,-0.000391947;-0.00107972,-0.0017966,-0.0026672;
0.000365807,0.00748954,0.00626145;0.00279851,0.00792626,0.00129972;0.00102617,0.000199794,-0.00704911;
0.00437201,0.00162904,-0.000768429;0.00561324,0.00299818,0.000440123;0.00255628,0.00562728,0.00255;
0.00523729,0.00197093,-0.012173;0.00798705,-0.0104122,-0.0183644;-0.00534254,-0.0139318,-0.0119049;
-0.000186969,9.97312e-05,-0.00334281;0.00927475,0.00282623,-0.00432175;0.00703435,0.0128719,0.00633802;
0.000770814,0.00062884,0.00116533;0.00944105,0.00388224,-0.00163382;0.00143327,0.000207673,-0.00138602;
#
-2.3466e-05,0.00386289,0.000706544;0.000776338,0.00323178,-0.000550943;0.00172633,0.00366205,0.00226303;
-0.00545484,-0.0105717,-0.0138769;0.00238873,0.00510743,-0.00260138;-0.000754056,0.0041105,-0.00159459;
-0.00801406,-0.000680575,-0.0096516;-0.00113652,0.0040961,-0.00154879;0.00417924,0.0056438,0.000643162;
0.00293153,-0.00295597,0.0012769;0.00513427,-0.00119998,0.000467944;0.00123554,-0.00324226,-0.000583201;
0.000300046,-0.000848908,-0.00106278;0.000913347,-0.00113407,0.00066741;0.00107684,-5.01222e-05,0.000855525;
0.00259359,-0.00464265,-0.00523072;0.00620696,-0.00363837,-0.002588;0.00320375,-0.00359435,-0.00623836;
0.000896018,0.000927593,0.00864919;-0.00021919,-0.00150193,0.00509499;0.00365927,-0.00274852,-0.000189467;
0.000140517,0.000926559,0.00105416;0.0023126,-0.000536841,0.00119073;-0.000812428,-0.000253329,-0.000231657;
0.0011825,0.00142366,-0.00079329;0.000581415,-0.00134962,-0.00102455;0.000313409,3.98415e-05,-0.000518924;
-0.000254841,-0.0111077,-0.0121362;-0.00146451,0.000254924,-0.00833665;0.0200971,0.0165981,0.00781234;
-0.00260599,-0.00128739,-0.00176998;-0.00161077,-0.000960403,-0.00124102;0.00338181,-0.0033596,-0.00680298;
-0.00269717,-0.00100383,0.004174;0.00666851,0.00860543,0.00699484;-0.00288899,0.000854051,0.00314132;
0.000473749,-0.00559271,-0.0146764;0.00252637,-0.00675368,-0.00564672;0.0174838,0.00810083,-0.00390291;
0.00626734,0.00108156,-0.00958151;0.00713684,0.000452812,-0.00237039;0.034063,0.0380586,0.00569966;
-0.00522103,-0.00789786,-0.0140544;-0.00520587,-0.00540468,-0.00465279;0.00640501,0.0015295,-0.000566071;
-0.00470187,0.00929686,0.010509;0.00311297,0.0141435,0.00586032;-0.00934442,-0.00217541,0.00034915;
-0.00741466,-0.00523897,0.00890166;0.00864131,0.00700027,0.00583156;0.0281465,0.00802485,-0.00184469;
-0.00223584,-0.0036113,-0.00474186;-0.00376755,-0.0043996,-0.00350432;0.00350874,0.00138374,-0.000106139;
-0.00313465,-0.000723169,0.000573516;0.000553227,0.00198941,0.00017244;0.00356264,-0.00464603,-0.00368526;
-0.00633399,-0.0125006,-0.0142077;-0.00503593,-0.00535239,-0.00803823;-0.000168225,-0.00175898,8.641e-05;
-0.00328753,-0.00575022,-0.00228454;0.0108836,0.00763078,-0.00247966;-0.00446164,0.0034644,0.00373104;
-0.00669224,0.00554816,0.0038836;-0.00285464,0.0033929,-0.00173314;-0.00102593,-0.00769118,-0.0068432;
-0.00414631,0.00450486,-0.00268725;-0.000984529,0.00481967,0.00180831;-0.00139692,0.00152496,0.000116998;
-0.00147516,-0.00398763,-0.00878214;0.000825981,-0.00549281,-0.0113203;0.000438533,-0.0107112,-0.00748404;
-0.00161637,-0.000925538,0.00543543;-0.000189574,-0.00948056,-0.00312853;0.00654922,-0.000412819,-0.00290373;
0.0052529,-0.00506432,0.00866638;0.00940563,0.000601642,0.00475002;-0.00204811,-0.0102119,-0.00455813;
-0.000307507,-0.0022257,-0.00215067;0.00147482,0.000655723,0.000210727;0.0171542,0.0131862,0.0020781;
-0.000843937,0.000662356,0.00197236;0.00286234,0.000976515,0.00148829;-0.00315158,0.000510869,-0.00077474;
-6.85647e-06,-0.0033914,0.000354166;0.00449191,0.00281964,0.00113072;0.00124096,0.000851815,0.0010818;
-0.00691015,-0.00469739,-0.0160973;0.00339554,0.00221007,-0.0022826;0.00734755,0.00588402,0.0038876;
0.000597495,-0.00149699,-0.00472327;0.000131403,-3.78457e-05,-0.00093317;-0.00354087,0.000266027,0.000280167;
-7.31452e-05,-0.00140652,-0.00213831;-0.000467714,-0.000680946,0.00059079;0.00205154,0.00218325,0.000661644;
-0.00688257,-0.0125802,-0.0068735;0.0175197,0.00877271,-0.00115188;-0.0065028,-0.00237537,-0.00481266;
-9.68412e-05,-0.00102095,0.000176253;-0.000383107,0.000769976,0.0010835;0.000913293,0.000234366,-0.00091002;
0.00214322,0.00720823,-0.00611576;1.53148e-06,0.00383173,-0.00570398;-0.000428111,0.00291938,-0.00447224;
0.00636479,-6.24103e-05,-0.00831785;0.0085113,-0.00297965,-0.00804751;0.00817651,0.000674047,-0.0086147;
-0.00195933,-0.00987224,-0.0100372;-0.00130199,-0.00351654,-0.00463767;-0.0030632,0.00168077,-0.000159192;
0.00495194,0.0063031,0.0229833;0.00429792,-0.00600116,0.00910015;0.0264901,0.00724137,-0.00310396;
0.00167059,-0.00391054,-0.00763449;0.00158096,0.00344516,-0.0029462;0.00130526,0.00805176,0.00720734;
-0.00251093,0.00255137,0.00304568;0.00362252,0.00984299,0.00285131;0.00172791,-0.00280925,0.00112989;
#
0.000278537,-0.000156648,0.000701805;0.000111297,0.00010622,-0.000546864;0.000357555,-0.00101072,-3.89953e-05;
-0.000588045,0.000971583,-0.00101493;0.000910875,0.000947869,0.000838404;0.000478223,-0.00123262,-0.000216052;
-0.00113185,-0.000971304,0.000862714;0.000157747,-0.000630968,-0.000600752;0.000367197,-0.000938425,0.00099472;
0.000500871,0.00105051,-0.000106038;-8.38107e-05,-0.00119055,-0.00116195;0.000101395,0.000213947,-0.00091364;
5.72552e-06,0.000482936,-0.00100518;-0.00110525,0.000154185,0.00116305;0.000767052,0.00105056,-0.0011747;
-0.000721231,0.000868693,-0.00038249;-0.000984581,-0.000879371,-0.00063233;0.000553217,-0.000428088,-0.000175759;
-0.00118628,0.000109303,-0.000663389;-0.000813303,0.000536269,-0.000301956;0.000567295,7.60196e-05,-0.000918747;
0.00103971,0.00104548,0.000593264;0.000304418,0.000630932,-0.000951464;0.00104148,-0.000889739,-4.68521e-05;
-0.000726421,-0.00106606,0.00106903;0.000688469,-0.000705516,-0.000966816;-0.000273808,-0.000781492,-0.000503296;
-0.000760955,0.000364097,-0.00117773;0.000457459,0.000676838,0.000167112;0.000651477,0.000774853,-0.000837997;
-0.00121248,-0.000991805,8.3356e-05;-9.30218e-05,0.000926763,0.000669404;0.00028361,0.00044806,0.000788261;
0.000329904,-0.000933058,0.000796621;-4.91302e-05,-0.00103191,-0.000868641;0.000915178,0.001095,-0.000596047;
-0.000845944,-0.000997143,0.000785583;-0.000600754,0.000568314,0.000711605;-0.000770074,7.79199e-05,0.00110409;
-0.000202918,0.00110065,0.000391243;0.000695042,-0.000972047,-1.0358e-05;0.000982165,6.4713e-05,-0.000946051;
-0.000245352,0.000977494,0.000403898;-0.00097383,-0.000119258,0.000153016;0.000373231,-0.000462012,0.000421319;
-0.00071165,-0.000959404,0.000698679;0.000599715,-0.000309146,-0.000993641;0.000397437,-0.000582616,0.00106334;
0.000531035,-0.00106887,-0.000373609;0.000289531,0.000732957,-0.000841262;0.000326937,-0.000882121,0.000365982;
0.000324558,0.000973591,-0.000810436;-0.0010862,0.000952118,-0.00103701;0.000658385,0.000524294,-0.000708381;
-0.000201577,0.000220624,0.00104867;-0.000295594,0.000658729,-0.00106939;-0.0011691,-0.000365038,0.000800934;
-0.000971371,0.000225053,-0.000250213;0.000980605,0.000399156,0.000582505;-0.000245009,-0.000147934,-9.68108e-05;
-0.000537019,-0.000238705,-0.000838382;-6.19793e-05,8.22038e-05,0.000724943;-0.000903106,-0.00125038,0.000500775;
-0.00126447,-0.000795606,-0.000482137;-0.000377465,0.000447531,-0.000336692;0.000866547,-0.000161574,0.000783397;
0.00034604,-0.000701318,-0.000451627;-0.000364239,-0.000437632,-0.000940521;-0.000802726,0.000758281,-0.000179045;
-0.00128367,-0.000129786,0.000876572;0.000295407,0.000400858,-0.000102791;0.000214528,-0.000721048,-0.00132588;
-2.28304e-06,0.000235782,-0.0011651;0.000931,0.000893606,0.000960231;1.75435e-05,0.000303712,-0.000809781;
0.000921044,5.02038e-05,-0.000856983;-0.000914861,-7.80138e-05,-0.000130729;-0.000825752,-0.000860656,-0.00115058;
0.000353211,-0.00106339,0.000816939;0.000857405,-0.000276316,7.9751e-06;-0.000166007,8.78079e-05,-0.000176644;
5.58129e-05,-0.000162815,0.000754755;0.000969633,-0.000144965,-0.000728187;0.000156857,-0.000101369,0.000842885;
-8.27385e-05,1.08135e-05,0.000916534;0.00047023,0.000632404,0.000564144;-0.00113251,0.000636343,0.000345103;
-0.001243,0.000178524,0.000211523;0.000169997,0.0002602,0.000255537;0.000297657,-2.67637e-05,-0.000859324;
-0.000898528,0.000572639,-0.00107408;-0.000289131,0.000119884,-0.00071518;0.000770489,-9.17864e-05,8.4412e-05;
0.00115107,0.000674612,5.26791e-05;0.00104709,0.000230924,0.000860745;-0.000180269,0.000900842,0.000735921;
0.000924784,-0.00102789,-0.000446764;-0.000391796,-0.000391282,-0.000224759;-0.00096579,-0.00123196,0.000132601;
