-0.000325882,-0.000425666,-0.000424701,-6.44649e-05,-0.000605768,0.000417138,0.000265325,-8.58609e-05,-0.000515397,-0.000502527,-0.000610948,-0.000447445,-0.000213374,-0.000192661,-0.000673475,-0.000561455,-0.000132154,7.99668e-05,-0.000297744,-0.000638297,-0.00059831,0.000654301,-0.000186051,0.000222129,0.000191943,0.000620874,-0.000346752,-0.000538132,-0.000103206,-0.00052374,0.000353105,-0.000592406,0.000341699,-0.000548219,2.64313e-05,-0.000301999,-0.000224196,0.000651544,-0.000132159,-0.000234289,0.000663408,0.000479221,0.000648255,0.000176699,0.000754625,0.000279111,-0.0001969,0.000316811,0.000410305,-0.000130933,-5.61471e-05,-0.000561723,0.000221646,0.000173879,8.51377e-06,-0.000780647,7.53593e-07,-0.000424836,-0.000836808,0.000188318,0.000631914,-0.000787601,0.000192108,-0.000788554,-0.000626444,7.81677e-05,0.000266879,-0.000282806,0.000633699,1.74782e-05,-3.37281e-05,4.66152e-05,0.000431441,-0.000502701,0.00032247,-0.00028639,0.000231534,-0.000670232,-0.000242925,-0.000515317,0.000158518,-0.000665525,-0.000659915,-5.62739e-05,-0.000703193,-0.000486037,0.00025248,-0.00010382,-0.000181178,0.000116879,-0.000656701,0.000111928,-0.000517339,-0.000551498,-0.000797336,-2.24783e-05,0.000307643,-0.00022066,-0.000536173,-0.000249638,0.000383682,-0.000729893,-0.000397993,0.000654279,0.000199785,-0.000487337,0.000152158,0.00028031,3.82741e-05,-0.000586904,0.000335087,0.000292086,0.00010046,-0.000507209,0.000101262,-0.000486979,0.000625837,0.000484973,-0.000370498,0.0001071,-0.000577951,0.000716259,-0.000539992,-8.99606e-05,-0.000661927,-0.0005402,-4.6923e-05,-0.00053714,-0.000563476,0.000545938,0.000457576,0.000162986,-0.000491143,0.000163486,0.00028818,-0.000538208,0.000244356,-0.000515353,-0.00023841,0.000462173,0.000218095,-0.000448507,-0.000482318,-0.000509097,0.000479763,0.000187169,-0.000601279,0.000386264,6.4029e-05,-0.000661855,7.69298e-05,-0.000589349,0.00032476,-0.000286866,-0.000359851,-0.00021342,-0.000117379,-0.000100443,-0.000848304,-0.00033404,-0.000431249,0.000171519,-0.000416732,-0.000514844,-0.00062173,-0.000477854,-0.000138611,-0.000473436,-0.000460104,0.00070306,-0.000544196,-0.000488027,0.000670091,-0.000248349,0.00033953,-0.000703714,0.000473597,-0.000622871,0.000600886,-0.000547617,0.000478773,0.000760898,-0.000530506,0.000148549,-0.00054175,-0.000756956,0.000490187,0.000230031,-0.000173124,-0.000760574,-0.000655892,-4.2249e-05,0.000236647,0.000363017,0.000555233,-0.000292386,1.81592e-05,-0.000337668,2.36009e-05,0.000617338,-0.000446813,0.000566024,0.000451557,0.000712828,0.000494571,-0.000739608,-0.000661886,-9.52576e-06,-0.000114251,-0.000423771,-0.000699054,-0.000375864,-0.000442025,-0.000485011,0.000201855,0.000315241,-0.000711229,0.000491463,0.000252757,-0.000407513,-0.000241037,-7.77838e-05,-0.00071256,-0.000321682,-0.000781781,-0.000700932,0.000285182,0.000451972,0.000286235,0.000698836,-0.000378339,-0.000558672,0.00058791,-0.000368375,-0.00063585,0.000425366,0.000175035,0.000177598,-0.000530192,-0.000569061,0.000539195,-0.000503319,-0.000187204,-0.000218788,-7.34367e-05,0.00018233,-0.000484483,-0.000685606,-0.000441293,0.000681991,-6.40184e-05,0.000247565,-0.000718147,-0.000745616,-0.000596543,-0.000243663,-0.000602307,-0.000512529,-0.00065628,0.000255344,-0.000640037,0.000560001,-0.000641717,0.000295333,-0.000532496,7.94459e-05,0.000635167,8.46227e-05,-0.00039692,0.000176976,-0.000418987,-0.000800953,-6.76791e-05,-0.000390367,0.000559536,0.000545453,-0.000456889,-0.000138219,0.000387543,-6.40057e-05,-0.000402847,-0.000254037,-0.000767753,-0.000225224,0.000228317,-9.99679e-05,0.000635254,-0.000548171,-9.50649e-05,-0.000310521,0.000756624,8.95468e-05,0.000719402,0.000636418,3.76003e-05,-0.000164956,-0.000350023,-0.000608261,-0.000155973,0.000170821,0.00018296,0.000751862,8.83674e-05,-0.000156857,0.000420811,-0.000634464,-8.23308e-05,0.00051575,0.000117361,-0.00044483,-0.000217002,7.11506e-05,0.000280707,0.000696644,0.000712183,-0.000702341,0.000519681,-0.00042076,-0.000335317,-0.000559865,0.0005363,-9.55365e-05,0.000439902,-8.96398e-05,-0.000517042,0.000322136,0.000472097,-0.000555605,0.000170894,-0.000305644,2.88451e-05,0.00074616,0.000550812,-0.000478969,0.000159217,-0.000103225,7.34133e-05,-0.000679806,0.000604524,0.000719144,-0.000407546,-0.000313561,0.000523506,0.000331521,-0.000156396,-0.00037582,0.000185104,-0.000421928,0.000105688,-0.000103736,0.000334447,-0.0005435,0.000270332,0.000482562,-0.000297096,0.000376611,-0.000569185,-0.000765589,0.000278612,-9.05384e-05,0.000348528,-0.000872191,-0.000667579,-0.000722697,-6.09221e-05,0.000192412,0.000226383,0.00011683,-0.000808731,0.000229949,4.27596e-05,0.000639291,-0.000741668,0.000553204,0.000515821,0.000607216,-0.000426193,0.000595988,-0.000711021,0.000593577,-0.000139707,8.3682e-05,0.000395827,0.00017809,7.8626e-05,-0.000457644,0.000214569,0.000479746,0.000629485,6.93062e-05,8.912e-05,9.00801e-05,0.00072744,0.000245341,-0.000513642,0.000321158,0.00010836,-0.000541408,-3.25445e-06,-0.000157219,-0.000799092,-0.000239471,8.67176e-06,0.000358076,0.000275932,0.000666819,0.000651134,0.000362931,-0.000471377,0.000211973,-0.000305719,0.000502486,0.000612229,0.000218184,0.000678514,0.000308589,0.000103324,0.000665887,0.000230118,-0.000303543,0.000621252,0.000229452,0.000411042,0.000384642,-0.000566996,0.000242042,1.28149e-06,0.00075152,0.000479903,0.000350007,-0.000116557,-0.000106842,-0.000214005,0.000647207,-0.000668561,-0.000543811,0.000375029,-0.000421007,0.000521631,-0.000439715,0.000462639,9.99496e-06,-0.000287976,-0.000740694,0.000501849,-0.000634888,-0.000283061,0.000468671,0.000729682,0.000687965,-0.000149437,-6.42755e-05,-0.000591298,-6.88179e-05,-0.000381898,0.000714669,-0.000547468,-0.00033711,-8.12067e-05,-0.00021857,-3.03809e-05,-0.000619202,0.000333434,-0.00055485,-0.000626314,0.000503522,-0.000113612,0.000542623,0.000597725,0.000570752,0.00014775,0.000141208,2.46635e-05,0.000679282,-0.000457812,0.000144494,-0.000209552,-0.000685412,-0.00082724,0.000433049,-1.32105e-05,-0.000222967,9.14083e-05,0.000385055,0.000394258,0.000217391,-0.00042934,0.00042643,0.000283769,0.000557319,0.000693123,0.000538067,0.000234801,1.21387e-06,0.000676684,-0.000701044,0.000501667,0.000732707,0.000558951,-0.00052611,-0.000472908,0.000687995,0.00026145,-0.000486946,0.000383206,-0.000201707,0.000649851,-5.509e-05,0.000715597,0.000646837,0.00016702,7.02521e-05,-0.000137114,-0.000365793,0.000584143,-0.000167752,-5.02221e-05,-0.000323343,-0.000392095,0.000693002,-6.09152e-05,-0.000364816,0.000304597,0.000307739,-0.000699073,-0.0002694,-0.000623377,0.000738213,2.32304e-05,0.000746646,0.000502834,0.000219846,-0.000534614,-8.17561e-05,0.000366009,5.77693e-05,0.000160386,6.0172e-05,0.000500901,-0.000593111,-7.45604e-05,-0.000538685,7.45766e-05,0.000512841,-0.000499606,-0.000403255,-0.000720065,-0.000738487,7.18374e-05,0.000168888,-0.000734802,-8.72468e-06,-5.64481e-05,0.000587564,-0.000429264,-5.2683e-05,-0.000482596,8.39252e-05,-0.000568235,0.000344571,0.0004706,0.000367771,-0.00033929,-0.000417361,-0.000584817,-0.000743164,-0.000439097,0.000622304,0.00057288,-0.00019902,-0.000523071,-0.000408432,0.000645858,0.000631891,-0.000568005,-0.000437505,0.000738784,-0.000385023,8.33897e-05,0.000406639,-0.000358563,-0.000150175,0.000461766,-0.000206119,0.000673838,0.000591175,0.000482577,-0.000101089,-0.000392044,0.000557822,-0.00021039,-0.000339655,0.000271587,-0.000237145,0.000300218,0.000511495,0.000315982,-7.99194e-05,-0.000356836,-0.000154153,-0.000408919,0.000119182,-3.28162e-05,0.000570825,-0.000681001,-0.000462133,0.000428555,0.000314408,-0.000314964,-0.000212464,-0.000702221,-1.54134e-05,9.59301e-05,0.000423653,-0.000330363,0.00042906,-0.000143367,-1.81125e-06,-2.37958e-05,-0.000369986,-0.000361471,-0.000451087,-0.000219273,-2.10362e-05,-0.000280957,-0.000326167,-6.68954e-05,0.000489757,-4.26278e-05,-0.000600406,0.000403475,-5.68073e-05,0.000468447,0.000243583,0.000684025,0.000472315,0.000435,-0.000784006,0.000539324,0.000319446,-0.000406016,-0.000695683,0.000528403,-0.000541657,-0.000174481,0.000308336,-0.000182641,-0.000654977,0.000350666,0.000463294,3.26723e-06,-2.99596e-05,-0.000536845,0.000748309,0.00057612,-0.000758966,0.000335479,-0.000431847,-0.000544879,0.000246746,-0.000419135,8.96289e-05,0.000467145,-0.000526492,-3.09757e-05,0.000495114,0.000577078,0.000364275,0.000113854,0.000183547,0.00058905,0.000343177,6.64847e-06,-0.000275165,-8.64451e-05,-0.000354391,-9.98318e-05,0.000332659,-0.000345485,-0.000718464,0.00016429,0.000245955,-0.000374507,0.000306316,6.54167e-05,0.000700251,-0.00021824,0.000555559,0.000162317,0.00018193,0.000105305,0.00054037,-0.000535891,-0.00072473,-0.000443094,-0.0003819,-0.000392691,0.000613993,-0.000447383,0.000578651,-0.000265848,0.000748642,-9.6259e-05,-0.000521177,-0.000729722,0.000156848,-0.000206509,0.000390198,0.000188725,-4.30069e-05,-0.000315599,0.000433919,-0.000569301,-0.000581211,-0.000329489,0.000642481,-0.000126587,-9.31453e-05,0.000144129,-0.000122069,-6.35661e-06,-0.00067935,-0.000238939,-0.000205191,0.00064663,-0.00027092,-0.000298804,-0.000212192,0.000530919,-0.000561631,-0.000704179,-0.000215623,-0.000703967,-0.000247869,-8.30652e-06,-0.000169447,-0.000421556,-0.000259156,-0.000512256,-0.000409303,0.000641663,-0.000609693,-0.000304363,-0.000217583,0.000379589,0.000345999,-2.45514e-05,-2.70682e-05,0.000513056,0.000447707,-0.000225662,0.000360371,0.000516943,-0.000388648,0.00074327,0.000427291,0.000254744,-1.19595e-05,-0.000507648,-0.000459323,-9.94322e-05,0.000240441,-0.000742449,0.000662021,-0.000671678,2.98554e-07,-0.000250012,0.000648629,-0.000182267,0.000610834,-0.000154287,-4.7366e-05,0.000187061,0.000416516,-1.07665e-05,-0.000478642,-0.000170357,-9.2322e-05,0.000471678,0.000288031,-0.000159804,0.000162595,-0.000355065,-0.000350863,0.000500232,0.00037518,0.000468098,0.000324238,-0.000204831,-0.000269283,0.00070052,0.000103729,0.000126612,-0.000300539,0.000396572,-0.000668761,0.000571154,0.000616979,0.000332731,-0.000142563,-0.000366149,0.000232046,-0.000110284,0.000435769,0.000587969,-0.00063499,-0.000351761,0.000404026,-1.5613e-05,-0.000317059,0.000192012,0.000664175,-1.28663e-05,-0.00052735,-0.000475841,-0.000649143,-0.000456925,0.000474902,-0.000337406,-0.000374889,-0.00041882,-0.000598412,-0.000249324,-0.000684058,-0.000183352,-0.00062368,-0.000137448,0.000588226,0.000603031,0.000590006,0.000373102,0.000481456,-0.000183889,-0.000484603,-0.000669039,-0.000656254,-0.000437635,3.12408e-06,-0.000380722,-0.000265079,6.44292e-05,0.000520929,9.98615e-05,0.000107267,-0.000729039,0.000198436,-0.000326209,0.00045718,-0.000214855,-0.000708214,0.000246787,-0.000688644,0.000294913,-0.00068722,-0.000500332,0.000682309,-0.000664845,0.00016704,0.00067918,0.000374158,
0.00062471,-2.84368e-05,-0.000564971,-0.00016311,0.000592772,-7.71656e-05,-0.000267168,-0.000559698,-0.000524441,2.57819e-05,0.000327604,7.26276e-05,-0.000134921,0.000420067,-0.000452855,-0.00046776,-0.000448259,-0.000455863,0.000360644,5.84151e-05,0.000301337,-0.000172403,-4.47503e-05,-0.000758904,-6.63322e-05,0.000569496,0.000339766,2.65147e-05,-0.000349012,0.000192102,0.000417221,0.000471775,8.99205e-05,0.000633928,0.000293151,-0.000604461,-0.000481227,-0.000550332,-0.000544747,-0.000222381,-0.000384721,-0.000629386,0.000675906,7.76396e-05,0.000102164,0.000378941,0.000158545,-0.000668848,-0.000718435,-0.000846057,-0.000296697,-0.000510172,6.53122e-05,-0.000421041,-0.000786658,-0.000127973,-0.000712093,0.00038186,-0.000329325,0.000507723,-0.000284261,-0.000707861,-0.000692326,-0.000841867,0.000506617,0.000145808,0.000553033,4.0339e-05,0.000443427,0.000183338,-0.00039611,0.000526684,0.000611632,0.000387651,6.26246e-05,-0.000693056,0.00065581,-0.000614206,0.000304604,-0.000113217,-0.00046945,-0.000701408,0.000507064,0.000299267,-5.52809e-05,0.000111515,-0.000569012,-0.000241519,-0.000595044,6.93367e-05,-0.000387278,0.000313082,0.0002823,-0.000300784,-0.000495622,-6.06028e-08,-0.000203896,0.000383748,-0.000387495,0.000147008,-0.000177317,1.09667e-05,-0.000726501,0.000360732,-0.00023818,-0.000425512,-0.000643879,0.000387084,0.000286251,8.92022e-05,-0.00056429,-0.000721827,-0.000544749,-0.00046861,-0.000318931,-3.37701e-05,-0.000563389,0.000322757,-0.000712324,-0.000519821,0.000388876,-0.000253339,-0.000363519,0.000373543,0.000452051,-0.000505766,-0.000679966,-0.00017436,-0.000548725,0.000729387,0.000124704,-0.000257235,0.000239667,-0.000142642,-0.000234545,6.06494e-05,8.07973e-05,0.000642741,-0.00049974,-0.000519767,0.00018622,0.000338389,-0.000228211,0.000695162,-0.000429448,0.000222997,0.000362026,0.000467681,-0.000342467,7.04798e-05,0.000236435,0.000372822,0.000190171,-0.00100128,-9.35095e-06,-0.000131974,0.000356583,-4.18212e-06,0.000157818,-0.000308599,-0.000601364,-8.03842e-05,-0.000204294,-0.000498195,-4.73524e-05,0.000602498,-0.000362129,-0.000591477,-8.77207e-05,0.000509582,-0.000184931,-0.000621082,-0.000121624,-0.000121761,0.000671411,8.3966e-05,-0.000510297,-0.000645174,-0.000463782,0.000308958,-0.000551497,-3.30973e-05,-0.000363132,0.000596624,-4.3587e-05,0.000121966,0.000386953,-0.000155943,0.000664908,0.000456585,0.000616964,-0.000581392,-0.000569974,-0.000621513,0.000485664,-1.23924e-05,-5.56548e-05,-0.000323379,0.000663942,-2.37678e-06,7.10644e-05,-0.000656602,0.000514745,0.000419147,0.000644085,0.000555245,-0.000520007,-0.000795815,-0.000460228,-0.000579834,-0.000689126,2.72925e-05,-0.000362143,-0.000712559,-0.000222307,0.000689683,0.000336952,0.000210978,0.000467035,-0.000271695,-8.47273e-05,-0.000547889,-0.00021057,-0.000838106,-0.000901893,0.000530283,-5.35026e-05,0.000137323,-0.000796933,-0.000618219,2.21351e-05,-0.000480823,-0.000819472,0.000501207,-0.000474123,-7.95205e-05,0.000145833,-0.000315855,-0.000238408,0.00066878,0.000165212,2.49932e-05,-0.000674628,0.000403442,-0.000782769,5.514e-05,0.000529473,-0.000539685,8.00764e-05,0.000633314,-0.000133499,-0.000790727,-0.000605342,-0.000492038,-0.000478464,-9.29754e-05,-0.000737419,0.000636079,0.000323715,-3.73458e-05,0.000574765,0.000492563,-0.000826979,-4.44429e-05,0.000154324,0.000157494,-0.000139858,-0.000630893,-0.00083984,7.54843e-05,-0.000808812,-0.000582959,-0.000544746,-0.000867239,0.000420181,6.87104e-05,-6.19024e-05,0.000530998,-1.32306e-05,0.000349139,-6.74907e-05,-0.000732102,-0.000681574,-0.000219434,0.000305314,-0.000738065,-0.000638293,-3.71225e-05,-0.00053985,-0.000185675,-0.000628327,-0.000742565,0.000214025,0.000141586,-0.000284247,-0.000540633,-0.00064473,0.000253961,1.29289e-05,0.000687028,-0.000768237,-0.000695572,-0.000115568,-0.000276481,0.000674351,-2.17114e-05,-0.000610389,-0.000200493,0.000438386,0.000449355,0.000274473,0.000256324,-0.000654217,-0.000333573,-0.000217178,-0.000598729,0.000278449,-5.75921e-05,0.000627712,-0.00036914,0.00050681,0.000522032,0.000207006,-4.32591e-05,7.19837e-05,-0.000667611,-1.59078e-05,0.000133663,-0.00066445,0.000674928,-0.000432647,-0.000622563,-0.000469614,0.000300794,0.000539672,0.000488742,-0.000735519,-0.000463281,0.000127179,-0.000267526,0.00019037,0.000676343,0.000442881,0.000280783,-0.000279827,-0.000453196,0.000180345,-0.000598086,-0.000462379,-0.000152807,0.000106564,-0.000677711,0.00024029,-0.00070168,0.000598963,2.79531e-05,0.000627651,0.000129103,-0.00037739,0.000533003,2.28245e-06,0.00014849,0.000265275,0.000160789,-0.000870938,-0.000453874,0.000311263,-0.000975156,-0.00043231,0.000730958,-0.000766866,0.000303245,-0.000406094,0.000216246,0.000530957,-0.000538627,0.000700222,0.000685875,-0.0006376,0.000550173,0.000131421,-0.000754827,-0.000307265,-0.000344436,0.000116763,0.000450475,-0.000517334,-0.000783561,0.000408565,0.000699056,0.000691336,0.000251574,-0.000168365,-0.000494834,-0.000404295,-0.000228751,-0.0002055,0.000458781,0.000496089,-0.000250877,0.000655906,-0.000125211,0.000495657,0.000544401,-0.000822897,0.000206116,0.000693094,2.90555e-05,-0.00065278,0.000437912,0.000692229,0.000152592,-0.000512583,-0.000330699,-0.000292944,0.000289972,0.000524354,-8.70833e-05,-0.00050876,-0.00067968,2.49263e-05,-0.000225079,-4.46364e-05,-2.75464e-05,0.00075795,0.000179752,0.000704226,-0.000676623,2.65147e-05,-0.000463098,8.48359e-05,0.000179954,-0.00014651,5.76677e-05,7.73746e-06,-0.000260202,0.000166603,0.000337179,-0.000578837,-0.000318459,-0.000197715,-0.000737849,0.000292659,-0.000379178,4.90613e-05,-0.000359827,-0.000690441,0.000609956,0.000334088,0.000563632,-0.000616061,-0.000513711,0.000296894,0.000182665,-7.07057e-05,-0.00032342,-0.000486635,0.000585458,0.000285315,-0.000107466,-0.000405597,0.000127518,0.000411483,0.000561103,-0.000513444,0.000428798,-1.64465e-05,-0.000304654,-0.000760994,1.85348e-05,-2.86516e-05,0.000657016,-0.000639917,-0.000403011,-0.000745316,-0.000176255,-0.000445006,-0.000467521,0.000493903,-0.000940208,-2.47683e-05,0.000520959,0.000487286,0.000411435,0.0005375,-0.000434964,-0.000252427,-0.00040132,-0.000341492,-0.000720461,-0.000396107,-0.00022513,-0.000317809,0.00054914,-0.000821034,0.000250034,-0.000837067,0.000407945,3.16886e-05,-0.000792628,-8.60128e-05,-0.000847264,-0.000416239,6.9012e-05,0.000603736,-0.000650806,-0.000731939,-8.42438e-05,-0.000103633,-0.000580173,-0.000400376,0.000339224,0.000660928,-0.000545254,0.000492411,0.000339867,-0.000391246,0.000646947,0.000423333,-0.000386143,0.000429012,-0.000395893,-0.000150334,0.000324744,0.000609789,-0.000677878,0.000445719,0.000499152,0.000312734,0.000728886,-2.45199e-05,-0.000228534,0.000254555,-0.000556903,-0.000439424,-0.00101877,-0.00104525,-0.000260139,-0.00102357,-0.000804219,0.000368785,-0.000246246,0.00046611,-0.000780565,-0.000619282,-0.000515568,0.000388198,0.000519518,5.03497e-05,-0.000232769,0.000565186,-0.000459868,0.000392036,-0.000409793,-0.000433536,-9.6862e-05,-0.00065539,5.33826e-05,-0.000702138,-0.000186618,-0.000508492,0.000245526,-0.000646593,-0.00045267,0.000656792,-0.000193147,2.47558e-05,0.000204654,0.000149449,0.000419015,-0.000526693,0.00037429,0.000143896,0.000198146,-0.000653104,-0.000547673,-0.000184482,0.000523952,0.00049708,0.000660471,-9.29877e-05,-0.00071132,-0.000707427,0.000704378,-0.000165638,0.000428258,-0.000542378,0.000607709,0.000197304,0.000408438,9.78103e-05,0.000538322,-2.23329e-05,-0.000478059,-0.000534737,-0.000172225,-0.000267058,-0.000145304,-0.000373465,-0.000174355,0.00047476,-0.000779995,0.000534256,0.000485293,0.000594426,-0.000673918,0.000142098,-0.000747853,-0.000573718,0.000222446,0.00052231,0.00010104,-2.60033e-05,1.14817e-05,-0.000655674,-0.000350557,-0.000766875,-4.71761e-05,-0.000549229,-0.000164539,-0.000737653,0.000251794,-0.000252478,0.000453678,-0.000614386,0.000576391,0.00053619,8.08067e-05,-0.000172152,-0.000806138,-0.000405194,-0.000704554,0.000250146,0.000652767,0.00012036,-0.000541215,0.000608032,0.000181631,-0.000413958,-0.000106385,-0.000370965,0.000614759,-0.00073231,0.000603812,-0.000234729,-0.000758721,-0.000392823,-0.000645661,0.000303947,0.000301036,0.000360094,-0.000294784,0.000174668,0.000451808,2.74687e-05,-1.41999e-05,1.22479e-05,-0.000659555,-0.000294281,0.00054573,0.000301062,-0.000689124,-0.000471423,0.000156117,-0.000104985,-0.000657742,0.000151919,-0.0002049,-0.000235208,-0.000180969,-0.000561446,0.000419889,0.000554597,0.000392544,-0.000738637,-0.000714721,0.00012493,-0.000610432,0.000110645,6.2777e-05,-0.000568993,-0.000695511,-0.000348279,-1.288e-05,0.000453319,-0.000652292,0.000326515,-0.000207643,0.000462846,-0.000416443,-8.50346e-05,-5.18356e-05,-0.000389001,0.000111511,-0.000283782,0.000364484,0.000723557,0.000732071,0.000686707,0.0003128,-0.000575945,-6.97242e-05,-0.000288734,0.000625999,0.000273502,0.000427112,-0.000391898,-0.00035471,0.000165339,-0.000323937,0.000445703,-0.000240984,-9.90143e-05,0.000342225,-0.000106224,0.000119641,0.000328591,-0.000399072,-0.000463804,0.000719915,-4.60968e-05,0.00032711,-0.000821979,0.000193188,-2.13318e-05,-0.000124854,-2.08067e-05,-0.000739805,0.000498232,0.000600156,-0.000722588,-0.000357194,0.000184087,-0.000179784,0.000192291,7.94587e-05,-0.000275215,-0.00060865,0.000718797,-0.000484518,0.000172757,-0.000138234,-0.000311674,-0.000724376,-0.00051586,0.000226376,-0.000138888,7.99986e-05,0.000294807,0.000301175,-0.000614906,0.000465418,0.00063533,-0.000721043,-0.000132194,0.00063895,0.00073491,-0.000220767,-0.00034788,-0.000525373,-0.000471225,-0.000408346,-2.19218e-05,-0.000624216,0.000576144,-0.000353595,0.000655412,-0.00024831,-0.000493357,-0.000279467,6.58691e-05,-0.000708273,0.000400078,-0.000186757,-0.000295842,0.000239227,-0.000669564,-6.48172e-05,-6.83803e-05,-8.20943e-05,-0.000238655,-4.86559e-05,-0.000574643,-0.000153977,2.33068e-06,-0.000407225,-0.000557639,-8.02543e-05,0.000472703,-1.40473e-05,-0.000258202,-0.00077664,0.000312735,0.000662062,5.52003e-05,-0.000747509,-4.3914e-05,-0.00049496,-0.000507534,-0.000507022,-0.000640459,-3.02023e-05,-0.000240646,-0.000507406,-0.000357425,-0.00034907,-0.00011875,0.000436545,-0.000275799,-0.000913449,8.41945e-05,-0.000256056,0.000258696,0.000204509,-0.000356578,-0.000203314,0.000294585,-0.000693484,-0.000511514,-0.000574679,-0.00055734,-0.000271127,-0.00014579,0.000343628,-0.000819291,-5.85261e-05,-0.000570887,0.000486814,0.000133544,-0.000662889,-0.000605495,0.000451286,0.000215706,0.000129776,-0.000180945,0.000534821,-0.000728531,-0.000311681,-8.14231e-05,0.000165559,0.000442212,-0.000318031,-0.000674019,0.000536934,-0.000129576,-0.000590137,0.000291896,-3.0518e-05,6.76903e-05,-0.000603605,0.000646866,0.000330377,0.000643552,0.000426905,-1.10357e-05,9.30318e-05,-0.000376746,-0.000514085,-0.000104285,0.000401901,
0.000319503,-0.000195643,-0.000132766,4.59151e-05,-0.000686345,-0.00028802,6.46246e-06,0.000109397,0.000380577,-0.000414929,0.000570378,-0.000725576,-0.000513131,0.000399922,-0.000872565,-0.000438156,-0.000780909,-0.000590432,-4.16841e-05,-0.000757459,-8.06984e-05,-0.000591864,0.000103507,-1.45753e-05,0.000343271,-0.000390796,-0.00020997,-0.000142682,0.000187663,-0.000638223,-0.000440692,-0.000646983,-0.000563005,0.000508962,0.000381103,0.000218236,0.00026986,-0.000649128,0.000740087,0.000392423,-0.000760385,-0.000170177,-0.000696435,0.000336156,-0.000389232,-0.000165725,-8.57295e-05,-0.00014264,0.000203787,-0.000620649,0.000406292,-0.000575118,-0.000203641,-0.000328893,0.00044518,0.000258874,-2.58935e-05,-0.000195773,0.000403278,0.000216452,-0.00011648,0.000294084,-0.000219502,5.43423e-05,-0.000169519,-0.000355187,0.000181595,-0.000502593,-0.00029539,0.000119493,0.000551913,-0.000557889,-0.000150696,-0.000708184,0.000349099,-0.000472368,0.000165407,0.000467741,-4.30216e-05,-0.000336684,-0.000465271,0.000286784,0.000369597,0.00017015,0.000384729,0.000460237,0.000626564,-0.00028122,0.000382265,-0.000462951,-0.000106558,-0.000237931,-0.00020719,0.000163809,-0.0001615,0.000353941,0.000528972,0.000494494,-0.000461538,1.67905e-05,-0.000541591,-0.000284173,0.000684403,-9.2322e-05,0.000257967,-0.000299715,-1.44144e-05,-0.000328021,-0.000351729,-0.000765909,0.000453751,-0.000156698,-0.000278686,-0.000531752,-0.000669583,-0.000560109,-0.000317189,-0.000302835,-0.000771437,-8.48841e-06,-0.000134289,-0.000161326,-0.000281066,-9.60103e-05,0.000459223,0.000686479,0.000592028,0.000654727,0.000561747,9.60204e-05,-0.000137185,4.25876e-06,-7.75051e-05,-0.000242506,-0.000557811,-0.000761562,0.000557539,-9.88758e-05,-2.86601e-05,0.000213639,-0.000525097,0.000554428,0.000174648,-0.00063822,0.00042527,-0.000958156,0.000493461,-0.000147707,0.000394259,0.000516345,0.000358227,-0.000359377,0.000478536,-0.000362544,-0.000679676,-6.29775e-05,0.000494418,-0.000642791,0.000466016,-0.000207147,-5.76395e-05,0.000188152,-0.000298319,0.000700349,-6.01987e-05,0.000541284,0.000347117,0.000442451,-0.00020871,0.000332311,0.000716858,0.000292057,-0.000356592,-0.00038329,0.000233675,-0.000732353,0.00073648,0.000217182,-0.000118947,-0.000361517,-0.000178068,0.000301279,1.77038e-06,-0.000102325,0.000404995,0.000152444,0.000492436,0.000246995,4.5508e-05,-0.000552053,-0.000796355,-0.000449259,0.000307036,0.000568922,-0.000244572,-0.000685135,0.000682804,-0.000644104,-0.000708582,0.000547869,-0.000658042,0.000695612,0.000351022,-0.000666309,0.000697215,6.1572e-05,0.000339414,0.000307865,0.000312795,-0.000280242,0.000484302,0.000639011,-0.000244252,0.000254352,-0.000489889,-0.000607387,-0.000467919,0.000452665,-0.000410376,0.000505387,-0.000808764,0.000457949,-0.000326615,2.77427e-05,0.000404144,-0.000782557,0.000397143,-0.00059116,0.000242487,0.000704362,0.000490822,-0.000550458,-1.16002e-05,0.000538101,0.00073094,-0.000565222,-0.000349139,0.000519676,0.000146258,-0.00050475,0.000489702,-0.000631172,-0.000571561,5.7253e-05,-0.000568033,8.08537e-05,1.39907e-05,-0.000421918,0.000169155,-0.000219278,0.000618375,0.000206248,0.000545744,0.000736141,0.000749173,0.000627848,-0.000483554,-0.000476485,0.000434273,0.000210284,-0.00048335,0.000292762,-0.000365267,-0.00055438,-0.000181704,-0.000694391,-1.55274e-05,0.000514775,-4.40708e-05,-0.000313481,-9.0953e-05,0.00051368,-0.000553655,2.84347e-05,0.000458887,-0.000547147,0.000369728,-0.00017265,-0.00084154,-4.02527e-05,-0.000419928,0.00025961,8.43003e-05,0.000468778,-0.000292614,-0.000690625,-0.000941421,-1.19796e-05,-0.000309522,-4.45183e-06,-0.000179865,0.000459775,0.000214007,-0.000633198,-9.0417e-05,-0.000583411,0.000201957,0.000240127,0.000404934,-0.000774902,-0.00034742,0.00075364,9.07568e-05,-0.000465945,0.00043592,0.000544373,-0.000543602,-0.000119531,-4.56367e-05,0.000341896,0.000356135,0.000120947,5.14489e-05,0.000184904,-0.000340695,-0.000452309,-0.000452562,-0.000739355,-0.00046449,-0.000200964,0.000553524,0.000187539,-0.000197517,-4.89541e-05,0.000159584,0.000201587,0.000628234,0.000671932,-0.000212049,0.000455884,-0.00026484,0.000459674,-0.000501259,0.000579859,0.000740871,-0.000657864,0.000307787,-0.000757199,-0.000487901,-0.000494967,-0.000716845,0.000522963,-5.48804e-05,-0.000256816,-0.000520214,-0.000460832,-0.000772399,0.000101366,0.000159423,0.000711581,0.000568303,-0.000106617,-0.000624004,-0.000731794,-0.000386869,0.000439056,0.000548794,0.000491305,0.000683509,-0.000222572,-0.000329633,-0.000676484,0.000310362,-0.000257809,-0.00025515,0.00017826,0.000235863,0.00045432,-0.000753336,-0.000692333,-0.000214764,0.000749147,0.000141345,-0.000305038,-0.000124977,0.000406002,0.000416363,-0.000378163,-0.000920288,-0.000480396,-0.000485967,-0.000420159,-0.000553359,0.000244347,-2.98001e-05,5.91924e-05,0.000124562,-0.000525407,0.000281984,0.000331762,0.000657187,0.000364146,-0.000119897,-0.000157624,-0.000260779,3.31678e-05,0.000376881,0.000306609,3.02529e-05,-0.000680402,-0.000385317,0.000221612,0.00028212,0.000240043,-0.000657914,-0.000612777,-0.00010781,0.000205326,-0.000363625,-0.000229024,0.000397507,-0.000356572,-0.000664383,-0.000542772,0.000526343,1.76976e-05,0.00060685,3.07297e-05,0.000172746,-0.000474083,0.000461511,-8.64297e-05,-0.000679507,1.95499e-05,0.000598105,0.000539398,0.000104912,-0.000481744,0.000555726,0.000447929,-0.00063546,0.000448712,-0.000772246,-0.000595741,-0.00071522,3.76926e-05,7.5592e-05,0.000269822,-0.000703005,7.66814e-05,0.000724349,0.000224492,-0.000804273,0.000428465,0.000483658,2.54308e-05,-0.000750368,8.68401e-06,-0.000563022,0.000371274,-0.000783021,7.54351e-05,-0.000651889,-0.000487598,-6.2835e-05,-0.000380423,0.000593765,0.000160066,-0.000616755,-0.00049893,-0.000708502,-0.000580005,-5.74353e-05,-0.000518892,0.000275248,0.000329453,-0.000598306,-0.000862308,-0.000493173,-0.000659997,-0.000571829,-0.000449119,-0.000450554,-0.000363773,0.000386247,0.000463234,-6.12527e-05,0.0005894,-0.00021169,-0.000614712,0.000286613,0.000225398,-0.000324569,-0.000274573,0.000172684,0.000127325,-0.000427169,-0.000679231,1.77553e-05,-0.000518464,0.000480202,4.33011e-05,-0.000766296,-0.000557608,0.000575243,5.96835e-05,9.40581e-06,0.00049276,-0.000520659,-0.000408846,-0.000211596,0.000120414,-0.00060746,-0.000555024,0.000119768,-0.000767294,-0.000307097,-0.000159889,-0.000747463,0.000209313,0.000489686,0.000389375,0.000706033,0.000192207,0.000314454,-0.000704669,-0.000678841,0.000122995,0.000578539,-0.00069473,0.000416853,-0.000534081,0.000435007,-0.000523914,-0.000531107,-0.000252801,0.000572346,9.12055e-05,8.57414e-05,0.000306953,-0.000520338,-0.000341268,-0.000264166,-0.00105763,6.20831e-05,-0.000560324,-0.000320372,-0.000916166,-0.000421047,-0.000102413,-0.000620447,7.14018e-06,0.000456085,0.00022214,0.000312299,-0.000189586,0.000735232,0.000198892,-0.000357124,-0.000358208,-0.000681276,-0.000406577,2.62079e-05,-0.000216591,-0.000451278,0.000606321,-0.00068641,0.000106662,-0.000591865,-0.000185102,0.000126831,-0.000101725,0.000531446,-0.00050982,4.58215e-05,0.00071483,-0.000153379,-0.000265907,4.22425e-05,-0.000231942,0.00021226,-0.000637603,0.000485769,-0.000660417,-0.000556257,-0.000202435,-0.000122685,7.20642e-06,5.42411e-05,-0.000613385,0.000392588,-0.000220087,0.000350257,0.000153491,0.000467533,0.000464421,-0.000368604,0.000481759,0.000487768,-0.000180645,-0.0003791,-7.21156e-05,0.000171025,-0.000393359,-9.63258e-05,0.000655864,-0.000136977,-0.00042637,0.000192508,0.000248994,-0.000458178,-0.000565787,-0.000348127,0.00032449,0.000546582,0.000576513,-0.000256072,-0.00029373,-0.000667405,0.000580285,-0.000289477,0.000456655,-0.000149469,0.000614188,-0.0006506,0.000310505,0.000186196,0.000577312,-0.00035484,-0.000649049,0.000717707,-0.000754731,0.000271005,-9.63935e-05,-0.000207398,0.000457224,-9.4267e-05,-0.000203749,-0.000333387,8.26662e-05,0.000613956,0.000660981,-6.75729e-05,-0.000447383,-0.000541919,0.000627163,-0.000780074,-0.00065111,3.54245e-05,-0.000124434,-2.9266e-05,-0.000806539,-4.43273e-05,0.000150559,-0.00067287,0.000485357,0.000712778,0.000710895,0.000483469,0.000591478,0.00025659,-0.000480504,0.000520887,-4.79071e-06,-0.000556262,-0.00057949,-0.000845939,0.000494932,-0.000253777,-0.000821193,0.000127428,-0.000169912,0.000694949,0.000222215,-0.000349985,0.000101006,0.000164899,-0.000715632,-0.000385887,-0.000541589,-0.000493399,-0.000322812,0.000593828,0.000695965,0.000345948,0.00054428,0.000226631,-0.000694934,-0.000750951,-7.96688e-05,0.000466302,0.000355789,-0.000139182,-0.000145864,0.000436533,-0.000260771,-0.00027881,-9.54735e-05,0.000603249,0.000412796,0.000466602,-0.000405023,-0.000796725,-0.000902781,3.95446e-06,-0.000336151,0.000353778,-0.000633996,0.00042981,-0.000669607,0.000518878,0.000360738,0.000664941,-0.000721283,-0.000605062,-0.00032465,0.000689624,0.000436245,9.65896e-05,0.00056879,-0.000223577,9.00271e-05,-9.69109e-05,-0.00039882,-0.000338059,8.34939e-05,-0.000701523,0.000223427,0.000439056,-0.000404984,-5.65042e-05,-0.000576522,0.000505451,-3.69467e-05,0.000740225,0.000309355,0.000307727,0.000697491,-0.000432425,0.000262044,-0.000192433,-0.000650993,0.000518769,0.00054012,7.00604e-05,0.000532837,-0.00044054,0.000312389,0.000469848,0.00057328,-0.000351369,0.000554634,7.80291e-05,-0.000693393,-0.000754164,0.000731365,-0.000177021,0.000255434,3.69557e-05,-4.75154e-05,0.000512917,0.000695181,0.000537772,0.000325953,-0.000392358,-0.000546541,-0.000403655,0.000264559,0.000737916,-0.000457847,0.000613457,-6.5157e-05,0.000173292,-0.000769043,0.000687238,2.6835e-05,0.00018846,0.000278481,0.000676316,-0.000758236,3.0246e-05,-0.0002861,0.000452117,0.000447797,0.000556898,-8.47763e-05,0.000448192,3.56631e-05,-0.000213593,-0.000232322,0.000583463,-0.000406702,-0.00027841,0.000643314,-0.000435853,-1.37807e-05,0.00062372,-0.000663513,-0.000471705,-0.000591247,-3.73431e-05,-0.00032962,0.000255308,-0.000563066,-0.000358372,0.000576485,-0.000864927,0.000470387,0.000294041,0.00013848,-8.6464e-05,0.000162894,-0.000394722,-0.000650674,-0.000699012,0.000432394,-0.000233685,9.44393e-05,-0.000402264,-0.000332838,-0.000537417,0.000334363,0.000208352,0.00041894,0.000646358,0.000212771,0.000233604,-0.000675291,-0.000246868,-3.62547e-05,0.000441689,0.00029076,0.000299376,-0.000672984,-0.000422856,-0.000696748,0.000116311,0.000631192,-0.000151935,-0.000749866,-0.000638661,-0.00060705,9.69882e-05,0.000370559,-0.000579962,-0.000502611,-0.000708035,0.00052617,0.000153563,-0.000556292,-0.00046026,-0.000391679,-0.000639521,0.000299769,0.000556701,-0.000744326,0.000708554,7.35444e-05,-8.91423e-05,0.00063691,-0.000746933,0.000357795,0.000606524,-0.000508756,-0.000273449,-0.000143709,0.000635941,0.000543495,-0.00028484,0.000618376,
-0.000645619,0.000541817,5.53739e-05,0.000506341,0.000641055,-0.000414645,0.000265286,0.000369761,-0.000684016,-0.000354901,0.000279224,4.87612e-05,-0.000351792,0.000164441,0.000422258,0.000409497,0.000453743,-0.000308778,0.000403176,-0.000513254,-0.000599649,-0.000452873,0.000311022,-0.000340906,-0.000359395,-0.000728417,-0.000528066,-3.70139e-05,-0.000139806,-4.69924e-05,0.0006087,-0.000555265,0.000239545,0.000522404,3.92622e-05,0.000401427,-4.07422e-05,-5.42112e-05,-0.000232348,-5.99339e-05,0.000461863,6.447e-06,-0.000322534,-0.000149617,-0.000573816,0.000400682,-0.000335522,-0.00016142,2.21784e-05,0.000394994,3.82695e-05,-3.01867e-07,-0.000620215,-0.000269696,0.000392488,-9.20733e-05,0.000625212,0.000460245,-0.000433247,-0.000286933,-0.000755792,1.18563e-05,0.000222205,0.000484992,0.000733841,0.000416343,0.000167788,-0.000485104,-0.000310143,-0.000197853,-0.00048071,-0.000203835,0.000514896,0.0004967,-0.000319805,-0.000434156,-8.10223e-05,0.000393453,-7.11331e-05,-6.16448e-05,-0.000393746,8.72389e-05,-0.000220936,-0.000688246,-0.000377355,0.000659778,0.000200412,-0.000571137,0.000427404,-0.000329955,6.21342e-05,0.000416072,-0.00079757,-0.000348338,-0.000183688,-0.000219665,6.68939e-05,0.000254753,0.000383028,0.000481517,7.93635e-05,-0.00010054,0.000544937,-0.000705457,0.000296434,2.0602e-05,-0.000742695,-0.000306998,-0.000427557,0.000612707,-0.000567127,5.89044e-05,-0.000771803,-0.000265081,0.000332935,-0.000359305,-0.000660632,0.000387963,-3.38947e-05,-0.000531702,0.000345356,0.000683848,0.000410162,0.000374237,0.00017992,-0.000420795,0.000529471,0.000280286,0.000336888,0.000659788,-0.000535733,0.00050268,0.000110792,-0.000348177,-0.000368415,0.000167356,0.0001624,-0.000761396,-0.000541704,0.000267568,0.000181697,0.000584693,0.000494831,-9.74268e-06,-0.000322815,0.000168092,0.000584022,-0.000486939,-0.000477063,-0.000774559,-0.000136956,-0.00055031,-0.00032409,-6.24692e-05,-0.000385517,-0.00036791,-0.000505213,0.000592358,-0.000310791,-0.000644789,-0.000531112,0.000557458,-0.000281701,0.000528391,0.000385787,-0.000542413,-3.90638e-05,0.000255779,-5.48916e-05,-0.000707246,0.000296,-0.000603438,0.000508077,-0.000414655,-0.000538079,0.000664691,0.000645512,0.000265599,5.10393e-05,0.000406475,-0.000571333,0.000209674,-0.000235361,-0.000470209,-0.000538989,-0.000754232,0.00058069,9.85015e-05,0.000322551,-0.000671837,0.000389923,0.00032525,-0.000158284,-0.000653308,-2.14155e-05,-0.00023165,0.000658943,0.000539791,-0.000445571,-0.000443543,0.000466459,0.000416435,0.000587705,0.000727136,-0.000155368,0.000566133,-0.000695495,-0.000291375,-0.000114867,7.70746e-05,-0.000537977,7.31933e-05,7.39081e-05,-0.000607974,4.11731e-05,-0.000346494,-0.000462049,0.000151154,-0.000582472,-8.0113e-05,0.000349762,-0.000372584,-0.000325763,-0.000678453,0.000348489,0.000731437,-4.93089e-05,-0.000450028,0.000318632,0.000540626,-0.000267976,-9.86362e-05,0.000521941,0.000763591,-0.000659805,-0.000640709,-0.000250263,-0.000269605,0.000341744,0.000658407,-0.000259315,-0.000620255,0.000301846,0.000676667,-9.83808e-05,0.000214987,0.000687669,0.000439013,0.000386392,-0.000272908,-0.000267177,0.00063291,-0.000698383,0.000267,5.11914e-05,-0.000152825,0.000418245,-2.96258e-06,0.000720712,-0.000332821,9.43449e-05,-0.000498634,0.000194642,0.000549946,-0.000296314,-0.000651288,0.000464041,0.000594268,0.000292554,5.45582e-05,-0.000336146,0.000272959,-0.000697249,-0.000274575,2.07536e-05,0.000573533,0.000425679,-0.000591538,0.000254167,-4.93995e-05,-0.000468323,0.000376885,0.000698666,-0.000128678,3.6412e-05,0.000596925,0.000287319,-3.70144e-05,0.000610797,0.000286307,0.000564561,-0.000256069,-0.000535486,-0.000483396,-0.000630485,0.000208027,-5.92974e-05,0.000273918,-0.000520164,0.000642469,0.000513328,-0.000764559,-0.000134479,-0.000119111,0.000732839,0.000531918,2.52491e-05,0.000645848,0.000322135,0.000534285,0.000353012,-0.000293064,0.00028741,-3.97793e-05,0.000412136,-0.000735187,-0.000703551,0.000299426,3.77397e-05,6.27351e-05,0.000206561,-0.000370844,-0.000530824,0.000361325,0.000155486,-0.000708011,-0.000418692,0.000473491,-1.63903e-05,0.000688093,-0.000704296,-0.000313347,0.00064397,0.000120493,0.000640204,-0.000340406,-0.000302759,-0.000483927,0.000568802,0.00052167,-0.000476098,-0.000114519,0.000187541,0.000474524,-0.00044035,0.000323859,-0.000458075,0.000450336,-0.000541809,0.000454113,0.000582608,-0.000160822,-2.05375e-05,7.17405e-05,-0.000476474,0.000459328,0.000422414,0.000327157,-0.000366879,0.00024826,-0.000788353,0.000505011,3.92498e-05,0.000678105,-0.000705093,7.04079e-05,-0.000372612,-4.02163e-05,0.000186093,-0.000409022,-0.000297616,-0.000656246,-4.99887e-05,0.000194006,0.000547369,0.000513031,2.22997e-06,0.000467589,-0.000709466,-0.000329509,-0.000618369,0.000180969,-0.000431845,-0.000287723,0.000411572,7.63226e-05,-0.000780249,-0.000452152,-0.000748262,5.13466e-05,-0.000445927,-0.000561052,0.000530948,-0.000337102,0.000351312,0.000186217,4.28501e-05,0.000576403,-0.000137454,-0.000763292,0.000173357,-0.000156498,0.000338095,-0.000642327,-0.000252492,0.000418108,-0.000747823,-0.000234242,0.000719388,0.000508852,-1.20302e-05,-6.17353e-05,0.000472532,0.00040172,0.000272419,0.000115158,-0.000666751,-0.000688116,-0.000652163,-7.32826e-05,0.000276413,1.13914e-05,-0.000507344,-0.000487107,0.000570383,-0.000462752,0.000713656,0.000471406,0.000387595,0.000378519,7.35914e-05,-0.000410581,-0.000565837,0.000361459,0.000535989,0.000128763,-0.000727838,-0.000698032,-0.000277125,0.000604603,-1.13832e-05,0.000212173,0.000669925,-0.000702302,-0.000652425,-0.00013907,-0.000198919,0.000734262,-0.000204571,-0.00076466,0.000524925,0.000108845,-0.000211988,-0.000122073,-0.000666957,-0.000380545,0.000601547,-0.00038842,0.000174116,-0.000412689,-0.000801384,0.000256211,-0.000593379,-6.14376e-05,2.85171e-05,-0.000291358,-0.000585356,-0.000442631,-9.05468e-05,-0.000510842,0.000751366,-0.000740475,0.000264074,0.000177501,-0.000416291,-0.00076027,-0.000238229,-0.00048582,-0.000261769,0.000407747,-0.000695239,-0.000223942,-8.17384e-05,0.000502665,-3.0545e-05,0.00015892,0.000142975,0.000583036,0.000163614,-8.56858e-05,3.9015e-05,-4.97277e-05,0.000592497,-0.000247543,-4.50622e-05,-3.82187e-06,0.000429491,4.74369e-05,0.000287515,0.000471422,-0.000175303,0.000174448,0.00043439,-0.000143646,-0.000147465,0.000576533,-0.000144883,-8.40976e-05,-0.0001174,-0.000228011,-1.82488e-05,-0.000718649,-0.000169475,-0.000102767,-0.000466622,0.000727557,0.000277644,-0.000675554,-0.000547837,-0.000770442,0.000279385,0.000253324,-0.000624201,5.18671e-06,-0.000480693,0.000641257,-8.538e-05,4.53128e-05,0.000259674,0.000748881,-0.000356728,-0.000112374,-0.000186906,0.000108612,-0.000666873,0.000361195,-7.78286e-05,-0.000378098,4.35076e-05,-0.000346427,0.000625842,-0.00013586,0.000144794,-0.000537757,0.000288875,-0.000216256,3.3901e-06,-8.8688e-05,0.000675465,-0.000596838,-0.000217891,0.000617079,-0.000721503,-0.000680466,-6.28846e-05,-0.000211848,-0.000468631,7.07744e-05,1.28104e-05,0.00021474,0.000616069,-0.000358048,-0.000188404,0.000695953,2.80199e-06,0.000549951,-0.00029974,-0.000133147,-0.000157797,0.000615042,0.000551788,-0.000338759,-0.000602606,0.000273371,8.28261e-05,-0.000304451,-0.000322716,-0.000175576,0.000517931,-0.000410433,4.36558e-05,-0.000342455,-0.000483061,-0.00073905,0.000459242,0.000212997,-0.000155736,0.000573569,0.000586943,0.000152995,-0.00044989,-0.000761391,-0.000744756,0.000269834,-0.000378566,-0.0005458,0.000411777,2.96497e-05,-0.000478942,-3.00946e-05,-0.000486869,-0.000134674,0.000714244,-2.01155e-05,0.000161616,-0.000329506,-0.000535165,0.000143173,-0.00012453,-0.000355735,-0.000357114,0.000266846,0.000353183,0.000188012,0.000101226,0.000428926,0.00051345,-0.000340562,0.000349034,0.000450109,0.000421607,0.000233288,0.000346974,-0.000627517,-0.000752207,0.000630248,-0.000440652,-0.000343254,3.8173e-05,-0.000366974,-0.000504614,0.000206191,0.000484366,-0.000148129,0.000461911,-0.000676071,-0.000603056,0.000658165,0.000240773,-0.00034597,0.00025383,0.000673033,-0.000142498,0.000569389,-1.48732e-05,0.000635948,0.000281665,0.000324385,-0.000537431,-0.000400636,2.22075e-05,-0.000193435,0.000729212,0.000728619,0.000691737,-0.000683303,-5.75047e-05,2.40453e-05,0.000238063,0.000722654,0.000426266,-0.000177423,0.000251537,-0.000719115,0.000539207,-0.000176669,0.000202409,5.00361e-05,-0.000581323,0.000383999,-0.000188395,9.39954e-05,0.000609662,0.000676695,-0.000132889,-0.000450828,-9.9552e-05,0.000731013,-0.000587005,-3.0143e-05,0.000120443,0.000285066,-3.61875e-05,-0.000506281,-1.91874e-05,1.13427e-05,-0.000461,0.000423483,-0.000445677,0.000412397,0.000660417,0.000534068,0.000229226,-0.000156626,-0.000424609,0.000574386,0.000113991,-0.000202538,-0.000698039,-0.000450144,0.000406132,-0.000752947,-0.00025449,0.000377456,0.00075126,-0.000654769,0.000569779,0.000731638,0.000152768,0.000161402,-0.000331317,-0.000658342,0.000597867,0.000577695,0.000577128,-0.000759473,8.76719e-05,-0.000608835,-0.000368714,-0.000503834,0.000299068,0.00048879,-0.000677301,0.000485946,0.000569552,0.00017104,0.000599636,0.000170267,0.000384848,0.000337627,0.000686506,0.000236182,0.000666582,-0.000342762,8.22081e-05,-0.000695858,0.000512007,-0.00058146,0.000738235,-0.000239155,-0.000651295,-0.000178281,-0.000667371,0.000354275,0.000662373,-9.66741e-05,0.00070225,-0.000260852,-0.000413289,-0.000317288,0.000164501,-0.000109912,0.000474037,-0.000450754,0.000156697,0.000193107,0.000189895,9.97409e-05,0.000514277,0.000192114,-0.000457582,0.000202573,-0.000464665,0.00034564,0.000383351,0.00056609,0.000208207,-0.000118364,0.000226856,0.000460231,0.000247086,0.00073898,-3.31997e-05,-3.63916e-05,0.000514071,-0.000613251,-0.000486383,0.00012769,0.000442818,0.000596615,-0.000723771,0.000450132,-7.56422e-05,-0.000401328,-0.000516614,-1.12619e-06,-0.000498937,8.43243e-05,0.000446977,-0.000461946,4.40184e-05,0.000394633,0.000611367,-0.000653498,-0.000400517,0.000719277,-0.00037198,0.000338246,1.44843e-05,0.000351358,-0.000593325,0.000119847,0.000117873,-0.000741876,0.000757492,-0.00014381,0.000756573,-0.000278901,0.000531277,-0.000451903,0.000489243,-0.000390076,0.000722778,-0.000614951,-0.000449321,0.000508556,-4.90587e-05,-0.000605549,-0.00030579,-6.37083e-05,0.000286946,0.000653659,0.000391736,-0.000545662,0.000591092,0.000706201,0.000248897,0.000335291,0.000751524,0.000711132,-2.79776e-06,0.000418947,-0.000590226,-7.20482e-05,-0.000590631,0.00054237,0.000152824,0.000150223,-0.000245314,-0.000474063,-0.000301,-7.68865e-05,0.000559699,-0.000396128,-0.000501146,-0.00021416,0.000168755,-0.000627801,1.70166e-05,-0.000273747,0.000662565,-0.000403901,0.000507252,-0.000666638,-0.000343633,-0.000437886,0.000176055,-0.000161061,0.000692008,0.000290042,
0.000450234,-8.46553e-05,-0.000456485,0.000531532,0.000644838,-0.000279214,0.000241115,-9.28365e-05,2.47836e-05,-0.000218283,0.00018817,0.000311429,0.0001388,-0.000144135,-0.000415398,0.000425463,0.000287148,-0.000127919,0.00021406,-0.000388037,0.000490449,0.000439855,0.00064148,-7.29907e-05,0.0003235,0.000536588,-9.65249e-05,-0.000693224,-0.000315018,-0.000769745,-0.000150972,-0.00036914,-4.06253e-05,0.000656325,0.000683328,5.30226e-06,0.000440359,0.000591521,0.00030323,-0.000203742,-0.000778776,3.30772e-06,0.000508023,1.74455e-05,0.000697073,0.000101216,-4.42848e-05,-0.000747398,-0.000609171,-0.000178008,-0.000471543,-0.000193624,-0.000729448,-0.000345476,-0.000813414,8.37618e-05,0.000640439,-0.00069629,-0.000475962,-0.000573114,-0.000478308,-0.000793266,-0.000616155,0.00024883,0.000611802,0.000104697,0.000686795,-0.000103849,-0.000422669,0.000370496,0.000611133,0.000671033,-0.000229637,-0.000191383,-0.000344301,-0.000409665,-0.000654807,-0.00069077,-0.000307382,-0.000727217,0.000477642,-0.000481012,7.26272e-05,-0.000490318,0.000575634,0.000571431,0.00024558,-0.000329721,0.000571354,2.81672e-05,0.000590039,0.000231205,0.000449356,0.000223158,0.000317491,-0.000421745,0.000278193,0.000210569,0.000217546,0.000572098,-0.000355237,-0.000777426,-0.000374042,4.75797e-05,0.000630771,-0.000346612,0.00036307,-0.000724079,0.000583135,-0.000395146,0.000405304,0.000320991,0.000186731,8.28985e-05,-0.000730879,0.000483315,0.000621892,-0.000369123,-0.000178303,-9.68375e-05,0.000308443,0.000332744,0.000314698,0.00024991,0.000302313,-0.000194644,-0.000283233,-0.000442113,0.000136713,0.000229749,0.000258725,-0.000309051,-0.000451626,0.000761231,0.000335754,-3.90623e-05,3.17265e-05,0.000721229,-7.93677e-05,-0.000168512,0.000561857,0.000600185,-0.000328946,-0.000441241,-0.00057196,-0.000718529,0.000234874,-0.000608763,0.000287368,0.000663666,4.61067e-05,-0.000766096,0.000703403,-0.000608848,0.000274907,-0.000533468,0.000224494,0.000197544,-0.000700202,-0.000247845,0.00034355,0.000112795,2.81045e-05,8.23889e-05,-0.000398973,0.000348936,-0.000369301,-0.000674566,0.000634766,0.000671135,0.000440201,-0.000441318,-0.000537342,-0.000561439,-0.000487217,0.000251086,-9.19507e-06,-0.000111916,-0.00070375,0.00056231,6.82488e-05,0.000302757,-0.000748815,0.000143287,0.000106439,-0.000479727,-0.000517142,-0.000296038,6.12351e-05,0.000593379,0.000273135,-0.000720498,0.000633837,-0.000254045,-0.000506855,-0.000306763,0.000278318,0.000262776,0.000336563,0.000309847,-0.000578504,0.00048005,-0.000599192,-0.000659296,-0.000274746,-0.000373824,0.000228485,-3.94624e-05,-0.000329641,0.000223099,0.000395623,-0.000416275,-4.61197e-07,-0.000619812,-0.000381333,-1.60334e-05,0.000411851,4.84144e-05,-0.00066887,-0.000730323,-0.000383969,-0.000534541,0.000558642,-0.000368796,-0.000601897,-0.000174315,-0.000786839,-0.000398155,-4.99148e-05,0.000176186,0.000131763,0.000488338,1.89073e-05,-0.000184025,-0.000205263,-7.06081e-05,-0.000721973,0.000271828,-0.000373115,0.000660192,0.000547996,-0.00061803,-0.000365356,0.000286646,-0.000585839,0.000437864,0.00058826,0.000670796,-0.000305793,0.00021043,0.000132481,-0.000787213,0.000603849,-2.66886e-05,-0.000203113,3.43478e-06,0.000291715,0.00067952,0.00035326,-0.000707592,0.000631796,-0.000517908,-0.000300142,0.00036396,-0.000602216,0.000545496,0.000229592,6.7088e-05,0.000665981,-0.000742236,-0.000875691,0.000578746,-5.35858e-05,-0.000249234,-0.000672701,-0.000399878,-0.000764135,0.00059397,-3.58872e-05,-8.29379e-05,-0.000868087,0.000133117,-0.000529372,0.000478391,-3.70721e-05,-5.56784e-05,-7.27297e-05,-0.000814541,-0.000299487,0.000397977,0.000390086,0.00043232,-0.000513483,0.000536202,0.000197909,-2.11846e-05,-0.000702294,2.24623e-06,-0.000254577,0.000155414,-0.000333358,-0.000290143,0.000672688,0.000246449,0.000678988,-0.00062935,-0.000637921,-0.000361574,-0.000150895,-0.000617046,-0.0003057,0.000621558,-0.000773297,-1.53334e-05,0.000226981,-0.000614388,0.000267943,0.000700319,0.000522032,0.000148774,-0.000429171,-0.000202071,5.63861e-05,0.000587481,0.000433785,-0.000434088,-0.000384549,0.000202712,0.000374094,-0.000453667,0.000699835,0.000178157,8.12151e-06,0.000123531,0.000185206,0.000253771,0.000234686,0.000268149,0.000215859,0.000657794,0.000254184,-6.40987e-05,-0.000704047,-0.000674554,7.60427e-05,0.000131432,-0.000126027,0.000399509,-0.000273789,-0.000434114,0.000476316,0.000251211,0.000150872,-0.000253355,-0.000509489,-0.000378475,-0.000444919,0.000126384,0.000200184,3.00624e-06,-0.000655322,-0.000261656,-0.00044055,-7.14735e-05,-0.00054027,0.000514534,0.000608655,-0.000757916,2.2451e-06,-0.000616636,-0.000322772,-6.95073e-05,0.000327012,0.000359619,0.000652279,-0.000694012,-0.000180815,0.000509537,-0.000163059,-0.000626464,0.00011033,-0.000529804,-0.000397028,-7.22914e-05,-0.000644432,0.000296561,-0.000537243,-6.41302e-06,-0.000127922,0.000406831,0.000238566,-0.000168095,-0.000401433,7.13445e-05,-0.000302891,0.000294189,-0.000567539,-0.000683417,0.000193052,-0.000322407,-6.87038e-05,-0.000725291,0.000707787,-0.000379607,4.4583e-05,-0.000563072,0.000301042,0.00076449,0.000153186,0.000478837,-0.000280204,0.000363515,0.000231259,0.000441199,0.000187,1.79265e-05,-0.000160701,0.000640124,0.000561359,-0.00075308,-0.000639385,0.000547625,0.000313327,-0.000510492,0.000718436,-0.000213693,0.00030754,-0.000579535,-0.000302992,0.000137447,-0.000656235,0.00067633,0.000253208,0.000505353,0.000238836,-0.000450696,-0.000126834,0.00046926,-0.000143191,0.000587148,0.000587318,0.000594041,9.02141e-05,-0.000579262,0.000397562,-0.000258946,-6.51586e-05,0.00065931,0.000573451,-0.000105212,0.00058924,-0.000285924,0.000168462,0.000407442,-0.00017451,-0.000740543,0.000631385,-0.000402877,0.000641398,-0.000658986,-0.000729666,-0.000341759,6.9056e-05,0.00047085,0.000335719,-0.000514445,0.000610757,-0.00066151,-0.000505354,0.000425208,0.000166192,-0.000539953,0.000428983,-0.000150182,-0.000198053,0.000179864,-0.000496517,-0.000379036,0.000522199,0.000414234,-3.78172e-05,-0.000183042,-0.000638604,-0.000153668,0.00063225,0.000125916,-0.000161484,0.000559722,-1.49799e-05,0.00015466,0.000126419,-0.000766889,-0.000225283,0.000515355,-0.000794967,0.000511188,0.000449373,-0.000577546,-0.000423908,0.000425485,0.000554171,0.000536311,-5.64487e-05,-0.000840436,-0.000309021,6.00177e-05,0.000479008,1.95026e-05,-0.000131296,-0.000459987,0.000482529,-0.000110589,-0.000142536,0.000247101,-0.000535007,-0.000374985,-0.000522018,0.000231878,0.000240506,-0.000742468,-2.92121e-05,-0.000475633,0.000165745,0.000129091,-0.000665881,0.000629378,-0.000373997,-0.000546084,0.00016281,0.000295426,0.000530918,-3.23361e-05,9.33146e-06,0.000540416,-0.000428556,0.00030706,0.000412941,-0.00077555,0.000372366,-0.00059452,-0.000302135,0.000159299,0.000685795,0.000151008,-0.000356336,-0.000691367,-0.000262674,-0.000174334,0.000336161,-0.000285262,7.13425e-05,-0.000410352,-6.43922e-05,0.000614105,0.000437426,0.000418177,-0.000708031,-0.000722583,-6.38004e-06,-0.000600173,0.000621366,-0.000780332,-0.000373663,-0.000174053,-0.000242607,-0.00073244,-0.000319616,-0.000146074,0.000490523,0.000673902,0.000553661,-0.000144023,-0.000508532,-0.000292225,5.99851e-06,-7.02025e-05,0.000619065,0.000426153,8.97292e-05,-0.00023005,0.00056834,-1.56751e-05,-0.000528842,-7.45125e-05,-6.5458e-05,0.000105778,0.000246418,0.000102194,-0.000180206,-0.000659253,2.16594e-05,0.000104593,-0.000480399,-0.000513575,-0.000473855,0.000182865,-0.000726097,0.000247623,-0.000680665,-0.000227892,-8.20418e-05,-0.000432656,0.000740251,4.0787e-05,0.000179983,-0.000700876,-0.000356198,-2.35626e-05,-0.000362044,0.000225209,-0.000597552,-0.000623199,0.000160346,-0.000226418,-0.000246036,-0.000723941,6.43388e-05,-0.000458396,-0.00036595,0.000620668,-0.000159358,0.000507697,0.000269999,-0.000324759,0.000356805,-0.000450035,-0.000325322,-0.000120392,-0.000750331,-0.000696513,9.97084e-05,0.000298762,-0.00012603,-0.000295955,0.000700249,-0.000657086,0.000569514,0.000538534,-0.000610724,-0.000309191,-0.000356562,-0.000108535,0.000453423,-5.45149e-05,0.000687247,-0.000388485,2.96766e-05,0.000451154,-0.000553146,0.000709125,-8.98543e-05,-6.27863e-06,-0.000609425,0.000622754,-0.000744043,-0.00043289,-0.000231638,-0.000533466,-4.2564e-05,2.36036e-05,-0.000491983,-0.000474534,-0.00067887,-0.000356652,-0.000498974,-0.000337261,7.70286e-05,0.000629539,-0.00057166,0.000648498,-2.63198e-05,0.000454377,0.00013507,-0.00040482,0.000160998,-0.000754391,-0.000432272,-0.000648592,0.00065336,0.000675712,0.00046211,-0.000659185,0.000610657,-0.000733156,-0.000400782,-0.000672137,-0.000371165,-0.000631176,-0.000538163,0.000448095,-0.00017267,-0.000465709,0.000577905,-9.24571e-05,-0.000828544,-0.000490632,-0.000374419,-0.000645489,0.00040274,4.89221e-05,-0.000714468,0.000118527,-0.000262797,0.000406181,-0.000508962,6.43905e-05,-0.000757287,-0.000280629,0.00012084,0.000734285,0.000319603,0.000634002,1.14863e-05,-0.000687394,0.000211432,0.00026593,0.00022329,0.000355222,-0.000352533,0.000365446,-0.000576204,0.000615121,-0.00021583,-0.000793696,0.000460874,-0.000696209,-0.000110716,0.000635968,0.000725732,-0.000721689,0.000418143,0.000661196,-8.15511e-05,-9.51118e-05,0.000624371,-0.000564137,0.00011702,0.000708675,-0.000475585,0.000549033,0.0005414,-0.000425852,6.22543e-05,-0.000169398,-0.000227763,0.000714752,-0.000287189,-8.28109e-05,0.000629634,0.000331205,-0.000234402,-0.00071875,-0.000283492,0.000366803,0.000659728,-0.000376771,0.000669693,-0.000306173,-0.000307545,-0.000562705,0.000693283,0.000172658,-6.27098e-05,-0.000614616,0.000502327,-0.000698122,-0.000490788,-0.000474114,-0.000187082,-0.000275579,-0.00010981,-0.000474398,-0.000666489,0.000274838,-0.000768348,3.49708e-05,0.000282527,0.00035106,0.000605062,-0.000560293,8.298e-05,0.000733575,-0.000676545,-0.000332215,-0.000224001,9.71306e-05,0.000434803,0.000100641,6.03149e-05,0.00049707,0.000281061,-0.000120492,0.00050597,0.000357992,0.000209623,-1.72755e-05,6.95527e-05,0.000195995,-0.000633028,0.000440672,0.00060126,-0.000707999,-0.0002841,-0.000125119,0.000269454,-0.000130583,-0.000415644,0.000114151,0.000262304,-0.000177756,0.000591758,8.68433e-05,-0.000507171,0.00026804,-0.00070808,-0.000161158,-0.000513945,-0.000702176,0.000225006,0.000470492,5.34426e-06,-0.000296516,-0.000685755,-0.000591125,-0.000706238,-0.00056635,6.2756e-05,-0.000351625,-0.000707267,0.00012898,0.000203194,0.000266153,0.000512462,0.000146752,-0.000319718,-0.00067757,-0.000366592,-0.000266907,0.000440285,0.000170368,0.000434452,-0.000505164,0.000537959,-0.000212815,-8.0899e-05,0.000646687,0.000713334,-0.000661322,0.000372148,0.000708641,0.000539325,0.000496628,0.000403703,-0.000166043,-0.000470497,-0.000312099,0.000716217,0.00014637,-0.000555023,-1.51424e-05,
0.00126482,0.00221588,0.00182211,-0.00490782,-0.0113577,0.00390856,-0.0559039,-0.000610248,0.0163944,0.00243692,0.00602066,0.00719141,-0.000113131,-0.00549453,0.000282653,-0.0124894,-0.0102844,0.00195859,-0.0054279,0.000136252,-0.00238369,-0.0120915,0.00852468,0.0020521,-0.00521294,-0.00239445,0.00144439,-7.7083e-05,0.00463166,0.00331232,0.0102762,0.00105352,-0.00123032,0.00248539,0.00419029,0.00181758,-0.00444055,0.00648028,0.00104455,-0.00426514,0.00074323,0.00073788,-0.00810531,-0.000429914,0.0148587,0.0182068,0.000379532,-0.00745324,0.0214702,0.00354222,-0.00293098,0.0311573,-0.0169748,-0.0160721,0.00651955,0.0111227,-0.00290949,-0.00700428,0.00969457,0.00734668,-0.0194289,-0.00563418,-0.000696942,0.000302955,0.000140012,-0.00043577,0.00055749,4.37692e-05,-0.00053824,-0.00018526,-0.000524113,0.000211301,0.0237683,-0.00139295,-0.00399956,-0.00888403,-0.00315649,0.00216594,-0.0295828,-0.00640202,0.00152274,-0.00864897,-0.000244958,-0.0011791,-0.0139407,0.0131866,-0.00245008,-0.0131482,0.00357645,-0.00145481,0.000346195,-0.000210373,-0.000754134,-0.000658325,-0.000460966,0.000651609,6.48205e-05,0.000436694,-5.95915e-05,-0.0261868,-0.00687803,-0.000377155,0.00533168,-0.0065985,0.0024231,0.0124289,-0.0151582,-0.00213097,-0.00487097,0.000260667,0.00259788,-0.000693373,-0.00217537,0.00750786,-0.0131473,-0.00897997,-0.00199105,0.019916,0.00329005,0.00048692,0.0121691,0.00879202,0.00502238,0.00694672,-0.00828712,-0.00957663,-0.00977914,0.000745921,0.00136654,0.00851237,-0.000508859,-0.00069812,0.000337166,-0.00128491,0.00537547,-0.000591553,-0.00019789,0.000279242,-0.000199369,-0.000327212,0.000508114,-0.000381681,-0.000400202,-0.000322037,-0.0062414,0.00146275,0.00303708,-0.0139452,0.0175047,-2.96682e-05,-0.0149835,0.00306422,-0.00271062,0.0119988,0.00678542,0.00811898,-0.00779703,-0.00118868,0.00208643,-0.0491924,-0.00786931,0.00151304,-0.00067211,0.000227717,0.000502156,-0.000252655,-0.000599441,-0.000526223,0.000413695,-2.88737e-05,-0.000683871,0.000587008,-2.54785e-05,1.19482e-05,-0.000247022,-0.000211551,-0.000192171,0.000129984,0.000531646,0.000435878,0.00293616,0.00528503,0.000745517,0.00379893,0.00151796,-0.00152696,-0.0116864,-0.00112922,-0.00188185,0.0038298,0.00502449,0.00126186,0.00188326,0.00732842,-0.00262853,0.00222649,3.53681e-05,-0.000198371,-0.000785849,0.00837888,-0.00148847,-0.00265112,0.00169726,-0.00469732,0.00649089,-0.00807272,0.00347501,0.000329477,0.000223877,0.000295727,0.000228177,-0.000455674,0.000721947,-0.000531663,-0.000691065,-8.4179e-05,0.00735141,0.00691719,0.0106559,0.00693722,0.0109687,0.012516,-0.00749037,0.016696,0.0141638,-0.00155859,0.00251724,0.00136259,-0.00692226,0.00112352,0.0029518,-0.00874627,0.00551812,0.00751861,-0.000705171,0.000644251,-7.67964e-05,-0.000271659,0.000692826,0.000158512,-0.000361601,-7.99367e-05,-0.000590946,-0.0194058,-0.0055607,-0.00283561,-0.0171356,-0.00387562,-0.00598225,-0.0417253,-0.000921398,0.00155449,0.00431563,0.00469619,0.00473402,0.00189547,0.000431839,0.00578649,0.00455599,-0.00126074,0.00170872,-0.0222107,-0.00349956,0.00262475,0.00297424,-0.00320059,0.000104719,-0.00815062,-0.0199808,-0.00485907,0.0082726,0.0136791,0.0117893,-0.0130437,-0.00379374,0.00547523,0.0366247,-0.0164685,0.00245798,-0.00986932,-0.0121315,0.00653754,0.0122403,-0.023297,0.00503098,-0.00936715,-0.00637236,0.00836424,-0.00578652,-0.00330013,-0.00282423,-0.0163759,-0.00382064,0.00661244,-0.00194831,-0.00283602,-0.0019284,0.00381471,-0.00139631,-0.000387359,0.00105666,-0.000352854,-0.0061743,0.00305483,0.00182845,0.000398554,-0.0154467,0.00673473,-0.0023979,-0.0128549,-0.000211544,0.00213637,-0.0102629,-0.00915516,0.00293396,-0.00152259,0.000272066,-0.000331537,-0.00160096,0.000961391,-0.000272362,-0.000134108,0.000861118,0.000131462,0.00137445,0.000332896,0.000635364,-0.00429822,-0.000145593,-0.00197652,-0.0101253,-0.000638507,0.00173036,0.000339529,-0.000685081,0.000435384,0.000658769,0.000451007,-4.29368e-05,0.00023694,-0.000176248,0.000599894,0.000254963,-0.000129924,0.00208586,-0.003216,-0.00621916,-0.00119222,-0.00631872,0.00216683,0.0041161,0.00121601,0.00470012,0.00319724,-0.00393989,-0.000713635,-0.00466014,-0.000719222,0.0025397,-0.00127719,-0.0118552,0.00927478,0.00691145,-0.00457711,0.0107766,0.00660692,0.00546579,0.000647372,0.00999401,0.00476737,0.00938774,0.00596507,0.00857752,0.00918049,-0.00213596,0.0300886,0.000755641,-0.00118063,-0.0268176,-0.00434381,-0.000416796,-0.0249603,-0.0074895,-0.00194392,-0.0159086,0.00370302,0.00896699,0.0112156,-0.00502861,-0.0048782,-0.00773857,0.00827057,0.00145948,-0.0287083,-0.00284007,0.00953692,-0.00115257,-0.00658096,0.000157171,-0.00476383,-0.0109169,0.00180242,-0.00141642,-0.00945467,-0.00128644,0.0045431,-0.00265603,0.000539168,-0.00292803,0.0022096,0.000860234,-0.0149954,-0.000655591,-0.00382702,0.00462787,0.00211407,-0.000522659,-0.00041674,0.00302233,-0.00266776,-0.00499615,0.00332864,-0.000755864,0.00487711,-0.0011849,0.0026668,0.00492622,0.00348631,-0.00564152,0.0108943,0.00318701,-0.00479519,-0.000195668,-0.000106721,5.99298e-05,-9.1175e-05,0.000574159,0.000632592,-0.000353538,0.000222094,-0.00015616,0.00690677,-0.000205803,0.00113303,0.000150272,0.00117841,-0.000456706,-0.00392943,0.00735591,0.00254306,0.00918768,0.0108791,-0.00162282,-0.0043067,0.00492241,0.00146308,-0.0140531,0.00186739,0.00370455,-0.00400181,0.00483845,0.0111348,0.0200715,0.0022233,0.00596294,0.00531424,-0.0165197,0.00829743,-0.00292802,0.00170053,0.000163625,-0.00800399,0.0186836,0.0078081,-0.0292116,0.00499786,0.0143707,-0.000783051,-0.000479418,0.000614687,-0.000568948,0.000339735,-0.000579778,-0.000188977,0.000434294,0.000680859,0.00487582,0.0087596,0.00643647,-0.0202534,0.00352616,-0.00141634,-0.0457824,-0.00205473,-1.76314e-05,0.0109615,-0.00538965,-0.00648858,0.011136,-0.00250974,0.00336787,-0.00239674,0.0131982,0.0161326,-0.00119339,0.00213769,0.0002053,-0.00237225,0.00212932,0.00175588,-0.00546175,-0.000352926,-0.000940174,-0.00388721,0.000608753,0.00214776,0.00279695,-0.00136697,-0.00174113,-0.00181674,-0.00419513,0.00128647,-0.000677578,0.000401317,-0.00042597,-0.000624346,-0.00030693,0.000629657,0.000602393,0.000374372,-1.54237e-05,-0.0178411,0.00129536,0.00508639,-0.0112521,0.01112,0.0134451,-0.00520942,-0.0247139,0.00186041,0.00137918,0.000307505,0.00100161,0.000550534,0.00161884,0.000440523,0.000145119,0.000457584,0.000116699,-8.09663e-05,0.000265102,-0.000494241,0.001132,0.0001189,0.00139737,-0.000143262,-0.000495959,-0.000299201,-0.000650462,8.41654e-05,-0.000892772,0.00160534,-0.00334889,-0.00129759,0.000104948,-0.000594986,8.92551e-05,0.000106265,-9.2318e-05,-3.00456e-05,0.000231906,0.000169927,-8.09053e-05,0.000470182,0.00152805,-1.18205e-05,0.000694867,-2.07582e-05,-0.00120136,-1.37186e-05,-0.000264124,-0.000109251,0.00036525,-7.63675e-05,5.86153e-05,-0.00043967,-0.000317764,0.00040532,-8.18121e-05,0.000222096,0.000474137,0.000443729,0.000461358,0.000523281,0.000236029,0.000588061,-0.000587033,-0.000146768,0.00035174,-0.000211251,0.000709314,-0.0007393,0.0033611,-0.00014389,-0.000364965,-0.000682564,-0.000221794,0.000529622,0.000457911,0.000216121,-0.000662562,-0.000565842,-0.000795764,-0.00101709,0.00153825,-0.000537476,0.000319436,-0.000113772,-0.000205814,-0.000414756,0.00114036,0.000879686,-0.00155333,-6.67663e-05,0.000490998,-0.000384709,-0.0021373,0.000248972,3.5361e-05,0.00249298,0.000744102,0.00181957,-0.000164839,-0.000524526,-0.00052915,-0.000562332,0.000407838,0.00121453,0.000312017,0.000537262,0.00133894,0.0003243,0.00341577,0.000628237,0.000142395,0.000563266,-0.000226011,-9.59084e-05,-0.000245802,-0.000177252,0.00107713,-0.000372633,-0.00139701,0.000620174,0.00102158,0.000828341,0.000707569,-0.000615204,0.00188751,0.000821722,0.00158905,0.00132283,-8.0892e-05,0.00099549,0.000603067,-3.31935e-05,-0.000354354,-0.000243172,-0.00133263,-0.000172383,-0.000338893,0.000674408,0.000414502,8.79243e-05,-0.00013096,-0.000516847,-0.000335905,0.000436307,0.000292405,-0.000680786,0.000955426,0.00114138,0.000812679,0.00047831,-0.000647425,-0.000397777,-2.19676e-05,0.000692472,0.000335214,0.000945133,-0.00413142,-0.000809498,0.00197801,-9.00197e-05,0.000579429,3.70973e-05,-0.000654188,0.000819563,-0.000834799,0.000200965,0.00135,0.000469779,0.000895821,0.00113985,-0.0003449,0.000759971,-0.000376396,0.000624813,-0.000997719,0.00170121,-0.00292595,0.00137052,0.000539087,-0.00112091,-0.000199902,-0.000799565,-0.00174736,0.000314238,-0.000560353,-0.000784672,-0.00110468,0.000686771,-0.00112815,-0.000308804,0.000160487,0.000459829,-4.31796e-05,0.000746644,-0.000834284,-0.000604686,9.57336e-05,-0.000162992,0.000529723,-0.000486356,-0.000463503,-0.000279338,0.000195962,-0.000347996,0.000338961,0.000660301,-0.00194908,0.000244144,-0.0014938,0.000314952,-0.000372667,0.00202662,-0.00199803,0.000801072,-0.000555856,0.000355599,5.06493e-05,0.000586261,0.000409456,-0.000215873,0.0014692,-0.00034853,0.00107501,-0.00084875,-0.00189524,-0.000565197,-0.00150463,0.000801383,-0.00208812,0.000279564,0.000707218,-0.000608083,-0.000375204,-0.000608419,0.000117822,0.000883319,0.000674278,3.54927e-05,0.00040918,0.000107314,-0.000908517,-0.000534402,-0.00104892,0.000387811,0.000260823,-0.000718007,0.00020511,-0.000163533,0.0006781,0.00014868,-0.00053955,0.00106531,-0.00187945,-0.000423476,-0.000837278,-0.000164631,-0.00297457,-0.000838621,-0.000871197,-0.0011586,-9.875e-05,-0.000398074,0.000132629,-0.000947487,0.00183637,-0.00110607,-0.000865461,-0.000249745,-0.000579699,-0.000160577,-0.00132398,8.7707e-05,-0.00126318,-0.000382228,-0.00199506,0.000429591,-0.00324673,-0.00177153,0.000705685,0.000662284,-0.000679484,-0.000129003,0.000390271,-0.000474612,0.000665752,0.000301567,-0.00104918,0.000696277,-0.00132612,0.00041022,0.00178221,0.00173575,0.000281631,0.000780503,0.000578124,-0.00111792,-0.00120897,-0.000196334,0.00133141,0.000311729,0.00161426,0.000978236,1.46953e-05,-0.000465703,-0.000148096,-0.000340439,-0.00200766,-0.000428667,-0.00165332,-0.000787963,-3.89036e-05,-0.000760339,0.000398098,-6.38612e-05,0.000114879,-0.000244957,-0.000200041,0.000683207,0.00123594,-8.58983e-05,0.000672569,0.00154217,-0.000641335,-7.39468e-05,-0.00108515,-0.000574672,
0.011334,-0.00498504,-0.00816092,-0.00311128,-0.0107743,-0.0163471,0.00603644,0.00727137,-0.0446711,0.00944063,0.0192599,-0.00968461,0.0186434,0.00560096,0.0101127,0.0144856,0.0131535,-0.0039507,-0.00244712,-0.0130646,-0.0123019,0.00171511,0.000604599,-0.0185777,0.0056843,0.010605,0.00847281,-0.00542497,-0.0114664,-0.019388,0.000623994,-0.028518,0.00242465,0.0082202,0.0294606,0.00813649,-0.00268787,-0.00316261,-0.0130138,0.00599079,-0.000506077,-0.01254,0.0100973,-0.0134847,-0.0231635,-0.0181575,-0.000810582,0.0412566,0.00791626,0.0242893,0.0165756,0.00160698,0.026649,0.0257479,-0.00275571,-0.00887124,-0.0105959,-0.000629553,-0.024858,0.00114728,-0.000747579,0.00125557,0.0159898,-0.000672585,-0.000171399,0.000319282,-1.25806e-05,0.00073098,-0.000479118,-0.000415127,-0.000568103,0.000679196,-0.00622791,-0.00673756,-0.00576368,-0.0289194,0.0113442,0.0208709,-0.0117267,0.014693,0.0139935,0.0154884,0.0255496,0.00713199,0.00982139,-0.00841421,0.0119014,0.000561353,-0.00380085,-0.00234401,0.000456032,-0.000703833,-0.000406966,-0.000181285,-0.000210437,0.000703449,-0.000554769,0.00060206,-0.000234903,-0.00249466,0.00342813,-0.017707,-0.00488026,-0.00788221,-0.0122865,0.0119825,-0.0148655,0.00653071,-0.00293834,0.00291946,-0.00484117,-0.00238965,-0.00571166,0.00755534,-0.00588782,-0.00102092,0.00750692,-0.00904267,-0.00683174,0.00351204,-0.00105867,0.0256896,0.0212084,-0.0158097,0.0229818,0.0387627,0.00708057,-0.0051397,-0.010792,-0.00500411,-0.000167039,0.00270179,0.00519331,0.000686442,-0.00404435,-7.56035e-05,-0.000213725,-0.000316867,-0.000558475,0.000235342,0.000660406,-0.000159038,0.000137158,0.000295083,0.0131121,0.0029567,-0.01198,-0.00902238,0.00854298,-0.00247075,0.00185732,0.00759904,0.00811076,-0.00722146,0.00338943,0.000992269,-0.0159211,0.000942383,0.00317301,-0.0258676,-0.00627476,9.20308e-05,0.000518356,0.000686838,0.000223398,0.000435766,-0.000394034,-0.00042483,0.000266931,0.00013861,0.00052296,-3.08137e-05,0.000158642,0.00018142,-0.000443336,-0.000623313,-5.50494e-05,-0.000711354,-0.000597284,0.00018916,0.00320572,0.00528543,-0.00115824,0.00150423,-0.0111931,0.00755201,-0.00682905,-0.000433252,0.00769514,0.0144089,0.0116896,-0.00628668,0.0054657,0.00148343,0.0041977,0.0106918,0.00440867,-0.00218131,-0.000313883,0.002316,0.0143687,0.00199352,-0.00385453,-0.00120507,0.0111757,-0.00168396,0.00184246,0.000150217,-0.000485268,-0.000514979,0.000220054,0.000611501,-0.000444311,3.30012e-05,-0.000620372,-0.000509841,0.0147246,0.0053709,-0.00108967,-0.00171725,0.00522506,0.00232307,0.0199272,0.0123002,-0.00600486,-0.00599938,-0.0021975,-0.0146616,-0.00606224,0.000117875,0.00419759,-0.00973356,-0.00341376,0.0116611,-0.000179656,0.000736145,-0.000651948,0.000436973,-0.000608447,1.34237e-05,-0.000551155,0.000326218,0.000159688,0.0130342,0.000146753,-0.0105064,-0.00456498,0.0039135,-0.00164311,-0.00674038,-0.00115994,0.0105345,-0.0138921,-0.000733677,0.00409048,-0.00633007,0.00161337,0.00112879,0.000355666,-0.00353914,-0.000721615,0.0030206,-0.00327437,0.00882631,0.00852751,0.00223907,0.0131653,-0.00260704,0.0015303,0.0132453,-0.01703,-0.0154263,-0.00767216,-0.00546511,0.0021771,0.0179247,0.00796174,-0.00724884,0.00701115,-0.00168402,-0.00101538,0.0146674,0.0150255,0.000381662,-0.00762655,-0.00800104,-0.0202997,-0.0158931,-0.0105327,-0.00382268,0.0107964,-0.0157071,-0.00615557,0.0207914,-0.0093411,-0.00766051,0.00413503,-0.00557204,-0.000287116,0.00918442,-0.00413534,-0.00208258,-0.00253646,-0.000119492,0.000948875,0.00324124,-0.000636442,-0.00111823,0.0235113,-0.0130464,-0.00381187,0.0267239,-0.0214122,0.0030496,0.0234907,0.00131831,0.00173872,-0.000564252,0.00263682,0.000571057,0.000385151,-0.000288021,-0.0004838,0.00225749,0.00349417,-0.00031466,0.00143284,0.00418449,-0.0122605,-0.00565139,-0.00526034,-0.0154345,0.00338576,6.14348e-05,0.000269059,0.000220218,0.000586608,-0.000345306,-0.000200756,0.000265761,1.16802e-05,-5.55274e-05,0.0084847,-0.00426532,-0.0189621,0.00965548,0.0125332,-0.0132228,-0.000750939,0.0125334,0.0166663,-0.00600641,0.00102987,-0.00708468,-0.0134301,-0.0102272,0.00161087,-0.00153547,0.00473495,0.00115607,0.0241885,-0.000969139,0.0242198,0.0135787,0.00903869,0.00549713,0.0184871,0.0184022,0.00546863,-0.0129895,-0.00127124,-0.00410793,-0.0100771,-0.00459054,-0.00387019,0.00663834,-0.0272015,-0.00247342,0.0218737,-0.00359076,-0.0019586,0.0166663,-0.00623539,0.000806769,-0.000857339,-0.0052697,-0.013718,0.00596466,0.00463689,-0.00375294,-0.00408056,-0.0174221,-0.00911093,-0.00662305,-0.00650283,0.00547129,-0.00303709,-0.000547208,-0.00607556,-0.00496072,-0.00960119,0.00329464,-0.00337357,0.00421386,0.0110861,-0.00247555,-0.00262121,-0.0188002,-0.00773765,0.00383783,-0.00116525,-0.00492727,-0.00826512,-0.00804239,0.00358058,0.00256528,-0.00112998,1.34849e-05,0.000698276,0.00407432,-0.000572144,0.00732546,0.00327103,-0.00104275,-0.00683642,0.0056461,0.00113282,-0.0185329,0.00256745,0.014943,0.0127255,0.000890614,-0.000290631,0.000684418,-0.000537531,-0.000231469,-0.000651939,-0.000690052,-0.000554712,2.00344e-05,-0.000453402,-0.000286717,-0.000278179,-0.00310522,-0.00177828,0.001403,-0.00201426,-0.00359912,0.00406934,-0.00809059,-0.0145415,0.00360657,-0.00381874,-0.00827078,-0.00349309,-0.0118868,-0.0115061,0.011838,-0.0101262,0.00411553,0.00738131,-0.00345589,0.0142527,0.0203964,-0.00345243,0.00223301,-0.0161708,0.00473448,0.013121,0.00867197,0.00534463,0.00111567,-0.0105674,0.00720251,-0.00833541,-0.0102441,0.0111888,0.000427842,-0.000592696,-0.000581055,-8.88506e-05,-0.000579608,-0.000672907,0.000558115,-0.000421968,-0.000695007,-0.0018618,-0.00635955,-0.0184404,-0.0139843,-0.00494119,-0.00221784,-0.00355018,-0.00476865,-0.0168175,0.00997134,-0.00383348,-0.0199468,-0.0112465,0.00197222,-0.0264694,0.00666182,-0.010521,-0.013069,0.00274515,-0.00303526,-0.00456634,0.00170394,0.00117272,-0.00490278,-0.000740701,0.0030579,0.000143785,0.00483836,0.000644068,-0.00151568,0.000290997,0.00148704,0.00225918,0.000698894,0.000750495,-0.00278272,3.03933e-05,-3.90301e-05,-0.000587969,0.000544436,0.000223754,0.00023161,-0.000420975,6.38831e-05,0.000427937,0.0162232,-0.00862472,-0.0146437,0.00830679,-0.0170515,-0.0104637,0.0382529,-0.0127345,0.00364867,0.00082247,-0.00106031,0.000435583,0.000623811,-0.00112313,0.000883364,-0.000559898,-0.00053706,0.00046914,0.000166295,-0.000649115,0.000305757,-0.000146151,0.00163603,0.000763219,0.0010879,0.000252596,0.000551454,0.000972259,-0.000175661,-0.000679446,-0.000447224,0.00151319,-0.000442803,-6.41663e-05,-0.000539562,0.000282077,-0.000610256,-0.000372951,0.000752939,-0.000556508,-5.89666e-05,0.000187034,8.98143e-05,-0.000750468,-0.000377431,-0.000842617,0.000866313,0.00122039,-0.000170802,-3.75967e-05,3.95154e-05,0.000818865,0.000471767,-9.43942e-06,0.000510038,0.00059059,0.000193343,-0.000571076,0.000292744,-0.000123171,0.000479988,-0.000250257,-0.0005074,-0.00041066,0.000202428,-0.000255651,-0.000691338,-0.000253873,0.000630486,0.00168705,-0.000427536,0.000780495,-0.000504349,0.000421811,-0.000219424,-8.81682e-05,-0.000674892,-0.000274625,-5.08524e-05,0.000593696,-0.000638654,0.00136462,-0.000620915,0.00337943,0.00184498,-0.000187561,9.84375e-05,0.000341449,-0.000394933,1.52578e-05,0.00117915,-0.00183637,0.000635815,-0.00184394,0.000608693,-0.000471222,0.00213721,0.00148821,0.00105893,0.0026014,0.000155397,-0.000206519,0.000618984,0.00061039,7.79543e-05,-0.00118912,-0.00127571,-0.000140491,-0.00185372,-0.000715661,-0.00120876,0.00230904,-0.000717506,7.33796e-05,-0.000233003,0.00067249,0.000748093,-2.77944e-05,-0.000283042,-0.000750097,-0.00022371,-0.00327242,0.000378022,-0.000105125,-0.00119885,0.000854123,-0.00239606,0.000311291,-0.000604228,-0.00228902,-0.00286308,-0.00297091,-0.000213357,-0.000465241,0.000327421,-0.000780945,-0.000490489,-0.000755808,-0.00136783,-0.000705623,-0.0015496,0.000282241,8.44579e-05,0.000569526,0.000680672,-0.00015637,-0.0010046,0.000198548,-0.000197664,0.00425517,0.00122475,0.00195654,0.00139376,-0.000112084,-0.000469686,-0.000203955,-0.000563223,-0.00159167,0.00185396,0.00146678,-0.00100222,0.00158754,-0.000514205,0.00135034,-0.000301785,-0.000900218,-0.00229285,-0.00149958,-0.00335016,-0.000565866,-0.000569697,-0.00231778,1.44098e-05,-4.40191e-05,-0.000196605,-0.000233612,0.000567695,-0.00201003,-0.00116555,-7.58125e-05,-0.0018678,-7.15399e-06,-0.00198202,-0.00094672,-0.000126948,0.000412278,-0.000116005,-0.000223313,-0.00168653,-0.00151333,-0.000644196,-0.00132333,0.0019158,-0.000652191,-0.000403894,-0.000680947,-0.000743087,-0.000631112,-0.000774718,0.000456181,-0.000511957,-0.000148277,-4.56513e-05,-0.000612511,0.000423791,-0.000124967,-0.000301315,-0.000968695,-0.000762547,0.00012375,-0.00155923,-0.00063352,-0.0024066,0.00110792,-0.000614099,-0.000419524,-0.00120184,0.000454266,-0.00179458,-0.00011619,-0.00132093,2.22004e-05,0.000515266,0.00124474,-0.000664139,0.000196666,-0.000847579,-0.00137634,0.00109262,0.000889539,5.30897e-05,0.00205125,0.000101697,-0.000923768,-0.00123955,-0.00106554,-0.000403795,0.00287506,-0.00171418,0.000921174,-0.0011337,0.00071497,-0.000203795,-0.000717486,2.76055e-05,-0.00131933,-0.000761658,-0.000804557,-0.00109675,0.000341346,-0.00126513,-0.00183461,-0.000636361,-0.00196031,0.000416196,-0.00197381,0.00314758,-0.000450501,-0.000911932,-0.000123083,-0.00042072,-0.00154002,0.001162,0.000737363,-0.000398729,-6.34482e-05,-0.00104365,0.00075567,0.000139589,0.000405017,-0.000612567,-0.000420793,-0.00160901,0.000582575,0.000635683,-0.00128306,0.000689741,-0.000916788,-0.000835424,-0.000124651,-0.00159663,0.000476187,-0.000278153,-0.000751122,-0.000428526,-0.00130031,0.000372355,0.00117374,0.00036858,0.000746108,-0.000261395,0.00308328,0.00146816,0.00161157,0.00140967,0.00186448,0.00142836,0.00165824,-0.000543335,-0.000750156,-2.73058e-05,0.00168605,0.000565716,0.00154852,0.000547818,4.69934e-05,-0.000405167,-2.60141e-05,0.000651205,-0.000876921,-0.00186796,-0.000595969,-0.00179645,-0.000326592,-2.25861e-05,-6.91903e-05,-0.000356662,-8.21776e-05,-0.000741685,0.000698082,0.000311571,9.17802e-05,0.000485514,-0.00133956,-0.00113874,-0.000708888,0.000463049,-0.000173584,8.55646e-05,
0.000681965,3.73344e-05,0.000598745,-0.000524737,-0.00057995,-0.000683726,0.000573664,-9.05776e-05,8.35274e-05,0.000275161,-2.25647e-05,-0.000250987,0.00060225,-0.000814143,-0.000439274,-0.000606907,0.000217998,-0.000665818,-0.000229058,9.61456e-05,-0.000253216,-0.000309981,-0.000371969,0.000587963,0.00059487,0.000415754,0.000490846,0.000404984,0.000298113,-0.000410452,-0.000496961,3.73753e-06,-0.00011477,-0.000370658,-0.000203798,-0.000620047,-0.000481306,0.0004027,-0.000376111,-0.000344753,-0.000224731,-0.000736746,-0.000574929,0.000350222,0.000618456,-0.000547635,0.000299042,0.000189226,-0.000647345,0.000178793,0.00066796,-0.000113515,0.000313582,-0.000606424,-0.000825078,0.000500103,0.00038962,-0.000502289,0.000494004,0.000200221,-0.000251316,-0.000398994,0.000176807,0.00014408,0.000470816,0.000644086,-0.000354256,0.000509225,0.000244167,-0.000167542,0.000395827,-0.000663202,-0.000229083,0.000525336,0.000661619,0.000394783,-0.00037804,0.000777129,2.70323e-06,0.000746758,0.000221901,0.000707878,0.000292977,-0.000111689,0.000669491,-0.000299085,-0.000625013,-0.000277337,-0.000167004,0.000124654,0.000482846,0.000502068,-0.000589825,-0.000523416,-0.000693806,-0.000544739,-0.000175876,0.000481222,-0.000688183,-0.000222768,7.99851e-05,0.000631879,0.000185649,0.000514014,0.000731758,0.00035338,0.000191576,9.70264e-05,0.00030495,-6.51204e-05,0.000648257,2.97746e-05,-0.000485607,0.000103971,-0.000584774,-0.000146723,0.000455818,0.000646109,-0.00056592,-0.000174155,-0.000341172,0.000685043,0.000382129,-0.000240532,0.00034037,4.82165e-05,0.000415574,-0.000736488,0.000363401,0.000583056,-0.000406816,-0.000395911,-0.000393651,-0.000730551,-0.000569442,-0.000226941,0.00064901,0.00059454,0.000393995,0.000668024,-8.6518e-05,0.000174723,0.000136158,-0.000481628,-3.1778e-05,0.000648688,-0.000377798,0.000191807,0.000572204,-0.000481556,0.000559639,0.000521631,-9.39961e-05,-0.000106241,6.11091e-05,-0.00041364,0.000152452,-0.000213569,0.000654916,0.00038615,-0.00055687,0.00041484,0.000478321,-0.000236512,-0.000641832,-0.000497742,-0.000201045,-0.000251874,0.000157032,-0.000261785,-0.000454097,-0.000604573,-0.000599047,-0.000196406,-0.00059707,-0.000278685,0.000402513,-0.000319498,-0.000427165,0.000520814,-6.34854e-05,-0.000366672,-0.000235677,0.00037867,0.000427531,-8.48909e-05,-0.000291077,0.000157772,-0.000126079,0.000404026,0.000299224,-0.000375692,-0.000462975,-0.000713372,8.56567e-05,0.000138981,-0.000530147,0.000717149,0.000236789,-0.000633963,-0.000128969,-0.000523555,0.000216336,-0.00061708,0.000666412,-0.000433147,0.000483182,0.000466875,0.000679346,0.00070128,0.000340826,-0.000439399,-0.000608179,-0.000211822,-0.000765501,-0.000280239,-0.000120368,-0.000630859,-0.000240179,0.000405438,0.000507253,0.000703319,0.000344646,-0.000265094,0.000437072,-2.35862e-05,-0.000694917,0.000426738,0.000147298,0.000314768,-0.000159294,-0.000441969,-0.000732663,-0.0006259,-0.000681731,0.000718085,0.000103593,0.000755201,0.000228755,-0.00032663,0.000412493,-0.000156427,2.188e-05,0.000560744,-0.000564967,-0.00026763,-0.00042763,0.000755395,8.69872e-05,0.000382601,0.000138747,0.000253126,-0.000531993,-0.000309037,2.37939e-05,0.00073197,-0.000119172,0.00030082,-0.000315687,-0.000202855,-0.000260294,0.000322247,-0.000308146,0.000545473,6.00212e-06,-0.000651657,-0.000328745,0.000519409,-0.000378605,0.000201903,0.000356423,-0.000585405,-0.00069798,-0.000134914,-0.000654737,-0.000642013,0.000119881,5.96097e-05,-0.000667541,-0.000591158,7.77544e-05,-0.00050099,-0.000564682,0.000412473,-0.000745428,-0.000356657,0.000541773,0.000136467,0.000755123,-6.19002e-06,-0.000136928,0.000491282,0.000533404,-0.000356102,-0.00072146,0.00071906,0.000274393,0.000153665,0.000190803,2.56798e-05,-4.01566e-05,-0.000399514,-0.000140051,0.000158218,0.000291852,0.000297901,-0.000699579,0.000721204,0.000101723,-0.000436321,-0.000104973,0.000649439,-4.45477e-05,0.000160433,0.000533812,-0.000231873,-0.000378854,0.000376993,-0.000710869,-0.00067775,-0.000576404,-0.000507406,-0.000474291,-0.00017032,0.000121716,-2.76235e-05,-0.000183416,-0.000132969,0.000158912,-0.000734525,-0.000577107,-0.000100497,7.68651e-05,-0.000557531,0.000155155,-0.000560956,0.000381378,0.000726819,0.000473749,0.000516266,-0.00062156,-0.0007522,0.000609128,0.000148683,0.000564392,0.000694618,0.000611239,0.000484068,-0.000623336,0.000205317,0.000331869,-0.000247415,0.000680302,-0.000570501,0.000127758,0.000373533,-0.000267468,-0.000123568,-0.00020063,0.00059274,-6.97938e-05,-0.000315331,-0.000107817,-0.000733664,-0.000552952,-5.29841e-05,0.000512075,-9.96719e-05,-2.67954e-06,-0.000163188,-0.000543115,-0.000619662,0.00072997,0.000168544,-0.000364796,0.000384617,0.000128933,-0.000404083,0.000277382,-0.000705263,-0.000564261,-2.99759e-05,-0.000409339,0.000689232,-0.000632393,-0.000248919,-0.000682064,-0.000521141,-8.74488e-05,-0.000361589,-0.000365966,3.23361e-05,0.000346584,0.000724674,0.000261788,-0.000654339,-0.00021828,0.000422984,-0.000742465,0.000225291,-2.20305e-05,-0.000423015,-0.000160722,0.000194439,-0.000280778,-0.000715367,0.000569617,-0.000702069,0.000135296,-0.000475931,-0.000562808,0.000573142,0.000550298,0.000136112,-0.000551987,0.000470633,-0.000508312,-0.000264916,0.000209444,0.00058153,-0.00028532,-0.000222498,-0.00060112,0.000717834,0.000426743,9.51385e-05,0.000156916,0.000512287,-3.79011e-05,0.00022138,-0.000418959,-0.000452224,-0.000394067,0.000626265,0.000132585,0.000691115,0.000657398,-7.00632e-05,0.000443073,-0.000588687,5.69755e-05,0.00050788,0.000501507,0.000655781,-0.000167828,-0.000581366,0.000422109,0.000747165,-0.000536201,0.000422754,0.000709765,0.000180118,0.00046326,0.000509224,-0.000349996,-0.000234041,0.000173072,-0.000203315,-1.48825e-05,-0.000702115,-0.000793048,1.09176e-05,0.000563068,0.000360299,0.000152915,-0.000635613,3.65094e-05,-0.000577338,0.000438532,0.000611796,-0.000404879,0.00046371,-0.000273183,-0.000228466,0.000171489,-0.000329396,0.00014585,0.000120762,0.000650939,-0.000610815,3.48996e-05,-0.000700926,-6.35109e-05,0.000359253,-1.38486e-05,-0.000659764,0.000438817,-0.000456955,-0.000236465,0.000328201,-0.000644133,0.000384101,-0.000338342,-0.000282057,0.000116743,0.000616051,0.000355865,-9.4527e-05,-0.000399926,0.000109422,-0.000749133,0.000374524,-0.000163879,8.56915e-05,-0.00014983,-0.000197727,-0.00067849,0.000183277,0.000234826,0.000212907,-0.000554237,0.000268262,-0.00054094,-0.000283465,0.000258651,-0.000141969,0.000565082,-0.000405081,-0.000730548,-0.000730402,0.000115917,0.000214669,0.000508001,8.36189e-06,-0.000136801,-0.000425508,-0.000508736,-0.000333548,0.000353921,-0.00068694,-0.00077795,0.000648809,6.30878e-05,0.000350317,0.000453009,0.000455348,-6.70694e-05,-0.00079013,0.000449896,-1.91107e-05,0.000523115,-0.000149481,-0.000762611,0.000459557,0.000210446,-0.000482699,0.000384185,-0.000471867,-5.18421e-05,-0.000631064,-0.000708854,0.000464557,-0.000557803,-0.000770228,0.000734176,0.000600267,0.000650392,-2.44315e-05,-0.000482445,8.46825e-05,-7.05183e-05,-0.000217619,-0.000681521,-0.000455281,-0.000244872,-3.14859e-05,0.000429726,-0.00011141,-0.000516942,0.000753503,0.00034529,-0.000398212,-2.03635e-05,0.00054184,-0.000283192,0.000246078,0.000193671,-0.000466703,-0.000567509,0.0004873,0.00027704,0.000346686,-0.000682876,-0.000572216,0.000316832,0.000179996,-0.00025153,0.00027418,0.000523496,-0.000733522,-0.000393522,6.09602e-05,-0.00029188,-4.69044e-05,-0.000121367,-0.00068405,0.000516247,0.000113815,0.000480673,-0.000404049,-0.000390848,-0.000655187,-0.000324868,-0.000539448,0.000630248,-0.000763883,-6.50889e-05,-0.000142007,-7.1587e-06,0.000341197,0.000614755,0.000639166,0.00031295,0.000712047,-0.000206301,0.000626299,1.15871e-05,-0.000700275,0.000484599,-0.000209232,2.94756e-05,-0.000272763,-0.000496316,0.00019788,0.000226177,-0.000490566,-0.00040248,0.000630124,-0.000540311,-0.000685593,-0.000421367,-0.000369796,-0.000227309,0.000558323,-0.000376081,-0.000261587,-0.000535017,-0.000519317,-0.000765542,-0.000292448,0.000403482,0.000695215,0.000288392,-0.000517786,0.000621045,0.000169547,0.000484447,0.000141635,0.000747443,8.51045e-05,-0.000452142,-0.000420832,0.000551534,0.000272969,0.000273114,-0.000112174,-0.000748397,-0.000452452,9.18813e-05,-0.000764081,-0.000678783,-1.85913e-05,-0.000616487,0.000333109,0.000468918,-0.000641557,-0.00031509,-0.000396882,-0.0004817,4.81808e-05,0.00011577,-4.03713e-05,-0.000432638,-0.000682315,-0.000146922,-0.000195262,-0.000172374,0.000506768,-8.56156e-05,-0.00040997,9.28797e-05,-7.30931e-05,-0.000500854,0.000370828,-0.000149672,0.000760192,0.000660456,0.000672276,-0.000315547,0.000237595,5.08261e-05,-0.00058818,-3.52835e-05,0.000354179,-0.00015779,0.000606281,-0.000499505,0.000290547,0.00065289,0.000381721,0.000682375,-0.000416742,2.34448e-05,0.000398767,-0.000221127,-0.000274303,0.000307215,-0.000703744,0.000179579,-0.000403491,0.000714995,2.17359e-05,-0.000427256,0.000564231,0.000731652,-0.000110152,-0.000323552,-0.000314242,-0.000421953,-0.000722832,1.50497e-05,-0.000690693,0.000652287,-0.000464399,-0.000507325,-7.68226e-05,-0.000553704,0.000578493,-1.87427e-05,-0.000315733,-0.000197448,-0.000530914,0.000616396,-0.000101225,0.000224237,-0.000479663,0.000714821,0.000525225,-0.000371382,-0.000686518,0.000306271,-0.000423656,7.52312e-05,-0.000430413,0.000676958,-0.000128641,-0.000551333,-0.000107324,0.000468118,0.000407415,5.16471e-05,-0.000727192,0.000107773,-0.000333984,0.000475797,5.0705e-05,-1.60997e-05,0.000578961,-0.000262069,0.000144585,-0.000213364,0.000514041,1.04451e-05,5.31817e-07,-0.000670525,0.000508075,-3.40629e-05,-0.000662746,0.000540523,-0.000338507,0.000703621,0.000713226,0.000686616,0.00063886,0.00038508,0.000721494,6.06377e-05,-0.00022234,0.000147891,0.000410388,0.000292963,0.000570442,0.000140333,0.000584899,0.000509761,0.000161897,0.000685306,-0.000172401,-0.000184224,0.000474725,0.000265169,-0.000511072,0.000557658,0.000160869,-0.00011264,-0.000352372,-0.000434314,-0.000642085,0.000659356,-0.000759745,-0.000639897,-0.000524048,2.67882e-05,0.000246539,-0.000146315,-0.000654779,0.00043882,9.37307e-05,-0.000479762,-0.000407878,5.49517e-05,0.000336281,-0.000604024,0.000363275,-0.000664357,5.85588e-05,-0.000441474,5.23258e-05,-0.000233881,0.000403172,-0.000747397,-0.000497961,-0.000470234,0.000705473,0.000476734,0.000652225,-0.000111905,9.3044e-05,0.000466513,0.000292771,-0.000174232,-0.000516832,0.000691551,0.000152132,0.000434581,2.1682e-05,-0.000764873,0.000721285,0.000323447,-0.000541565,0.000341937,-3.61251e-05,-0.000782003,0.000285607,-0.000577612,0.000461305,-0.000257608,-0.000585773,0.000313574,0.000427133,0.000755826,-0.000728407,-0.000671207,-0.000592675,0.000356694,-7.81025e-05,0.000407591,-0.000440152,-0.000755992,-0.000218163,
0.00127305,-0.00185371,-0.00319874,0.00242402,-3.91589e-05,-0.00304195,-0.0102353,-0.00196527,0.00527751,0.00882012,0.00245073,-0.00222075,-0.00204898,-0.00177756,-0.000201417,-0.0261295,-0.0130532,0.00666459,0.00300605,-0.00137872,-0.00262434,-0.00435089,-0.00118002,-0.000376184,0.00175326,-8.74104e-05,-0.000179259,-0.0214609,-0.000453834,0.00653095,0.00532973,-0.00609613,-0.00296694,-0.0117309,6.82237e-05,0.00420214,0.00713858,0.00118925,-0.00530633,0.0043625,-0.0015861,-0.000377986,-0.00081415,0.00052193,0.00220511,-0.01555,-0.001346,0.0113361,0.00796147,0.00524144,-0.000812684,-0.00215414,-0.0140515,-0.00911589,0.00819089,-0.00207731,-0.0110658,-0.00444875,-0.00330359,-7.17259e-05,-0.0052961,0.000243161,0.000169914,0.000512049,0.000120192,0.000653974,8.04687e-05,0.000458901,0.000361602,0.000691173,0.000142364,-0.000296386,-0.0094045,-0.0024442,0.00090832,-0.00449882,-0.00538725,-0.00286759,-0.00591836,-0.000803191,0.00163268,-0.000848001,0.00451075,-0.00124542,0.00430297,0.000185559,-0.000315689,0.0101047,0.000174123,0.00109749,0.000151147,0.000420315,0.000582025,0.000449322,-0.000456272,0.000292188,-6.24703e-05,-0.000631017,-9.53478e-05,0.00143607,-0.00226438,-0.00525128,-0.00583747,-0.00201953,0.00738303,0.00947023,0.000807471,-0.0013549,0.00461249,-0.00236209,-0.00457836,-0.00345486,-0.000438079,0.00225115,0.000176581,-0.000857253,-1.44881e-05,-0.00373269,-0.00036317,0.000861055,0.0018073,0.00606111,0.00370893,0.00129176,-0.00286763,-0.00188648,0.000582927,-0.00103424,-0.00127853,0.00121931,-0.000845723,-0.000121435,-0.0025729,0.000790505,0.00191181,-0.000411378,0.000181008,0.000757948,-0.000250101,0.000461663,-9.23969e-05,0.000308769,-0.000747229,-0.000737851,-0.000203667,0.00219555,-0.00516985,-0.0016198,-0.00276935,-0.00197662,-0.00160341,0.000805588,0.00418934,-0.00650277,1.10005e-05,0.00172142,0.000474017,-0.00307169,-0.00252323,-0.0115136,-0.00343995,0.00048592,8.27663e-05,-0.000443031,0.000704006,-0.000477931,0.000234987,-0.000699133,0.000651488,-0.000420329,0.000231535,0.000485867,-0.000530645,3.5685e-05,7.70694e-05,-0.000571392,0.000574667,-0.000491655,0.000541842,-3.46665e-05,0.00302665,0.00134068,-0.00332356,-0.00404778,-0.000477472,-0.00141722,-0.00474927,0.00187799,0.00105283,0.00084426,0.00287817,-0.000669924,0.00249533,0.0088247,0.00333253,0.00173591,0.000786666,0.00550502,0.00208957,-0.00178936,0.000841999,-0.00168833,-0.00276431,0.000297251,-0.000362221,0.00354781,0.00248109,-0.000116175,6.38811e-05,-8.51419e-05,8.19687e-05,0.000682713,-0.00044488,-0.000183103,-0.000251522,0.000289013,0.00991803,0.0107497,0.00292231,0.00441521,0.00924074,0.00747044,0.0093388,0.00732655,0.00690919,0.0065979,0.00194487,0.000794027,0.00322565,0.000395175,-0.000107888,0.000692946,0.00439526,0.000866196,0.000387256,0.000304692,0.00051654,0.000307197,-8.4263e-05,1.33329e-06,-0.000516907,0.000701443,0.000162863,-0.000223254,-0.00322498,0.00382581,0.00326749,0.00259399,0.0063434,-0.0079748,0.00175495,0.000279617,0.00839716,0.00605453,-0.00487578,-0.00322137,0.00257409,0.0045736,0.00512819,0.00307787,-0.00462903,-0.0148869,0.000942174,0.0107655,0.00340161,-0.00925238,0.00213472,-0.00425805,-0.00462343,-0.00871553,0.00479627,-0.00355992,-0.011033,-0.0219593,0.00378813,0.0145524,0.0162972,0.00164124,-0.000294505,-0.0155421,0.00155716,0.0138709,0.00726622,0.00533122,0.0012511,-0.0132283,-0.00834727,0.00433251,0.00805777,-0.000495034,0.00106666,-0.00762471,-0.0016391,0.00920702,0.0217276,0.00898315,-0.000670472,-0.0078578,-0.00414841,0.000701542,-0.00130391,-0.00192467,-0.00440867,-0.000785137,-0.00128217,-0.00129168,0.00412422,0.000210982,0.00065511,0.00190266,-0.00156892,0.00963696,0.0102982,0.00181001,-0.00390681,0.000620075,0.000152483,0.000532383,0.000734919,0.000699209,-0.000644206,0.000579489,-0.000628807,-6.2229e-05,-0.00660595,0.000160072,0.0056266,0.00629112,0.00305482,0.000944338,-0.00875147,3.90291e-05,0.00329764,0.000195181,0.000484539,0.000129473,-0.000718262,-0.000145005,3.6394e-05,-0.000756604,-0.000196429,0.000423603,-0.000828043,-0.00589105,-0.00554688,-0.00676431,-0.00151236,0.00198421,-0.00114477,-0.000611728,-0.00122101,0.00136521,-0.000471221,-0.00129936,-0.00413837,-0.00406302,-0.0003914,0.0002686,0.00299202,0.000547056,0.0148539,0.00777358,0.0054288,0.00905407,0.0056189,0.00484772,0.0083912,-0.00567056,3.77396e-05,-0.00978992,-0.00723046,-0.0083297,-0.0105554,0.00078912,0.00326108,-0.00434093,0.0098333,-0.00130629,0.0185689,0.000329087,-0.0109673,-0.00664025,-0.00274185,0.00200393,0.00110791,-0.00700855,-0.00241984,-0.0163576,0.000698813,0.00191133,0.00191479,-0.00195042,0.000480187,0.000965242,-0.00232927,-0.00376576,0.00348122,0.00340803,0.00247798,-0.00787496,-0.00193972,0.00140608,0.00257567,0.000289186,-0.00172094,-0.00438288,-0.00325717,-0.00680103,-0.00428233,-0.00177816,-0.00201696,-0.015405,-0.00275339,-0.000691629,2.22042e-05,-0.000450706,-0.0019524,-0.00199733,0.00273616,0.000320551,-0.00097478,0.00238156,0.00179736,-0.00365475,-0.000822746,-0.00312928,-0.00245835,0.0012461,0.00311777,0.00360634,0.000529422,0.00216691,-0.000593973,0.000460002,0.000631146,0.000668331,0.000663822,-0.000148778,0.000700255,-6.52633e-05,0.000665422,-0.000939522,0.00189352,-0.00136033,-0.00201219,0.00278247,-0.000299784,0.00282257,-0.00101569,-0.00229186,0.00843405,0.00563225,-0.0142472,-0.0209476,-0.00170144,0.00143284,0.00623615,0.000669419,-0.00454506,-0.0257216,-0.00209273,0.00643336,0.0169468,-0.00443366,-0.00110984,-0.0286924,-0.0231146,0.00171589,-0.00932839,0.00681482,0.00483303,0.012266,0.00284104,-0.00019963,-0.00510453,0.00252271,0.00623425,-0.000405603,0.000407371,0.000630804,-0.000750813,-9.89543e-05,0.000422453,-0.000684631,-9.81686e-05,5.44884e-05,-0.00183922,-0.00168093,-0.000753689,-0.00133855,-0.00166619,-0.00267511,-0.0230673,0.000780901,-0.00117752,-0.0288694,0.000203667,0.00184945,0.00634189,-0.00280976,-0.0019575,-0.0009681,0.00340363,0.002061,0.00162398,-0.000556023,-0.0032882,-0.00039785,-0.00027549,-0.000866563,8.38789e-05,-2.44298e-05,-0.00215412,0.00103645,-0.000609279,-0.000399824,0.000585305,1.05804e-05,0.00151494,0.000231639,-0.00251363,0.00204924,-0.000516122,7.60155e-05,-0.000524041,-0.000314979,-0.000524029,-0.000470693,-0.000388049,-0.000312908,-0.000569537,0.0123173,-0.000234004,0.0101109,0.013542,0.00383066,0.00897376,0.0136262,0.0108669,-0.000274987,0.000213832,0.000886969,9.13313e-05,0.000527474,0.000645561,0.000158835,0.000633591,0.00027111,0.00062265,-0.000744075,0.000528834,-0.000161137,0.00089238,-0.000258383,0.000178338,-0.000359053,0.000114434,3.94075e-05,5.37431e-06,-0.000992226,0.000349762,0.000609611,-0.00133815,-9.00685e-05,-1.11898e-05,0.000385457,-0.000286139,0.000556165,0.000495454,-6.70432e-05,3.60029e-05,-0.000410127,-0.000661841,-5.07389e-05,0.000833232,-0.000312082,-7.27817e-05,-0.00107725,-0.000169244,-0.000451922,8.50083e-06,0.00024426,-0.000859567,0.000245392,0.000528301,-0.000365126,-0.000276202,0.000247816,-0.00051299,0.000385281,-0.00022947,0.000128965,-6.93132e-05,-0.00011747,-0.000434921,0.000707789,0.000736615,0.000299527,-0.000254927,-0.000301738,-0.000434793,-7.3066e-07,0.000267571,0.000283772,6.23384e-05,0.000137151,-0.000459229,0.000491013,0.000399856,-0.000417624,1.11242e-05,-0.000660458,-0.000372686,0.000305918,0.000367804,-0.000850579,3.76656e-05,-0.000419957,5.43787e-05,-0.00021208,-0.000707039,-9.52912e-05,-0.000815028,-0.000912727,-0.000631676,0.000455611,-0.000792196,-0.000148016,0.00136423,0.00214447,0.00153051,0.000683404,-0.000361773,-0.000218213,0.000592033,-0.000623927,0.000866956,0.000283044,0.00115386,-7.66563e-05,-0.00104108,-0.000939771,0.00131451,0.000796019,-0.000224403,-0.000646573,0.000409937,0.000474895,0.000174013,-0.000687383,0.00014469,-0.000743305,-0.0017306,0.000964867,0.00381498,0.00219425,0.000112548,0.000451866,-3.30817e-05,7.33476e-05,-0.000639655,-0.000744782,0.000205148,-0.000290692,-0.000653121,0.000737589,0.000339644,-0.000287487,0.00184013,0.000125612,-0.000920454,0.000377466,6.03351e-05,0.000290967,0.000499271,0.000429859,-0.000188091,2.34982e-05,0.000738917,-0.000356021,0.0028189,0.0017406,0.000220036,-0.000262478,0.000483339,0.000287516,-0.000319218,-0.000193171,0.00258376,0.000548284,-0.00174622,-0.00123047,0.000448475,-0.000614679,-0.000125246,-0.000866718,0.00116513,-0.00084707,-0.000142764,0.000955526,-0.000233906,-0.000598029,-0.000245145,8.37194e-05,-0.000750526,-2.3695e-05,-0.000224264,0.000394374,0.000480658,0.000705994,0.000484236,0.000354689,-0.00101839,-0.000208561,-0.000337097,0.000108176,-0.000922974,-0.000662554,-0.00082183,0.000157442,-0.00115897,0.000366541,0.00194712,6.66936e-05,0.000102356,0.000646408,0.000192686,-4.01116e-05,-0.000196253,-0.000215373,-0.000396882,0.000619165,-0.000267579,7.82912e-05,-0.000461267,0.000137112,0.000157445,0.00133089,0.00148291,0.000531956,0.000542745,0.000185692,0.000523385,-8.07444e-05,0.00241756,-0.000935755,0.000122619,-0.000260673,-0.00029949,-0.000994043,-0.000551023,-0.000728369,0.000467423,-0.00123331,0.000326582,0.000488961,-0.000481358,-0.000137869,-0.000217058,-0.000466787,0.00138197,0.00034801,0.000511931,0.000770758,-0.000185848,-0.00026537,0.00010256,-6.33281e-05,-0.000272101,0.000615316,0.00105794,0.000424195,-0.000388794,-8.51756e-05,-0.000344493,0.000311025,-0.0013454,0.000175037,9.31735e-06,0.000567616,-0.000553624,0.000388047,-5.75377e-05,-0.000362405,5.97101e-05,-8.78834e-05,0.00109738,0.000794731,0.00182046,0.000204315,-0.00173598,-0.000382653,-0.000576504,0.000186568,-0.000703414,-0.000652716,3.21927e-05,0.000538132,0.00127005,0.00101596,-0.000582589,-8.94869e-05,-0.000215883,-0.000282053,0.000317708,0.000311304,-0.000725064,-0.000768816,0.000542818,-0.000486233,-0.000269873,-0.000306443,-0.00040094,0.000163553,0.000528932,2.70008e-05,0.000406689,-0.000351611,0.000207653,-0.000239197,0.000772849,-0.000538394,0.000548273,-0.000378535,0.00150826,0.00128873,-0.000483767,0.000355261,-0.000348804,0.000292517,0.000749194,-0.000922705,0.000399497,0.000813206,-0.000391191,0.000674137,0.000406222,-0.000493424,0.000232851,0.000218198,0.000669182,-0.000857809,0.00123401,-0.000149188,-0.000247571,0.000603037,0.000104047,0.000386634,-0.000500316,-0.000593142,-0.000541711,6.55503e-05,-0.000999622,0.00105472,0.00129128,-0.000651627,0.000975671,0.000440293,-0.000562139,1.70687e-05,
