-0.000359587,0.00114453;-0.000592777,-0.000887418;
0.00210124,0.00304725;0.00379528,0.00251767;
-0.000619185,-0.000509615;-8.28628e-05,-0.00051146;
-0.000485971,0.00375513;0.00325286,0.00384048;
0.00121478,0.00210442;0.00134335,0.000961433;
0.000767342,-0.000784378;-0.000390037,0.000944331;
-0.000718904,0.000927982;0.00151917,0.00235793;
0.000997906,0.000716183;0.000371451,0.00102298;
0.00294898,-0.000646974;0.000499758,-0.00228594;
-0.00329646,-0.000809416;0.00166518,3.78636e-05;
-0.000596688,0.00143593;0.000302636,0.000112448;
-0.00194573,-0.00134157;0.000359884,0.000628471;
0.000478226,0.00211501;3.9897e-05,-0.00151783;
0.000516579,0.00104463;-3.54587e-05,-0.00130226;
-0.000447574,0.000374405;-0.000586415,-0.00099002;
0.000188816,-0.00124628;0.000407908,0.000397464;
-0.00175888,-0.000498331;-0.000742878,0.00208044;
0.00159211,0.00362914;0.00116574,-0.00185035;
0.000705228,0.000692522;0.00010146,0.00132638;
0.000815148,0.000347833;-0.000898478,-0.000767828;
-0.000244447,-0.00164203;0.00121502,-0.00254885;
-0.000798276,0.00100499;0.000245151,-0.000436042;
0.00100878,0.000307262;-0.00120263,-0.00225181;
-0.000669541,-0.0012705;-0.000444978,0.00127915;
0.00536777,0.00763713;0.00629066,0.00847829;
0.000702603,-0.000740636;0.000663806,0.000531905;
0.00083601,-0.000565286;-0.00116188,0.000967246;
-0.00262811,-0.00076823;-0.000547117,0.000173952;
-0.00209482,-0.00170202;-0.000830604,-0.00218172;
-0.00235462,-0.000386666;-0.00202047,-0.00135241;
0.00111923,0.00156511;0.000694806,-0.000418245;
0.00161432,-0.000334164;0.00197171,0.000359253;
-0.000948815,0.00219764;-1.8139e-05,0.000521026;
-0.00213327,-0.00162175;-0.000512689,-3.4849e-05;
-0.00246901,-0.00285093;0.000249891,-0.00167239;
-0.000835944,0.000400462;-0.000396206,-0.000434003;
4.57637e-05,-0.000518558;-0.00183474,0.000908154;
0.000771269,0.000872283;-0.000328057,0.000721023;
-0.000569821,0.000102434;-0.00147228,-0.000255701;
-0.00236084,-0.000291864;0.000231887,-0.000913499;
0.00398451,0.00383394;0.00447816,0.00419656;
0.00214719,-0.000120808;0.00191709,-0.00263816;
-0.00236748,-0.00113151;-0.00307431,1.12555e-05;
-0.000204753,-0.0007699;-0.00201087,-0.00165866;
0.000376904,0.00131627;-0.000282364,-0.00185431;
-0.000404998,-0.00122589;-0.00177493,-0.0007803;
-3.38404e-05,0.00102167;-1.19186e-05,-0.000960899;
-0.00154203,-0.00115988;-0.0012328,0.000698114;
0.000250256,0.00119456;-0.00102378,-0.00119726;
-0.00131989,-0.00137797;-0.000282736,-0.0013498;
-0.0027085,-0.0011079;-0.00105833,0.000142997;
0.000619803,-0.00122693;0.00100926,0.00156761;
-0.001643,0.00224975;0.00162118,-0.00162812;
-0.0014395,0.00144146;0.000627676,-0.000732784;
-0.000933663,-0.000863548;-0.00084426,-0.00204401;
0.000126326,-0.000850604;-0.00090036,-0.00252076;
-0.000951272,-6.86281e-05;-0.000387122,0.000941373;
0.000369382,-0.00210091;2.34424e-05,-0.000668598;
0.000429296,0.000287193;-0.000613335,0.000419822;
0.0016819,0.00381197;0.00319084,0.00489072;
#
-0.00231174,-0.000898363;0.00175431,-2.37998e-05;
-0.000186872,0.00164546;-0.0017266,0.000523287;
-0.000645144,-0.00180129;-0.000473118,0.000751731;
0.000939138,-0.000234491;0.000353172,0.00166317;
0.0011927,0.000636333;0.000276138,0.00213674;
0.000809391,0.00106897;0.000443472,-0.00284955;
0.000411577,0.000166946;4.35266e-05,-0.000395487;
-0.000561259,0.000313972;0.000483654,0.000534589;
0.000854205,-0.000604895;0.00177355,-0.0024703;
-0.0013385,-0.00121321;-1.76239e-05,0.00156147;
0.00114263,-0.000440337;-0.000119672,0.000657399;
-0.00119298,-0.00161659;-9.88467e-05,-0.000317307;
0.000781717,-0.000538527;0.000595341,0.00054448;
-0.000403957,0.000877217;4.48675e-05,-0.000630633;
-0.00242893,0.0002421;-0.000421737,0.000303305;
-0.00105995,0.00122002;-0.000916804,0.0011939;
-0.00232037,-0.0019701;0.000795129,-0.00163678;
-0.000752456,0.001943;0.00326492,0.000304322;
0.00103332,-0.00134826;-0.00032753,-0.00130239;
0.00138562,0.000253283;-0.000857966,4.20163e-05;
0.0018947,0.000817;0.00133789,0.000207053;
0.000483971,0.00102172;-0.000738521,0.000656786;
-0.00106115,-0.000477713;-0.000715118,0.00138333;
0.000775462,-0.000625763;-0.000178212,-6.66395e-05;
0.0032302,0.003447;0.00513046,0.00196056;
0.000415969,-3.15235e-05;0.00181534,-9.41528e-06;
-0.000171924,-0.000445922;-0.000646375,-0.000910549;
-0.00123043,-0.000181683;0.000317854,0.00127417;
0.00155662,0.000925725;-0.000137358,0.000589603;
-0.000483641,-0.00298452;-0.00207223,-0.00214441;
0.00187255,0.00242058;0.000360073,0.000351664;
0.000741515,0.00276558;0.000738451,0.00238917;
0.00136244,-0.000458461;0.00338517,0.00200799;
-0.00172882,-0.00135789;0.00103635,2.52312e-05;
0.000313922,-0.00144186;0.000120338,-0.00117312;
-0.00121961,0.00130554;-0.000412352,-0.00140015;
-0.0014039,-0.00114969;0.000107898,0.00133026;
-0.000566998,-0.0012071;-6.37148e-06,-0.00137569;
0.000222168,0.00015996;-0.00163613,-0.00220281;
-0.00125619,-0.00241273;0.000575057,-0.00210131;
0.00245652,0.00385475;0.000482701,0.00154488;
0.0012989,-8.62646e-05;0.00242711,0.00206291;
-0.00234882,0.000975335;-0.0025942,-0.000870861;
-0.000275568,-0.00046702;0.00188294,-0.0033894;
-2.71687e-05,-0.000814538;0.00132369,-0.00135664;
-1.7614e-05,-0.000910532;-0.00168456,-0.00222577;
0.00250283,0.00109671;0.00247519,7.0097e-05;
-0.00155767,0.00120216;0.000337336,-0.00150016;
0.00134937,-0.000900004;0.00117479,0.000742532;
-0.000301197,4.59113e-05;-0.000635392,-0.00112961;
0.00209904,0.000345394;0.00154036,-0.0014344;
-0.000493952,-0.000437511;-0.00170679,0.00143701;
-0.00269658,-0.00111781;-0.000492525,0.00174982;
0.00119276,0.000517384;0.000488255,-0.000243328;
-0.000600082,0.000592025;-0.00128589,-0.00186731;
2.41582e-05,-0.00290813;0.00143369,-0.00331634;
0.00114164,-0.000156375;0.000328844,0.000932435;
-0.000890324,-0.000511869;0.000286383,0.000802728;
-0.00143811,-0.00078803;0.000647998,0.00129145;
-0.000531033,0.000521706;0.0030181,0.00464318;
#
-0.00113215,-0.00111134;0.000359758,0.000117613;
0.000263736,-0.000669626;-0.00077301,-0.000165854;
-0.000368114,-1.51372e-05;0.000895687,0.000279489;
0.000977835,-0.000391724;-0.000647246,-0.00141708;
0.00113449,-0.000617817;0.00104681,0.00021887;
0.0012683,0.000669627;-0.000656173,-0.000735321;
-0.0010887,-0.000457035;-0.00137991,0.000985499;
0.00136603,0.000904893;0.000791592,-8.8837e-05;
-0.00039582,-0.000959819;-0.000122884,4.46346e-05;
0.000183832,-0.000861546;-1.4352e-05,-0.000602071;
-0.000486204,-0.00115329;-0.00121185,0.00124002;
0.000381023,-0.00139639;0.000794002,-0.000137529;
-0.00142367,-0.000599221;-0.000765282,-0.000108657;
-0.000859085,0.000427058;0.00117367,-0.0007062;
1.01242e-05,-0.000308342;7.08745e-05,-0.00104412;
2.33342e-06,0.00100815;0.000414479,-0.000749164;
-0.000436441,0.00107269;0.00100343,0.000628244;
0.000986413,0.000530704;-0.000220464,-0.000526533;
0.000140128,-0.00139119;-0.000745615,-0.000509157;
8.23403e-05,0.00112859;-0.000503065,-0.000407144;
0.00113339,0.0010554;0.000163594,-0.000668262;
-6.50776e-05,0.00109497;0.0005928,-0.000245982;
-3.24047e-05,0.000406109;-0.00104899,0.000176937;
0.000780247,3.31967e-05;-0.000515672,-0.00108631;
-0.0012078,0.00123814;-0.00108575,0.00131803;
0.00121912,0.00134452;0.00108823,-0.000407503;
-0.00104615,-0.000546235;-0.00110173,-0.000890291;
0.00132082,-0.000129267;-0.00135366,0.000630919;
0.00127396,-0.000581282;-0.00117999,-0.00146947;
0.000407601,-0.00031209;0.000951389,0.000321204;
-0.000502373,-0.000983798;7.29479e-05,-0.000411068;
-0.00121185,0.00107856;0.00122219,0.000152404;
-0.00102629,0.000877653;-0.00135024,-0.000829325;
-0.00105349,-0.00059414;0.00100488,-0.00121999;
0.000228418,0.00101489;1.54931e-05,0.000874158;
-0.00134184,-0.000361358;-0.000528302,0.000553837;
-0.00101148,-0.000825955;0.000926111,-0.00136107;
0.000984239,-0.0013771;-0.00116703,-0.00112302;
0.00105469,-0.000855907;-0.000430147,-0.000206259;
-0.000756131,-0.000684232;-0.00136412,0.000307036;
-0.00038648,-0.00118257;0.00048822,-0.000454311;
4.78977e-05,-0.00125695;0.000944111,-0.000339908;
0.000528113,0.000652839;0.000362694,-0.00124314;
0.000367579,-0.000800075;-4.92001e-05,9.49744e-05;
0.000499747,9.26232e-05;-0.00116246,0.000218717;
-0.00133488,-0.000731881;-0.000447573,0.000221498;
0.000191427,0.000732901;0.000256424,0.000293484;
0.000150416,0.00141451;-0.00139677,0.00102102;
-0.000599473,-0.0013554;0.000544939,-0.000701574;
0.000945987,0.000582253;-0.000210549,-0.000900933;
0.000695509,-0.000577354;-0.00109323,-0.0014405;
-0.0010527,0.000371169;-0.00023333,0.000511918;
-0.00112148,0.000591186;-0.00032531,0.000135162;
-0.000188261,-0.00113805;-0.00103019,0.000429609;
0.00137618,-0.00119209;-0.000739223,-0.000360085;
0.000320507,-0.00105572;-0.000603861,0.000635254;
-0.000644707,-0.000144807;0.00073454,-0.000359765;
0.000161538,0.000448354;-0.00103161,-0.000751825;
0.000216299,0.00133191;-3.41398e-05,-0.000421441;
-0.000305468,-0.00051308;-0.0010424,0.00126857;
#
-0.00130567,-0.000180618;-0.00069227,-0.000685663;
0.00139347,0.000830652;0.00335314,0.000933055;
-0.000933189,1.79982e-05;7.1832e-05,-0.0011933;
0.00406219,0.00385523;0.00192031,0.00148206;
0.00131632,0.00112906;-0.000931952,0.000488872;
0.00192467,-0.000870158;0.00260711,0.00427831;
0.00114027,0.00109062;-0.00049873,-0.000409227;
6.92146e-05,-0.000721435;-0.000751394,-1.10217e-05;
-0.000993905,0.00101806;0.000929509,0.000507146;
-0.00177816,0.00126781;0.000375828,-0.000707766;
-0.000218726,0.000274152;-0.00115331,-0.000548982;
-0.00119941,0.000221381;0.000886749,-0.00153545;
-0.000198999,-0.000340472;-0.000110578,-1.77792e-05;
-0.00142484,-0.00231655;0.000852833,0.00137614;
-0.000650407,5.90014e-05;-0.00180981,0.000259874;
1.66452e-06,-0.0010975;-0.00112645,-0.000791232;
7.64884e-05,0.00139696;-0.00164019,0.000342504;
0.00242633,0.0026021;0.00101271,-0.000132713;
-0.000847515,0.000937295;0.00080887,-0.000180303;
-0.000281681,0.000388134;0.000509722,-0.000145635;
0.00178112,0.000120654;-0.000165128,-0.00118781;
-0.00106149,-0.00220312;-0.00132631,-0.00117846;
-0.000367605,0.000582118;0.000220133,-0.00259556;
0.0011012,0.0005105;0.000856215,0.000842212;
0.00457496,0.00696783;0.00607884,0.0069973;
0.00153669,0.00164036;0.00143975,0.000825562;
0.00129657,0.00104284;-0.000313875,-0.00140399;
-0.000635402,-0.00246275;0.000791334,-0.000657314;
-0.00255237,-0.00183951;-0.000744221,-0.00123358;
-0.00139051,-6.79105e-05;0.00128187,-0.00283797;
0.000236752,0.000539386;0.0025009,0.000182569;
0.00253455,-0.000214666;0.00104503,0.00184664;
0.00100451,0.00134703;-0.00159651,-0.000548692;
0.000538394,0.000880278;-0.00171606,-0.0016266;
-0.000689003,0.00109742;0.00065129,0.000752446;
-0.000797203,-0.000608415;0.000521703,0.000179457;
0.00104158,-0.00153581;0.000379551,-0.000205058;
0.000930767,0.000753434;-0.00116537,-0.0010464;
-8.89505e-05,0.000344693;-0.000239401,-0.00205755;
0.000684138,0.000712335;-0.0019547,-0.000463602;
0.00379684,0.00384525;0.00443943,0.00567212;
0.00163189,-0.000143856;-0.000552009,-0.00114378;
-0.00317591,-0.00155492;-0.00189421,-0.00164014;
-0.000332524,-0.00031106;-0.00222937,-0.00145173;
-0.00147682,-0.00100846;0.000716106,-5.1968e-05;
-0.00178038,-0.00222755;-0.00126398,-0.00172154;
0.000656133,-0.00082613;0.00171166,-0.000264175;
0.0012214,-0.00043361;-0.0011642,0.000690385;
-0.00040331,0.000475048;-0.00111475,-0.000274788;
-0.00191903,0.000117106;-0.000718844,0.000645875;
0.000546578,0.000157969;-0.00132794,-0.00219066;
-0.000175232,0.000750813;0.00254132,-0.00132947;
-0.00154558,0.000828189;-0.0018072,0.000847692;
-0.000495853,-0.000432814;-6.11454e-05,0.00108004;
0.000109846,-0.00188367;-0.00179126,-0.00126069;
0.000939814,-0.0017001;0.000507132,-0.00117671;
0.00038355,0.00016494;-0.00158369,0.000867205;
0.000642087,-0.000585585;0.000553262,-0.00206113;
-0.000851043,0.00113261;-0.00023066,0.0010039;
0.00101254,0.00335464;0.0040655,0.00301457;
#
-0.000767372,0.000720953;-0.000148601,-0.000139426;
0.00102116,-0.000612788;-0.00124584,-0.00147493;
0.00184429,0.00187268;-0.000326045,0.00023886;
0.000728866,-0.00227068;-3.94625e-06,0.000244867;
-3.75161e-05,0.000403327;0.00234204,0.000990468;
-0.000410133,-0.000471583;-0.000521665,-0.000519099;
-0.00117379,-0.0010092;-0.00108244,0.000643491;
0.000853439,0.000349601;-6.46683e-05,-0.000266481;
0.000641451,-0.000871349;-2.29823e-05,0.00234976;
-4.51017e-05,-0.000179207;-0.00150525,-0.000308973;
0.000636974,-0.000614661;0.000651975,-0.000899792;
0.000847997,-0.000215107;9.40619e-06,-0.000915025;
-0.00122601,-0.00112881;-0.000781834,0.00128326;
0.000255673,-2.84644e-05;0.000248642,0.000986381;
-0.000165111,0.00170291;0.00144065,-0.000372314;
0.00056251,0.000670436;-0.00139595,-0.000651388;
0.00127697,-0.0010404;0.000509473,0.000632905;
0.000336474,0.000349005;-0.000562116,0.000176628;
0.00078521,-0.000647734;0.000966219,-9.09498e-05;
-0.000328067,0.00080959;-0.00142287,-0.000821263;
-0.00101248,0.00111466;1.83852e-05,-0.000639893;
0.000477722,-0.000519344;-0.000805529,-0.000308567;
-0.00025894,-0.000588212;0.000178919,0.000491896;
-0.00086798,-5.97512e-05;0.000568781,0.000774141;
-0.00223965,-0.00180328;-0.00180379,-0.000994769;
0.00039859,-0.000309517;0.00126582,-0.00119253;
-0.00106358,1.81831e-05;1.53772e-05,-0.000895371;
0.00121906,-0.00161699;-0.00053756,-0.00107898;
-0.000334288,0.00137737;0.00143085,0.000635983;
0.00264082,0.000573302;0.00159929,0.000871116;
0.00183104,0.00284924;0.000134869,-0.000873091;
0.00151318,-0.00250315;0.00172412,-0.000838081;
0.000242987,0.00019487;-0.000873598,-0.00138847;
1.01538e-05,-0.000144785;-0.000183833,-0.000126502;
0.000968789,0.00119085;0.000412784,0.00162112;
0.000291751,-0.000224149;0.00129443,0.00101747;
0.000785933,-0.000824488;0.00144478,-0.000807977;
-0.000845266,-0.00104757;-0.00080059,-0.000740094;
-0.000573567,0.00107773;0.000626782,0.00106802;
-0.000183809,0.000340499;-0.000592847,-0.000634661;
0.000357157,-0.000877983;0.0010444,-0.00143606;
0.000391086,0.00099278;0.00113238,-0.00112242;
0.00141433,0.00168881;0.00205906,-0.000896311;
0.00116642,0.000299309;-0.000619556,0.00212363;
-0.000538721,-0.000318104;-0.000851972,-0.000474976;
-0.000661489,0.000867;-0.000150027,0.000400462;
0.000261107,-0.000698201;-0.000228439,-0.000972979;
0.00103895,-0.000323744;0.000277967,0.000132267;
0.000811161,0.000512137;-0.000563345,-0.00129526;
0.000381866,0.000167413;-0.000712477,-3.25775e-06;
0.00108232,0.00138144;-0.00112087,-0.000811803;
0.0023185,-0.00150107;0.000732056,-0.00104785;
0.000142623,-5.00382e-05;0.000951775,-0.000761871;
-0.000758139,0.000330616;0.000581259,6.92766e-05;
-0.000155056,-0.00159139;-0.000856853,-0.000812507;
0.000287247,-0.00177173;0.0015427,0.00123902;
0.000219949,0.00114993;-0.00123611,-0.00118928;
0.00143135,0.000355073;0.00155956,-0.000899139;
-0.000467877,-3.68001e-05;0.000432786,-0.000277145;
-0.000717203,9.72834e-06;-0.000436023,-0.00165881;
#
0.000159686,-0.000257736;0.0021452,-0.000582475;
0.00241691,0.000543298;0.0027521,0.00135526;
-0.000468766,0.00128474;-0.00212699,-0.00131904;
-0.00214781,0.000526331;-0.000702135,-0.00312784;
0.00055944,0.00293405;-0.00136103,0.00222427;
-0.00604471,0.000666635;-0.00236206,-0.000244138;
0.00150979,0.00110095;0.00387578,9.01043e-06;
-0.00134717,-0.000216121;0.00141813,0.000770686;
-0.00241649,-0.000788194;0.00325696,0.000532251;
0.000224578,-0.000755495;-0.000194328,-0.000932846;
-0.000652932,-0.00094319;0.00033617,0.001164;
-0.00311378,-0.00104304;-0.00262036,-0.000116379;
0.00186197,0.00100963;0.00200908,0.00243969;
-0.00105499,0.000181195;-0.000861626,3.88318e-05;
-9.9113e-06,0.00052057;0.000785036,-0.000153415;
0.00040544,-0.000662243;-0.000696466,0.00046722;
0.000846868,-0.00143919;8.39674e-05,-0.000754561;
0.00251371,-0.00129296;0.00297039,0.00199446;
0.000545707,0.000575994;0.000660587,0.000304252;
0.00115993,-0.000961714;0.00142982,-0.000202159;
0.00122348,3.62131e-05;0.0025574,0.00161405;
-0.000760686,0.000740709;-0.000408333,-0.000564007;
-0.00130807,-0.000862499;0.000419077,-0.000972342;
0.000300413,0.000738681;2.88767e-05,7.70855e-05;
0.00162402,0.00408811;0.00126115,0.00171889;
0.00200063,-0.000204465;1.41522e-05,-7.05067e-05;
0.000744274,-0.00119532;-0.000599218,-0.000115444;
-9.66039e-05,-0.000477273;-0.00114337,0.000149041;
-0.000650747,-0.000625837;-0.00107607,0.00215365;
-0.00261321,0.00396593;-0.00240145,0.000827522;
-0.00316063,0.000510026;-0.0047268,0.00284499;
0.000211353,0.00398681;-0.00102953,0.0029048;
0.00176154,-0.0018959;-0.000816682,-0.00064669;
-0.000851697,-0.000243206;-0.000927655,-0.00112529;
-0.000452215,-0.00107891;0.00041064,3.37785e-05;
0.000739811,0.000446413;0.000719742,-0.00019774;
-0.00186987,-0.000307487;-0.00122431,-0.00185074;
0.00132791,-0.000133281;2.64629e-05,-0.000269764;
-0.000441287,0.000226658;-0.000585066,9.13447e-05;
0.000998272,-0.0019033;0.000803632,-0.00212402;
0.00118561,0.00214545;-0.000295727,0.00294541;
-0.00168227,0.00179259;-0.00288887,-0.00212556;
-0.00137826,0.00163076;-0.00132502,0.000159421;
-0.00388049,-0.0021952;-0.00147834,-0.000960141;
0.00356177,-0.000647754;0.00266916,0.00202637;
-0.00104633,0.00114147;0.00134601,-0.00148671;
0.00100164,0.000101023;0.00129054,0.000515768;
0.000147849,-0.00137218;-0.00195269,-0.00271125;
-0.00072902,0.000677067;-0.00141962,0.000967986;
0.000945409,-0.000314414;0.00106558,0.00046527;
-8.81578e-05,0.00242426;-0.000862158,-0.000737317;
-0.00662702,0.0021614;-0.0023737,-0.0014653;
-0.000846867,-0.00260568;0.000621816,-0.00188766;
-0.000658178,-0.00146976;-0.000632354,-0.000653561;
0.000326013,0.000538994;0.00346232,0.00120875;
-0.0105605,0.00509703;-0.00644572,-0.00209905;
-9.83003e-05,0.00017352;-0.000339434,0.001495;
1.02522e-05,-0.00153602;-0.000907898,-0.000406019;
0.000459317,0.00140793;-0.000404973,0.00120753;
0.00288079,-0.00024722;0.000912642,0.00151912;
#
0.00129144,-0.000287526;-0.000504656,0.000510576;
-0.000959874,-0.000761975;0.000211417,-0.000705094;
0.00122733,-0.000683239;-0.00101159,-0.0010884;
-0.00142386,-0.000310032;-0.00133448,-0.000712411;
-0.000782295,-0.000626753;-0.000920735,0.000701397;
-0.00118324,-0.000407673;-0.000563243,0.00123646;
-0.00140681,-0.000220764;-0.00067155,-0.000657004;
0.0013219,0.00120335;0.00122046,-0.000201987;
0.000837961,-0.000381507;0.000690034,0.000769533;
-0.000590135,0.000148568;0.000891645,-0.000581179;
-0.000354926,-0.00119974;-0.00100819,0.000820704;
-0.00104625,0.000278116;-0.000600889,-0.0010564;
-0.000132915,0.00141084;-0.000743843,0.000210041;
0.000250736,-0.000440596;0.00115711,0.000711278;
-0.00126193,-0.00105207;0.000165512,0.00118668;
0.000278662,0.00134941;-0.00101305,0.000191402;
0.00120253,0.000541101;-0.000880272,-0.00117514;
-0.000629797,-0.00131782;-0.00123576,-0.000628059;
-0.0011662,0.00032047;-0.000215591,-0.000374806;
0.000211174,-0.000250986;0.0010678,-0.000326067;
5.8425e-05,0.000603885;0.00109854,-0.00117266;
-7.26511e-05,-0.00106214;-0.000801855,-0.00125121;
-0.000524746,0.000850635;0.000711797,-0.000752974;
-0.000860073,-0.000654924;2.38863e-05,-0.00102365;
-3.05469e-05,-1.5992e-05;-0.000485479,-0.000250607;
0.00143827,-0.00134379;-0.00117627,0.000309815;
-0.00137226,-0.00116261;-0.000443134,0.00140418;
-0.000140679,0.000322982;-0.000662339,-2.44964e-07;
0.000672948,0.000522927;-0.00125218,-0.00142817;
-6.083e-05,0.000415732;-0.000382272,0.000472412;
-0.000760208,0.000113586;0.00139381,-0.00103057;
0.00110493,0.00121954;0.000936874,0.000360379;
0.000780921,0.000371919;-0.00070848,-0.000969941;
-0.000351515,-0.00086997;0.000833481,-0.000124721;
-0.000405307,-0.00092913;-0.000944018,-0.000384495;
0.000588663,-0.00052783;-0.000717872,0.000916116;
-0.00127695,0.000290906;-0.00107157,-0.00139272;
0.000422255,-0.00117047;-0.00137534,0.000744634;
-0.000261466,-0.00129056;-0.00103766,0.000546094;
-0.00124655,0.00129331;0.000132151,0.0010794;
-0.000456422,-0.00144448;0.000249417,-0.000455615;
-3.5761e-05,0.000916074;-0.00137248,0.000537083;
0.000726512,-5.99484e-05;0.000941787,-0.00140061;
-0.000931434,0.000233125;0.000316625,0.000382772;
0.000448778,-0.000188645;0.000279235,0.000829506;
0.000191009,-0.000338583;-0.000234107,-0.00127301;
-0.00145559,0.000810279;0.000109432,0.000175179;
0.000781597,0.000683163;-0.000223077,-0.000887113;
-0.000621074,0.000375724;0.00015575,-0.000521477;
0.000928869,0.000276951;-2.21712e-05,-0.000583672;
-7.34636e-05,0.00100217;-0.000583839,-0.000937488;
0.00137538,-0.000875686;-0.000801726,0.00120927;
-0.000316093,0.000439042;-0.000433184,0.00105166;
-0.00145289,-0.000564576;0.000298245,-0.000253088;
-0.00118058,-0.000208922;-0.00143307,6.12715e-05;
0.00142974,-0.0010401;-9.63789e-05,-0.001352;
-0.000550873,0.000679614;-1.84152e-05,0.000965541;
-0.000243887,-0.000514905;-0.00101278,0.00039963;
-0.00134939,-8.24963e-05;0.00103306,-0.000907818;
-7.9654e-05,-0.00128654;-0.000742146,-8.59535e-05;
#
0.00021229,0.000696216;-0.000221442,0.000727058;
0.000609507,0.000580277;-0.0010031,-0.000427942;
-0.000676316,-0.000533843;0.000285547,0.000549629;
0.000184634,0.000407988;-0.000343165,-0.000809626;
0.00117812,0.00119867;0.0010387,-0.000827715;
0.000165067,-0.000960107;0.000852288,0.000240304;
-2.87677e-05,0.000174329;0.00121285,0.000792178;
0.000746755,0.00140603;-0.00119508,-3.36923e-05;
0.000763151,0.00127755;0.000869209,-0.000810891;
-0.000667747,-0.00058445;0.000999586,-0.000124222;
-0.000590517,0.000557733;-0.000352137,-0.00114825;
0.000760835,-0.00139165;0.000892307,-0.00117309;
0.00123299,0.000432904;-0.000752011,-0.000827054;
0.000522533,-0.000200436;0.00031742,-0.000146578;
-0.000603897,0.00108282;0.00124048,0.000380987;
-0.000431768,0.00060696;0.000787497,-0.000647661;
0.000405461,-0.00110702;-0.000900827,-0.00103538;
0.00101082,7.35109e-05;-0.000240862,0.000692156;
-0.0011704,-0.000740729;0.000111851,-0.000345078;
-0.00103238,0.000418163;-0.00136576,7.95439e-05;
-0.000989845,-0.000334634;-0.00125177,0.000471038;
-0.000511695,-0.000651686;-0.000598501,0.00114384;
-0.000778836,0.000364032;-0.000982914,-0.00116712;
-0.000184761,0.0012939;-0.00116957,0.00121679;
-0.00105282,-0.00143526;0.000944738,-0.00136066;
0.000296435,-0.00126197;0.00044922,1.82062e-05;
-0.00108707,-0.000366664;0.000601872,-0.000362686;
-0.000367521,0.000350726;-0.000810149,0.00126068;
-0.00115387,-0.000844369;-0.000492409,-0.000194203;
0.00107705,0.000728974;0.000546268,-0.00142379;
0.000306977,-0.00136407;-0.000175036,0.000958635;
-0.00128383,0.000111754;0.000138685,-0.000341202;
0.000815694,-0.000140728;-0.00107616,-0.000350498;
-0.00105422,-0.000787597;-0.000556707,-0.000814527;
-0.00121116,0.00085124;-0.00140842,0.00112289;
0.00120755,0.00057605;-5.34834e-05,-0.000322208;
-0.00135098,-0.00126222;0.00106565,-0.00112066;
0.000687197,-0.000242796;8.00118e-05,-0.000687516;
0.000687531,-0.000412691;-0.000318877,0.00132798;
-0.00139701,0.000950915;-0.000442954,0.000551645;
-0.00111882,0.000826189;-0.000789116,-0.00134074;
-0.00108112,-0.00039964;-0.000994379,0.00126292;
-1.2989e-05,0.00040549;0.00130368,0.00130087;
-0.000944846,0.00133633;0.000364319,-0.0013165;
0.00140761,4.5026e-05;0.0014311,-0.00136793;
0.000272066,-0.00102208;0.000714981,0.00100197;
0.000394636,0.00112036;-0.00114228,-0.000258385;
-0.000214305,0.000554979;-0.000600511,-0.000985417;
0.000667033,0.000102755;0.00107341,-0.000919052;
0.000422718,0.000263982;0.00118903,-0.000843774;
-0.00108831,0.00130393;-7.33758e-05,0.000812006;
-0.000847276,0.00074346;-0.00118667,-9.53739e-05;
-0.000548063,0.0013312;1.39323e-05,0.000242254;
-0.00116239,0.000803229;-0.00114751,0.000264002;
-0.000807964,-0.00111441;-0.000776352,0.000411467;
-0.000541442,-0.000501074;2.25857e-06,-9.13078e-05;
-0.000159575,0.000760507;0.00129924,-0.000715806;
-0.000789808,0.000232303;-0.000250014,0.000441285;
-0.000538697,0.000763344;0.00120117,-0.00139204;
-0.00135428,0.00114862;-0.000767311,-0.00122373;
#
0.000807237,-0.000818263;-0.00180717,0.0010906;
0.000897132,0.00141751;-0.00208028,-0.00150756;
0.0007167,0.000907271;-4.03238e-06,-0.00150996;
-3.82335e-06,-0.00108109;-0.000233778,-0.00161393;
-0.000434643,-0.000783505;0.000342474,0.000944319;
0.00245872,0.000189723;-0.00181721,-0.00413647;
-0.00103108,0.00078069;-0.000992763,-0.000253134;
-0.000248147,0.000219829;0.000386099,-0.0014085;
0.000916809,0.00115364;-0.00107219,0.00160784;
-0.000607703,0.00144847;2.31314e-05,-0.00113918;
-0.000906045,0.00101099;-0.00112261,-0.00085771;
0.00168352,-0.000293234;0.000627008,-0.000764358;
-0.000469331,-0.000895024;-0.000691621,-0.000296868;
0.000338294,-0.000530839;-1.50762e-05,-0.0013973;
0.000135056,0.00130477;-9.48283e-05,9.31658e-05;
0.00119173,-0.0012394;0.000926196,-0.00036382;
0.00051665,0.000319422;-0.000201042,0.000309416;
-0.000892799,0.00105959;0.00119082,-0.0004974;
-0.0005251,0.000864443;0.000557677,7.60116e-05;
0.00122676,-0.000414718;0.000464764,0.000735979;
-0.000991318,0.00109685;0.0013236,-0.000484499;
0.00178454,0.000288095;-0.00124952,-0.0015061;
-0.000795766,-0.00136879;0.00107515,-0.00077447;
0.00135052,0.00135999;0.00103793,9.71788e-05;
0.000334074,0.00118758;-0.000316498,0.00118321;
-0.000550091,4.97256e-05;0.00158723,-0.000220648;
-0.000584694,-0.000387643;0.00024502,0.000830497;
-0.000315605,-0.000163757;0.00161053,0.00194643;
0.000471279,-0.000763739;0.00153497,0.00162005;
-0.00253174,-0.00107091;-0.00147356,-0.00239103;
0.00101516,-0.00334738;0.00150739,0.0004619;
-0.000919767,0.000893751;-0.000541941,0.000162741;
0.000255471,-0.000285405;0.000571773,0.00131122;
-0.00122805,0.000764744;0.000499699,-0.000196308;
-0.000955838,-0.00104247;-0.000408761,0.000364389;
0.000728805,0.00130134;-0.00110428,-0.0011425;
0.00203129,0.00109145;-0.000733477,0.000744229;
7.71064e-05,-4.23875e-05;-0.00137016,0.00140172;
0.000533078,-0.00126951;0.00104375,-0.00022256;
0.00167953,-0.000994118;0.000331581,0.00142674;
-2.57374e-05,-0.000134053;-0.00139153,-0.00139821;
0.00141383,0.000554962;0.00132271,0.00229462;
-0.000442214,-0.00135663;0.000913515,-6.8255e-05;
0.00135469,0.00199633;0.00179009,-0.00229542;
0.000736909,-0.00147332;0.00094667,0.000988854;
-0.00190559,-0.000730991;-0.000543806,-0.00128523;
0.000403736,0.000433294;0.000410212,0.000405812;
0.00122721,-0.000511756;-0.000706006,0.000794688;
-0.000199162,0.00136325;-0.000699889,0.00103432;
0.00159838,-0.00120423;-0.001355,0.000784296;
-0.000517494,-0.000405809;0.000509477,0.00083847;
0.00133283,0.000843146;-0.00283072,-0.000390213;
0.000503084,0.00174585;0.000355553,-0.0013128;
0.00144509,0.00039069;0.000565575,0.00132487;
-0.000320153,0.000451811;-0.00145327,0.000555077;
0.000713571,0.0013533;0.00112267,-0.000561666;
0.000694129,-0.000768453;-0.000520682,0.000248729;
0.00123665,0.0010184;-0.00123672,-0.000402493;
0.00140337,0.00105282;-0.000167098,-5.34779e-05;
0.00151046,-0.000693749;0.00140828,0.00132915;
#
0.00166289,0.00156192;0.000591583,0.000131001;
-0.000476134,8.38965e-05;-0.000176224,-0.00224445;
0.000114408,0.000950518;-0.000932731,-0.000653055;
-0.00206846,0.000577708;0.000637163,-0.000679231;
6.61678e-05,-0.000363281;-0.0013615,3.46861e-05;
-0.00188816,-0.00144723;-0.0021302,0.00169128;
0.00176894,-0.00222714;0.00209678,-0.00170117;
-0.000799003,0.000412341;-0.000656885,-0.000464635;
0.00175088,-0.000699543;0.000903402,-0.000737169;
0.00207932,-0.000718017;0.00104809,0.000336105;
0.000865866,-0.000114088;-0.00146849,0.000414518;
0.00199428,0.000594126;-0.00176431,0.0011224;
-0.000114554,-0.000219467;-0.00121846,-0.00164062;
0.000110467,-0.00111806;-0.00190442,0.000560789;
-0.000691844,0.000927092;0.000134511,0.000708495;
-0.0009089,0.00102701;0.00143721,-0.000241837;
0.00152994,0.000251607;0.000797016,-0.00128599;
-3.20891e-05,0.00113353;-9.36132e-05,-0.00167864;
0.0011644,0.000432683;0.000858685,-0.0013105;
-0.000616298,0.000486543;0.00067939,0.000434482;
0.00131694,0.000321977;-0.0010257,-0.00134181;
-0.000342284,0.000199475;0.00110791,-0.0010827;
0.000151258,-0.000408569;-0.00010079,0.00250273;
-0.00105857,0.000369776;-7.93132e-07,-0.000593645;
-0.00132485,-0.00208006;-0.00235429,-0.00240395;
-0.00108493,-0.00120043;-0.00102976,0.000213546;
0.000363152,-0.000650875;0.000887335,0.000100091;
-0.00199399,0.00309805;0.00083737,0.00296858;
0.00024101,0.00230993;-0.000504733,0.000289544;
-0.00217112,0.00356457;0.0018309,0.00568896;
4.32439e-05,-0.00218588;-0.00234894,-9.8002e-05;
-0.00291247,0.00308341;0.000316946,0.00190043;
0.000184256,-0.000540507;-0.000791393,-0.000634688;
0.00160706,0.00105324;0.00191765,0.000850664;
-0.00144838,0.000319657;-0.00270247,0.000911214;
-0.000542259,-0.000820516;-0.00141955,-0.0010514;
-0.000177106,0.000519578;-0.0014386,-0.000959757;
-0.000211998,-0.000817345;-0.00104186,-0.00133237;
0.00303067,0.000818912;0.00091275,0.000655697;
0.0018442,-0.00142389;-0.000198664,-0.00161061;
-0.00424243,-0.00199214;-0.00162217,-0.00105345;
-0.000121212,-0.00122401;-0.000635094,0.000209567;
0.00073751,0.000566336;-0.00148285,0.00157838;
0.0034162,0.00151856;-0.000244126,0.00229633;
0.00195842,-0.000164325;-0.000693261,-0.0011917;
0.00219484,0.00189257;0.00293645,0.000900656;
-0.0011963,-0.000506658;-0.000408481,0.000322977;
0.00117441,-0.000432894;0.000426068,0.00115677;
0.00143156,0.000266818;-0.00101238,0.00126583;
0.000746602,0.0014614;0.00139112,-0.000329411;
0.00213371,0.000554201;0.00112236,0.00135181;
-0.00162424,0.000988275;-0.00126751,0.00405369;
0.00204997,-0.000327252;0.00157972,0.000701439;
-0.00036244,0.00129816;0.00097752,0.000233303;
0.00140425,0.00356834;0.00299183,0.0017283;
0.00168199,0.000723171;-0.00188605,0.00512924;
0.000853634,3.60629e-05;0.00105469,0.00107684;
0.00111405,0.00124798;0.0014836,0.00115298;
-0.00140915,-8.69391e-05;-0.000655805,0.00115852;
-0.00146875,0.00104644;-0.00171069,0.00116114;
#
0.000167528,-0.000279862;-0.000943008,0.000325946;
0.00127554,0.00124757;0.000999962,0.0004848;
-0.000419023,-0.000521409;-0.00122871,0.000390014;
-0.000986658,0.000140359;-0.00161934,-0.000927563;
-0.000300111,0.000715848;-0.001408,0.00180667;
0.00070266,-0.000533591;-0.00193697,-6.70482e-05;
0.00111662,8.96526e-05;0.000327138,0.000467189;
-3.04491e-05,-0.000273228;0.000995458,0.000567146;
0.00054314,-0.000731318;0.000581551,-0.00096467;
0.00080415,0.00171935;-0.000652931,0.00138928;
0.000305919,0.00111498;-0.00056153,0.000660572;
0.00078641,-0.00111877;0.00104009,7.62334e-05;
0.000536301,-0.000448676;0.00102871,-0.000580396;
-0.00148974,0.00135997;0.000380362,-0.000268829;
-0.000954573,0.000430233;-0.000222138,-0.000110871;
-0.000633268,0.000370514;0.000772171,-0.000967471;
0.000598801,-0.00121779;-0.000734214,-0.000917161;
0.00130525,0.000403985;0.000698262,-0.000329786;
-0.000127332,0.00129862;-0.000439086,0.000737476;
0.00139245,-0.000247036;0.000442917,0.00128886;
-0.000246511,0.00132347;0.000695004,-0.000202082;
-6.83957e-05,-0.00117663;0.000873614,0.000586844;
-0.000567868,-6.4714e-05;-0.000665478,0.00107117;
-0.00090632,-0.000952888;-0.00121292,-0.00134177;
-0.00104747,-0.000772301;0.00109361,0.00123861;
0.000706583,-9.79922e-05;-0.00149769,0.000470316;
-0.000803474,-0.000379457;0.00074907,0.000140916;
0.000572921,0.000980588;0.000855326,7.57461e-05;
-0.000333848,-3.84816e-05;-0.00144004,-0.00102402;
0.00112683,-0.000167118;-0.000366339,0.00144068;
0.00121328,-0.000797843;-0.000879589,0.000376505;
0.000687237,0.000711885;-0.00165579,-0.00041204;
-0.0010978,-0.000741363;-0.000879978,-0.000145856;
-0.000434896,0.000820498;-0.00049611,-0.000943724;
0.00031618,-0.00126655;-0.000184372,0.000292202;
0.000556415,0.000862625;0.0007814,7.70925e-05;
-0.00169694,-0.000531895;0.000624337,-0.00102052;
0.000205271,0.000977626;0.000157156,0.000130514;
0.00176961,-6.34505e-05;0.000603475,0.000234696;
-7.75857e-05,0.00154857;0.000552102,0.00117476;
-0.00112405,-0.000114152;0.000316587,-0.000745682;
0.00133263,-0.0014592;-0.000573921,-0.000605834;
0.00056101,0.000569451;-0.000689668,-0.000662274;
-0.00126001,0.00116467;-0.00137665,-0.00120256;
0.000609491,-0.000690216;0.000967115,0.000950705;
0.00131013,0.000583542;-0.00114984,0.00100901;
5.41886e-05,0.000430103;0.0004454,-0.000799637;
0.00126854,-0.000186041;-0.00137981,0.000822627;
0.000162879,0.000804927;0.0012972,0.00138973;
-0.00133965,-0.000583567;0.000533901,8.98211e-05;
0.000780168,0.00272933;-0.00106536,0.00165571;
-0.000862892,-0.0011058;-0.00196557,0.00011084;
0.000420902,-0.000517123;-0.00127197,0.00040828;
0.000151402,-0.00136583;0.00125106,0.000146763;
2.99787e-05,0.00169969;0.000676871,0.00118126;
-8.62119e-06,0.000930022;-0.00149548,0.00114115;
0.000626287,0.0011143;-0.000424896,0.00134399;
0.000746511,-0.000662345;0.00103686,0.00133784;
0.000624505,0.0002492;-0.00112537,0.00132969;
-0.000840881,-0.000821552;0.000992412,-0.000516638;
#
-0.000839928,-0.000880382;-0.00114566,-0.000348077;
-0.000698764,0.000427668;-0.000742958,0.000645124;
0.000368802,0.00141013;-0.00130654,-0.00143609;
0.000816646,0.00108383;-1.74535e-05,0.00128411;
7.16846e-05,-0.000106143;3.34769e-05,0.000718241;
-0.000983582,0.000245048;0.0013266,0.000782205;
0.00118681,-0.00123713;0.000318287,-0.00115226;
0.000328396,-0.000955028;-0.000506488,0.00139527;
-0.000249358,0.00101156;-0.00072736,0.000260936;
-0.000571906,-0.000106328;5.9639e-05,-0.00116243;
0.00116795,-0.000938632;-0.000201017,0.00115213;
-0.00144014,0.000873018;0.00085764,0.000635031;
-0.000466755,0.000301169;-0.00071212,-0.000672232;
-9.70932e-05,0.000566894;-0.000645282,-0.000427308;
0.00040848,-0.000926458;-0.000874329,-0.0010649;
0.00125486,0.00137203;0.00114972,-0.000525492;
-0.0010435,0.000712738;-0.000424137,-0.00125058;
-0.000810411,-0.000693033;0.000957816,-0.00119521;
-0.000877734,-0.000975948;0.000920299,-0.000568727;
-0.000143855,0.000783542;-0.00134004,-0.000670664;
-0.00102309,0.00105282;0.00102562,0.00106333;
0.000816128,-0.000860153;-0.00074372,0.00106112;
0.00129897,-0.001328;3.20759e-05,0.00145317;
-0.00105632,0.00100117;-0.000102495,-0.000315383;
-0.00126595,0.000221982;-0.00069853,0.000147526;
-0.000129887,-0.000894205;0.000453786,-0.00085824;
0.00106334,-0.000343067;-0.000869565,-0.000168726;
-0.000629372,-0.00140691;-0.0012539,-0.00119546;
0.000713934,0.00134087;-0.000305496,0.000918466;
-0.00121547,-0.000931963;-0.000330123,-0.000686905;
-0.000977873,-0.000140503;-0.00116829,-0.0013023;
0.000889077,0.000234719;-0.000379057,-0.00104285;
-0.000533494,0.000793564;0.000607635,-0.000236984;
-6.324e-05,0.000693137;-0.000259443,-0.000562501;
0.000481456,-0.000906523;0.00100553,0.000139149;
-4.59298e-05,-0.000294944;0.000271529,0.000696972;
-0.000964759,-4.12389e-05;-0.000286441,-0.000592392;
-0.000297424,7.18852e-05;-0.000365367,0.00118898;
0.000846752,0.0012635;0.000989314,-0.000126789;
-0.000509986,0.000707928;0.000848222,-0.00143513;
0.000409609,-0.000160684;-0.00145924,0.000397706;
0.000932317,-0.000658946;-0.000587532,-0.000703917;
0.000448414,0.000933577;-0.000425876,-0.000946499;
-0.000789778,-0.000914883;-0.000132156,-0.000399389;
0.00117465,-0.0013198;-0.000485559,-0.000697407;
-0.000164306,-0.000721961;0.000190248,-0.000256758;
-0.000726992,-0.000738736;-0.00112852,0.000372939;
-0.00117001,0.000675772;0.00104273,-0.000254265;
0.000252515,-0.00102498;-0.00104898,-0.00126899;
-0.00016362,0.00039673;-0.000765282,0.000863626;
7.38091e-05,-0.000745654;0.000209167,-0.00122121;
0.00052194,0.000599545;-9.49484e-05,-0.000851241;
0.000885769,-0.00119031;0.00122359,-0.000853202;
-0.000686608,-0.000263491;0.000500356,-0.00103993;
0.000264433,5.07201e-05;-1.43414e-05,0.00133538;
0.000750025,-0.00106636;0.000856547,-1.3515e-05;
0.00133382,0.00107565;-0.00046086,0.00129251;
-0.000763036,-0.000566038;0.00144805,-0.000896791;
0.000397536,0.00058467;-0.000502901,-0.000732221;
0.000199706,0.00102724;0.000830056,0.00121327;
#
-0.00153531,0.000870828;-0.000251913,0.000526538;
-0.0013277,0.000170461;0.00129765,-0.00128138;
0.00109989,-0.000672233;-0.000483278,-0.000444676;
-0.00177395,0.000604728;0.00132713,0.00116124;
-0.000526898,0.00092162;-0.000429656,0.000282146;
0.00177443,0.00133496;-0.00131678,-0.00219329;
3.60431e-05,0.000600355;0.00132376,0.00214321;
0.000943896,-0.00116295;3.99032e-05,0.000603775;
0.000122437,1.6119e-05;0.000837858,0.0022063;
-0.0006046,0.000488603;-0.00128134,0.00112561;
-0.000190501,0.000323335;-0.000257786,-0.000484053;
-0.00129864,0.000574443;-0.000597772,-0.000751046;
-0.000487333,-0.000169255;-0.00119095,0.00169043;
0.000653933,0.00194924;-6.48428e-05,-0.00160908;
-0.000867973,-0.00019899;0.000148421,-0.000489201;
-0.000486818,-0.00112137;0.000324894,-1.28224e-05;
-0.00113447,0.00104903;0.0007398,-0.000823788;
0.000850294,0.00101791;-0.00117325,-0.000785984;
-0.000648234,0.000295049;0.00127541,-0.000431959;
0.00115013,-0.000742353;0.000757938,-0.000206992;
0.000843487,0.00105781;0.000226328,0.000988217;
-0.000353569,0.00101485;0.000369777,-0.00141664;
0.000366931,-0.00120109;0.000905607,-0.00155465;
-0.00113939,5.01141e-05;-0.000999448,-0.000735312;
0.001869,-0.000898759;-0.000463751,0.00109031;
0.000719991,0.00125515;0.000979046,0.00130967;
-0.000619048,0.000912473;-0.00102023,-4.35639e-05;
0.000150217,-0.00176382;-0.00081706,0.000619833;
0.0011173,-1.07963e-05;-0.00128566,0.000387291;
-0.00186814,-5.67179e-05;-0.00230112,-0.00105892;
-0.000862259,-0.000503381;-0.00111494,0.000649054;
0.00174043,-0.000467082;-0.00150911,-0.00131147;
0.00127256,-0.00115485;0.00114955,-7.64972e-05;
-0.00106836,0.000940614;-0.000244077,-0.000652947;
0.000586571,-0.00148093;-0.000710267,0.000196656;
0.000994453,-0.00118205;-0.000589842,-0.00102928;
-0.000251933,0.001886;-0.000582998,0.000611084;
0.000583346,0.00050767;-0.000211766,-0.000755729;
-0.000303022,-0.001782;-0.000211807,0.00194946;
0.00041099,-0.00014019;0.000714807,0.00145053;
0.00131803,0.000637205;-0.000759493,-8.8883e-05;
-5.2773e-05,1.1075e-05;0.00148818,-0.00110442;
-0.00122065,-0.000509841;0.00110664,0.000386292;
0.00149623,-0.000293042;0.0020114,0.00183481;
0.00137886,0.000840052;-0.000237281,-0.000187724;
0.000156202,0.000780252;-0.00100079,-0.000803373;
-0.000356168,-0.000484222;0.000999997,-0.000307725;
-0.000968552,-0.00119465;0.000986644,-0.00167526;
-0.00115692,-0.000566818;0.000301526,-0.00123447;
-0.00122618,0.000479541;0.00116232,0.000238877;
0.000647534,-0.00141907;0.00103428,0.00199353;
-0.00110823,0.00144722;-0.00163981,-0.000586246;
0.000631469,0.00184349;0.000746087,-0.000601657;
-0.000354556,-0.00122425;0.000897435,-0.00108217;
0.000514906,-0.000551026;-0.00134193,-0.00108092;
0.00162097,0.00153487;0.00111648,-3.42024e-05;
8.0095e-05,0.000932448;-0.000454578,0.000203887;
-0.00101099,-3.55565e-06;0.000683747,-0.00101415;
-0.000682584,-0.000239162;-9.08841e-05,-0.00140126;
0.00036734,0.000410379;0.000664037,0.000433198;
#
0.000670158,0.000859489;-0.00100669,0.00100095;
-0.000606004,0.00104714;0.000434536,-0.000855003;
0.00081031,0.000159453;-0.00139593,3.88746e-05;
0.00107897,0.00107569;-0.000354385,-0.00126444;
-0.000374799,0.000162632;0.000679093,-0.00132423;
-0.000586714,-0.000718698;-0.000870332,-0.00105485;
-0.000348536,-0.00134551;2.80715e-05,-0.000160296;
-0.000265264,0.000898658;0.00131773,-0.00126049;
-0.000487554,0.000964158;-0.000122498,0.000943023;
0.000320514,-7.64695e-05;-0.000870911,0.00119333;
-0.00127814,0.000108291;0.000226206,0.000917577;
-0.000342316,-0.000472806;0.000153503,-0.00024346;
-0.000783953,0.000919229;-0.000984313,-8.90897e-06;
4.63402e-05,-0.000462991;-8.62467e-05,0.000442023;
0.000535741,-0.00129808;-0.000715908,0.000761136;
-0.00102908,-0.00132948;0.000857305,-0.000691826;
0.000100785,0.000190065;0.000181124,-0.000869078;
-0.00114759,0.000442345;-0.000790342,0.000417924;
0.00123902,-0.000532061;-0.00143383,-8.37745e-06;
0.00120596,-0.00129696;0.000678667,-0.000325689;
-0.00115762,0.000617902;-0.000129602,0.000818353;
-0.00073588,-0.00103743;-0.000987414,-0.000600481;
-0.00121832,-0.000105888;0.000345236,-0.000396023;
-0.000553554,0.000156172;0.000439336,-0.00138407;
0.000788505,0.00118982;-0.000233964,0.000496666;
-0.00101822,-0.000790504;-0.00139604,-0.000470991;
-0.000496476,-0.000919218;0.000868748,-0.000190416;
-0.000142186,0.000866346;0.000630719,0.000904181;
-0.000623182,-0.00120268;0.00073593,0.00121429;
-0.000735543,-0.00103576;-0.000794537,-0.000196507;
-0.000535753,-0.0010371;0.000498894,-0.000390859;
-0.00124088,-0.000165636;0.0013991,-0.00132635;
0.000834412,-0.000634679;-0.00032484,-1.90121e-05;
0.000354176,0.00136639;-0.000810923,0.000162824;
0.000845143,0.000988801;0.00129299,0.0014307;
0.000592519,0.00134007;-9.11539e-05,0.000925855;
0.00119457,-0.000398138;-0.000416813,0.000947507;
-0.0010878,-0.000496915;-0.0014026,0.00118393;
0.000386264,-9.71644e-06;-0.00135858,0.000114842;
-0.000905318,-0.00051238;0.00109264,0.000898747;
-0.000943082,-0.000423497;0.000971773,-0.00117271;
-0.000688064,0.000137574;0.000685207,0.000822726;
-0.000981645,-0.00134634;0.000116262,-0.00117719;
2.18985e-05,-0.00115066;-0.000619801,0.00121196;
-0.000223233,0.00136117;-0.00141351,-0.00129379;
-0.000464991,0.00130666;-0.000854969,-0.00143098;
0.000167045,0.00105983;0.000444013,6.99743e-05;
-0.00061457,-0.0013485;-0.00127063,0.000957652;
0.000493815,0.00108236;0.000285939,-0.00029438;
-0.00098165,-8.98005e-05;-0.000244895,0.000701552;
0.000158987,0.000514065;-0.000812629,0.00129272;
0.000584881,0.00128796;0.000575341,-0.00116319;
-0.00102509,-0.00123229;-0.000188024,0.000166042;
0.000623487,-0.000285924;0.000865703,-0.00132089;
-0.000631773,-0.000179396;-0.00128991,-0.00105113;
-0.00136833,-0.000171794;0.00104659,-0.000674203;
-3.3496e-05,-0.000411299;0.000578151,-0.00121681;
0.000637451,0.00119797;0.000825094,-0.00134587;
-0.000319102,-6.72287e-05;-0.00134271,-0.000667345;
0.00136525,-0.00150245;-0.000791771,-0.000912197;
#
-6.90944e-05,-0.000360311;0.000721671,-0.000754818;
0.000812121,-0.000403585;6.13618e-05,-0.00114558;
0.000899921,0.000185046;0.000358084,-0.000102386;
0.00131488,0.000148875;0.000732557,-0.00106455;
-0.00017755,-0.000635993;0.00109401,-0.00104658;
-0.00130163,0.000651985;0.00120751,3.77113e-06;
0.000652606,0.000617761;0.000800048,-0.000226208;
0.00119661,0.000585882;0.000829262,0.000371572;
0.00124404,0.000317435;-0.000868398,-0.00102142;
0.000813111,-0.000333044;2.12398e-05,-0.000731379;
0.000411801,-0.000326979;0.000549514,6.51332e-05;
0.000503278,-0.000821655;0.00142516,0.00111137;
-0.00132958,-0.000302105;0.000302546,3.4447e-05;
0.000151865,0.0013548;0.000320497,0.00125359;
0.00106127,0.000160103;-9.30336e-05,0.000825306;
-4.35678e-05,-0.000457783;-0.000625791,-0.000156561;
0.000584633,0.00112315;0.000107002,-0.00114662;
-8.38485e-06,0.000324716;0.000405105,-0.000393323;
0.000461488,-0.000225654;0.00121552,-0.00111123;
0.00122766,-0.000644899;-0.000109907,-3.07969e-05;
-0.000995301,0.000301271;0.000829817,-0.000543984;
0.000673304,-0.00112436;0.00123141,0.000496432;
-8.29356e-05,-0.00088039;0.000986781,-0.00139212;
0.000992575,-0.00137978;0.000435933,0.00130315;
-0.00112099,-0.00140064;-0.000991663,-0.000140133;
-0.00072612,0.00130084;0.000201675,0.000436593;
0.000732973,-0.000165992;-0.000484613,0.00103744;
0.00142603,-0.00130655;-0.000603171,0.00144882;
-0.000101243,0.000489118;-0.000821195,0.000415065;
-0.000428412,0.000534591;-0.000593757,0.000390021;
-0.000638666,6.86793e-05;-0.000766184,-0.00125682;
-0.00107619,0.00130701;-0.0012139,-1.50181e-05;
0.00115797,-0.000942624;-0.000209934,-0.000937202;
0.00131883,0.001373;0.00137468,4.73361e-05;
0.000788793,-0.00128317;-0.00111514,-0.00101244;
-0.000917508,0.000498245;-0.00106396,-0.000186683;
0.00072618,-0.000529488;-0.000168777,-0.00145366;
0.000934796,-0.00100311;0.000501899,-0.00130789;
-0.001334,0.0011199;-0.000770401,-0.000607696;
0.000708226,-0.000129748;-0.000986979,-0.000210096;
-0.000586197,-0.000655891;-0.000127565,0.00139127;
-0.000489036,-0.00046994;0.000926416,0.000267579;
-0.000637841,0.00114881;9.66658e-05,0.000676818;
-0.000684043,-0.000916356;0.00128111,-0.000696749;
-0.000465098,0.00128423;-0.00105988,-0.000641558;
-0.000556668,-0.00141235;-2.59135e-05,0.00143489;
0.000283338,-7.91724e-05;-0.000795365,0.000589274;
0.000972631,-4.11122e-05;0.000457682,-0.000189701;
-0.000774731,-0.000598731;-0.0009052,-0.000985059;
-0.00120964,-0.000273072;-0.00144405,-0.000412341;
-0.000291632,-0.000523366;-0.00118873,3.15602e-05;
0.000626856,-0.0014137;0.00114768,0.000751882;
0.000557163,-0.000106511;4.98433e-05,0.000477213;
8.50261e-05,-0.000523193;0.000664468,0.000419956;
0.000603976,0.00143045;0.00120409,-0.000476707;
-0.00106936,-0.000877859;-0.000798704,0.000863755;
-0.000945645,0.000449386;-0.000610778,0.000234019;
0.00104751,-6.35071e-05;-0.00141043,0.00123699;
-0.00103617,0.000693532;2.25004e-05,-0.00143207;
0.000361742,-0.000610442;-0.0013329,-0.000463655;
#
-0.00146013,-0.000562627;-0.00162536,-0.00116382;
-0.000430746,0.000980153;0.00197608,-0.00107244;
-0.00169633,-0.00128298;0.000922878,0.000257468;
0.00171253,0.00259285;-0.000612768,0.00162971;
0.000581904,-0.000780292;0.000775478,0.00134388;
0.00195449,2.61534e-05;0.000572575,-0.000976489;
-0.00187495,0.00349428;0.000561913,-0.00222955;
-0.000605152,0.00110905;-0.00031866,0.000986986;
-0.0019977,0.00119444;-0.00288154,-0.00249314;
-0.00100649,-0.000490074;0.00052363,0.000582077;
-3.75661e-05,-0.000309201;0.000431938,0.00131875;
0.00127674,-0.000559062;0.000564488,-0.00111878;
-0.000369661,0.0016372;-0.000801825,-0.00230428;
-0.00071094,-0.000925696;-0.00206121,-9.96421e-05;
-0.00142275,0.000301396;7.22843e-05,-0.00120478;
-0.000958299,0.000589789;0.000286561,-0.000432493;
1.49999e-05,0.00279055;-0.00128886,0.00138143;
0.000421966,-7.40643e-05;-0.00246407,-0.00128239;
-0.000469974,0.000709278;6.34124e-05,-0.00117498;
-9.73151e-05,-0.000151729;0.000448227,0.000632071;
0.0003584,0.000615695;-0.000485509,-0.000939079;
-0.00018948,0.000712163;0.000156003,-0.000733217;
-0.00139757,0.000241871;-0.000304677,-0.00224601;
-0.0013808,0.000764253;0.000944169,0.000554984;
0.00235217,0.00232661;0.00193872,0.00182739;
-0.000691252,0.00131301;-0.0011556,-0.00103243;
-0.00138441,-9.58453e-05;0.00121997,7.35563e-05;
0.000254919,0.000791288;-9.57318e-06,0.000773475;
-0.00171971,-0.000819594;0.00142055,-0.000300146;
0.00190311,-0.00299321;0.000808364,-0.00290762;
-0.00281058,-0.00306605;0.00105165,-0.00236747;
0.000388787,-0.0046494;0.000114371,0.00167911;
-0.00257569,0.00237186;-0.00151368,-0.000575391;
-0.000297332,-0.000721168;-0.00147322,-0.000363127;
-0.000627393,-0.000537465;-0.000666304,-0.000476255;
0.00044749,-0.000924343;0.000600145,0.000513391;
0.00154605,0.00147045;0.00126162,0.00150336;
0.000390851,-0.00125913;-0.00058523,0.00130352;
-0.00134009,0.00108884;-0.00155875,0.000812083;
0.000800508,-0.00101145;-0.000360223,-0.000410856;
0.00154829,0.00162321;0.00365728,0.00291344;
-9.52124e-07,-0.00179412;-0.000841343,-0.00146305;
-0.00295671,-0.00135838;-0.00218274,0.000369608;
-0.000418097,0.00217315;-0.00243195,-0.00194298;
-1.37378e-05,-0.00164175;-0.00146522,-0.002107;
-0.00257658,-0.00230053;-0.00210803,-0.000629083;
-0.000459498,-0.00120974;0.00020119,-0.00179944;
-0.00155414,-0.000313103;1.15249e-06,0.000303331;
-0.00110175,0.00137087;-0.000686033,0.000271265;
-0.00132901,5.04599e-05;-0.000372033,-4.84233e-06;
-0.00241183,0.000995281;0.000169186,0.000691826;
0.0027621,-0.000469929;0.00177354,0.000160301;
-0.000592235,0.00287332;-0.000926708,-0.00108501;
0.000612225,0.000118225;-0.0012102,-6.83385e-05;
-0.00298585,-0.000186863;-0.00262756,-0.00240909;
0.00278224,-5.31565e-05;-0.000943004,-0.000500107;
0.000312734,-0.000416332;-0.001002,0.000901534;
0.000764739,-0.00168221;0.000974314,0.000345249;
-0.00042334,0.000345279;-0.000363564,0.000785963;
0.00158342,0.00394123;0.00240359,-2.35032e-05;
#
0.000172259,-0.000148403;-0.00110122,-0.0011344;
0.000131322,0.000512393;-0.000210509,-0.00104934;
0.000361115,0.00105923;-0.000788417,-0.000282172;
-0.000628824,0.00138074;0.000507313,-0.000735241;
-0.000902412,-0.000469154;0.000282442,-0.000459446;
0.000308682,-0.000501623;0.00117761,0.0011927;
-2.74573e-05,-0.000537733;0.00116816,-0.00133741;
-0.00100403,0.000752188;0.000910297,0.00141814;
-0.00121751,-0.000638747;-0.000407994,0.00107379;
-0.000227716,0.000548636;-0.000923957,-0.000899387;
-0.00141272,2.94546e-06;0.00110037,-0.000541901;
-0.00130473,0.000653205;0.000407174,0.000218208;
-0.000834207,0.000994559;-0.000113272,0.00052882;
-0.000700266,-0.000368715;1.38998e-05,0.000396812;
-0.000144668,0.00134698;0.000832837,-0.00122679;
-0.000199389,-0.00100405;-0.000448925,-0.00120915;
0.000514539,-0.00145421;0.000857005,0.000562611;
0.000853936,0.00121272;0.000335868,0.000829281;
0.000809739,-0.0011077;3.11485e-05,0.0013176;
-6.58679e-05,0.000819999;-0.00081987,0.00104784;
0.000225117,0.00095306;0.00118039,0.00134456;
-0.000110393,0.000404232;-0.00126405,-0.000477446;
0.000619429,0.000290707;-0.00141016,0.000337838;
0.000350586,0.00127037;-0.000462389,0.00107794;
-0.000210756,-2.52121e-05;0.00108774,-0.00114061;
-0.000481164,-0.000165885;-0.000911467,0.00106032;
-0.000896844,4.28601e-05;0.00135566,-0.00078495;
-0.000358524,0.000706915;-0.00107534,-0.000303866;
0.000296811,-0.000211803;-0.000268987,-0.00115033;
-0.000254051,-0.000970736;-0.000473931,-3.27016e-05;
-0.00132998,-2.43079e-05;0.000113761,-0.001241;
-0.000589755,-0.000498274;-0.000674638,-0.000747036;
-0.00137278,0.00134552;4.82162e-05,-0.000725347;
-8.54427e-05,0.000530796;0.00139081,0.000507769;
0.000875981,-0.000459334;0.000795738,-0.000819542;
-0.000594193,0.000428987;0.000979593,-0.000980422;
0.000798878,0.00126837;0.000606925,-0.0013612;
-0.000118884,-0.000299169;-0.000735977,2.55781e-05;
-0.000752466,0.00109534;-0.000866531,0.000120869;
0.000960689,0.00111421;-0.00134263,-0.0012847;
0.00105963,-0.00105799;0.000434137,0.00132425;
0.000111577,0.00114123;-0.000698609,0.00124306;
4.33524e-05,-0.000194941;0.000942279,1.63646e-05;
-0.000531161,0.000500293;0.00142189,-0.000481312;
0.00120814,-0.000350872;0.00102251,0.000726774;
-0.00140425,-0.0012044;0.000783302,-4.2234e-06;
-0.000583152,-0.000591017;-0.000896961,0.00111288;
-0.000871377,0.00144817;0.00119099,1.48144e-05;
-0.00063581,-0.00131124;-0.0013356,0.000355883;
0.000463937,0.000787994;-0.00101194,0.000689839;
-0.000625385,0.00135252;0.000679894,0.000307167;
-0.00122323,-3.23712e-05;-0.000886546,-0.000625817;
0.000186608,0.00128748;-0.000371592,-0.00021687;
-0.000930959,-0.00101547;0.000208195,-0.000930661;
0.000761986,-0.00109565;-0.00139332,0.000935263;
-0.00127457,-0.000482391;-0.0010993,-0.000424836;
-0.000873166,-0.00112533;-0.000755894,-0.000913075;
-0.000721563,0.00136545;-0.000587811,-0.00108736;
0.000292328,-0.000505999;0.00044085,-0.000253463;
-0.0012577,7.88063e-05;0.00138725,-0.00051307;
#
-0.00071491,0.000151853;-0.000546725,-0.00023726;
0.000466725,-0.000734909;-0.000462249,-0.00114185;
-0.00126622,-0.000840874;0.00040356,0.000626078;
-0.00128551,0.000914775;-0.000163524,5.58116e-05;
0.000190081,-0.000663138;-7.657e-05,0.000659925;
-0.000431237,0.00125187;0.00117289,-0.00128207;
0.000772972,-0.000908324;-0.0011026,0.000962367;
0.000544264,0.00123992;0.00120822,0.000744298;
0.000306585,0.000762642;-0.00144172,0.00074627;
0.000428803,-0.000159716;-0.000411681,-0.000507639;
-0.000984904,0.000508834;-0.00094389,-0.0008541;
-0.00130986,-3.73739e-05;-0.0010471,0.000982379;
-0.000541894,0.000735207;-0.000235129,0.000208787;
-0.000725466,0.00138944;0.000379884,0.000293173;
0.000838611,0.000162171;-0.000703093,0.000954599;
0.00110468,0.000258055;-0.00110244,-0.000119627;
-0.000358827,0.000267381;0.000904309,-0.000768747;
4.24034e-05,0.000922283;-0.00106633,0.00119257;
0.000262356,-0.000582132;0.00144082,-0.000700667;
0.000522677,0.00109702;-8.22732e-05,0.000532603;
-0.000417475,0.000629528;0.000571435,0.00143225;
0.000113025,-0.000843967;0.000622494,0.00130786;
-0.000318094,0.000580799;-0.000540594,0.000794343;
-0.00102258,-0.00106022;0.00125252,0.000117492;
-0.00143898,-0.000935301;-0.00149313,-0.00108948;
0.000437922,-0.00106276;-0.000873009,0.000729163;
0.000442929,0.000359601;0.000753905,0.00118423;
0.000481627,0.000437069;0.000518583,-5.16581e-05;
0.000687299,0.000621188;0.00112025,0.00130088;
-0.00102227,0.000251112;0.000327075,-0.000735942;
-0.000586455,0.000167831;-0.000453803,-0.000434814;
-0.00128843,0.000843009;-0.000986633,0.00126851;
-0.00032535,-0.000309756;-0.00109248,-0.00111713;
0.00120386,-0.000818622;-0.00130617,0.00116968;
0.00085353,-0.000659435;0.000974429,-0.000450186;
-0.000880963,0.000684162;-0.000845586,0.00135391;
0.000423365,0.000999253;-0.00124455,-0.00108275;
0.000811585,0.000105407;-0.00122938,-0.00130229;
-0.000286686,0.000674412;0.000331063,0.000198521;
0.000352388,-0.000300727;0.000944861,-6.93278e-05;
-0.00113928,-0.000903102;0.00121491,-0.000740508;
-0.00129473,-0.00146376;-0.00128088,0.000521209;
0.00115411,0.000179926;0.00122389,-0.00113858;
-0.000615917,-0.00139369;0.000354373,0.00116389;
0.00113998,-2.54949e-05;0.000998623,6.98857e-05;
-0.000459519,0.000258566;-0.000150901,-0.000526116;
0.00068218,0.00024065;-0.00134883,0.00126507;
-0.00097707,-0.00127172;0.000268846,0.000385693;
0.000521029,0.00135897;-0.000450995,-0.00108917;
-0.000989571,-0.000433803;0.00142651,-0.00098229;
0.000934496,-0.000256998;0.00133055,0.00128304;
-0.000340317,0.000382932;0.00112652,0.000473114;
-0.000211376,0.000804931;-0.00117901,0.000837181;
-0.000660402,0.00128138;-9.00468e-05,-0.00108368;
0.000257375,-0.000244681;-0.000667568,0.000252968;
0.00114526,0.000697011;-0.00105201,-0.000514094;
0.000332386,0.000348066;-0.00139606,-0.0011924;
-0.000289128,0.00047191;0.000444362,9.77115e-05;
-0.000318534,0.0012259;-0.000661407,-0.00073639;
0.000546452,-0.000197373;-0.000855454,-0.000602967;
#
-0.000362458,-0.00134049;0.000939651,-0.00281845;
0.000493403,0.000229477;-1.00028e-05,0.000736554;
0.000563948,2.52994e-06;-0.000696269,0.000821142;
0.00111756,-0.000531474;0.00197074,0.00196458;
0.00154098,-0.00143513;0.00340814,-0.00201629;
0.000469455,0.00145573;0.00170615,0.000993299;
-0.000341291,-6.78229e-05;-0.00167751,-0.000928608;
-0.00130396,0.000320956;-0.000193789,-0.000557731;
-0.000211222,0.00182793;-0.0024254,6.95452e-05;
0.000421454,-0.00122522;0.000851706,-0.00147152;
0.000787007,-0.000512954;-0.0012506,0.000772666;
-0.00147782,0.000131692;0.000217119,0.000182011;
3.58627e-05,0.00109489;-0.00123775,0.000540505;
0.00104482,-0.000154804;0.000341721,0.000756481;
-0.000527139,0.000325574;0.00109343,-0.00127107;
-0.00142579,-0.00105174;0.000583828,-0.00109084;
-0.00112669,4.19762e-05;-0.000792697,0.0018908;
-0.00170396,-0.00228586;-0.00306624,-0.000896352;
-6.70363e-05,-0.000243642;-0.000382579,0.00124584;
-0.000520201,0.00120318;-0.000233987,-5.93741e-05;
-0.00106963,-0.000802626;-0.00222762,0.000334117;
0.000348497,0.000396717;0.00091573,0.000134156;
-0.000318984,-0.00146219;-0.000405543,-0.000605387;
-0.00110303,0.000537698;-0.00136784,0.00119138;
0.0024514,-0.000876644;0.00287397,0.000535022;
0.00109422,-9.50114e-05;0.000897155,0.00152672;
-0.000186806,-0.00119872;0.000701771,-0.000776761;
-0.000459772,-0.00256817;-0.00129288,5.26281e-06;
-0.00024933,-0.00193953;-7.70164e-05,-0.00269853;
0.00113665,-0.00412033;0.00184197,-0.000472313;
-0.000958099,-0.000689669;0.00275052,-0.00192496;
0.000252099,-0.00165493;0.000280942,-0.00210572;
-0.000742246,0.0022465;0.000411718,-0.00183547;
-0.00155656,0.000951994;0.000326899,-0.000106936;
-0.000311033,0.00141509;-0.00184779,-0.00180074;
-0.000495087,-0.000671285;-0.000768377,-8.58243e-05;
0.00151673,-0.00145358;-0.0010378,-0.000572603;
0.000676991,0.00037699;-0.000838088,-0.000510026;
-0.00185004,0.000391402;-0.000203849,-0.000746555;
-0.00127325,0.000838685;0.000788866,0.00113646;
3.40133e-05,0.000757832;0.00511015,0.000698933;
-0.000491404,-0.00137941;-0.00180007,0.00291531;
-0.00122867,0.00127943;-0.000854049,-0.00253778;
2.13626e-06,-0.000744758;-0.00102064,0.00105598;
-0.00247222,0.000285367;-0.00245802,0.00157148;
-0.000714558,0.000514715;-0.000415327,-0.00121998;
-0.000408886,-0.000555408;-0.00102529,-0.000306104;
0.0010337,-0.00101469;0.00042348,-0.00164864;
-0.00053601,-0.000312671;-0.000254356,-0.000616795;
0.000205673,0.000286249;-0.000788174,-0.000335768;
-0.00135613,-4.33778e-05;0.000192887,-0.000368364;
0.000604264,-0.00274387;0.00329156,0.000797875;
-0.000265845,-0.000891282;3.45015e-05,0.00136043;
0.000663617,-0.000601715;-0.00136949,0.00137096;
-0.00306293,-0.00318916;-0.00334015,-0.00246547;
0.00181265,-0.0025273;0.00320751,-0.000495018;
0.000538498,-0.00150843;-0.00036755,-0.000818364;
-0.00126238,0.00063224;-0.000693035,-0.000855335;
0.00112965,-0.00124427;-0.000823977,0.000800217;
0.000885293,0.000164216;0.00129388,-0.000559678;
#
-0.000754697,0.000498336;0.000681807,-0.000342147;
0.000282138,-0.000141777;-0.000898948,0.000597388;
-6.97998e-05,-2.29023e-05;0.000963931,0.00125039;
0.00107706,0.00140781;-0.000180883,0.00139848;
5.11523e-05,0.000697166;-0.00115878,0.000762815;
-0.00101864,-0.000781183;-0.00126569,-0.00110121;
0.00108775,-0.00123274;-0.0009622,0.000220701;
-0.000902552,-5.32793e-05;0.00136754,-0.00144584;
0.000775081,0.000366207;0.000137538,-0.00037484;
0.000181961,-0.000814674;-0.00137704,0.00126723;
-0.000589497,-0.00129643;0.00122975,0.00122385;
-0.000831145,-0.000245563;-0.00058483,-1.03957e-05;
-0.00100619,-0.00133665;0.000613977,-0.000252174;
0.000163719,-0.00131397;-0.000544377,-0.000983082;
0.000143751,0.000351201;-0.00141196,0.00034369;
0.000952416,0.000563802;0.000498854,-0.00104448;
-0.000256407,0.000412555;0.000891415,0.000330141;
0.000206137,-0.000684149;0.000717848,0.000339348;
0.000940342,0.000680972;0.000986428,-0.00067032;
-0.000162974,0.000235622;-0.000507902,0.00063731;
-0.000180831,0.00137681;-0.000151468,-0.000465001;
0.00065812,-0.000225379;0.000250032,-0.000117155;
-0.00043262,-0.000584578;-0.000195594,-0.000585446;
-0.00124916,-0.000853213;-0.000645896,-0.000554036;
-0.0011968,-0.000219825;-0.000117349,0.000853072;
0.000339234,-0.00117976;-0.000485253,0.000333346;
0.00101806,0.00113687;0.000716929,-0.000245993;
0.00110673,0.000648544;0.00125806,0.000299742;
-0.000598466,-0.00137141;-0.000790678,-0.000157882;
-0.000791806,-0.000620461;0.00142452,0.000210266;
-0.000589389,0.000136206;-0.000416969,0.000551598;
-0.000822489,-0.00145942;0.000536653,0.00052304;
0.0011303,-0.00129926;-0.00112857,0.00049193;
2.47544e-05,-0.000567679;-0.00072714,0.000494853;
0.00112715,-0.000943176;-0.000847555,0.00143551;
6.04257e-05,-0.000386449;0.000444742,0.00145466;
0.000959954,-0.000417369;-0.0009107,-0.000304849;
-0.0011995,0.00104417;0.000375362,0.00122853;
0.000490566,-0.000680946;0.00040962,0.000806072;
0.000352495,0.000697544;-0.000867105,0.000144587;
-0.000484019,-0.00114458;-0.000638713,-0.00142261;
0.000157135,-0.000767658;-0.00119219,0.000184057;
-0.00067708,0.000214157;-0.000232758,0.00050085;
0.00114461,-0.000631899;-0.00142189,0.000313485;
0.00114496,0.000769772;-0.000530276,0.000553532;
-0.00048537,0.00130941;0.000363631,-0.00139839;
-0.000923793,0.00096521;-0.00107559,2.68536e-05;
-0.000324262,0.000721004;0.00109718,0.00125325;
-0.00141762,-8.91901e-05;-0.00103317,0.000111915;
0.00128241,-0.00115044;0.000609401,-0.000828959;
0.000987189,-0.000923286;-0.000661107,-0.00122465;
0.000151949,-0.00147476;9.45812e-05,-3.19994e-05;
0.000157846,-0.0010487;0.000653792,0.00084016;
0.000485007,-0.000695278;0.000196547,-0.00128162;
8.03556e-05,-0.00140026;0.00122977,0.00086976;
0.000608792,0.00127462;-0.000861304,-0.00102908;
0.00138642,-0.00139325;-0.000669305,-0.000504251;
-0.000538503,-0.00141184;-0.000282571,0.000345239;
0.000807256,-0.000727686;6.67284e-06,-0.00139456;
0.00110314,-0.000492363;0.00120948,-0.00141091;
#
-0.0010154,0.00138865;0.000855664,-0.000786202;
0.00023428,0.000969195;3.50328e-05,0.00177077;
-0.00180584,-0.000994999;-0.000438996,0.000807404;
0.00158027,-0.00220938;0.00188903,0.000357312;
0.00212326,0.000709167;-0.000517003,0.000179844;
-0.00110774,-0.00132606;-0.000244393,-0.00156087;
0.000780121,0.000338016;0.0026714,0.00292841;
0.000822462,-0.00114905;-0.000609466,0.000743008;
0.00432097,-0.00274584;0.00436905,0.000397333;
-0.000463748,-0.000164228;-0.000734971,-0.00068425;
-0.000775123,0.00104889;-0.00128453,0.000644454;
-0.00136963,-0.00084259;-0.000144727,0.000764804;
-0.000916962,0.00377075;0.00175945,0.00355615;
-0.00150862,-0.00123779;0.00177308,-0.00178943;
-0.00109978,0.000130498;0.00114044,0.00207054;
0.000146699,-0.00135799;2.10389e-06,0.00134225;
0.00201276,-0.00280527;-0.000465245,-0.000158677;
0.00253525,0.00392995;0.00302923,0.0033038;
-0.000538439,0.000618791;0.000415604,-0.000290117;
-0.00122428,-0.00120631;8.20744e-05,0.00114598;
0.000909202,0.00178409;0.000920624,0.00220615;
0.000203002,-3.51252e-05;-8.84537e-05,-0.00170709;
-0.000776877,-0.00120383;-0.00136122,0.00112761;
0.000290195,0.000758148;0.000315244,0.000144964;
0.0038182,-0.00107811;0.00178326,-0.000322218;
0.000342866,2.12539e-05;0.000200323,0.00203593;
0.00110561,0.000964791;-0.000813094,0.00121582;
-0.0039025,0.0018127;-0.00152489,-0.00156295;
0.00221336,0.00179143;0.0004788,-0.000475541;
-0.00102693,-0.00188397;4.86255e-05,0.0016064;
0.000757265,0.00128244;-0.000793772,0.00035059;
-0.00453535,0.00094042;-0.00233797,-0.0029081;
0.000447607,0.000264672;-0.000752868,0.00336672;
6.31359e-05,-0.000773172;-0.00158199,-0.000612286;
-0.000139266,-6.37595e-05;0.000511999,0.00327868;
-0.00156979,6.41934e-05;-0.00018186,-0.00122816;
-0.00175784,-0.00162487;-0.000886026,-0.00253221;
-0.000496624,-0.00128402;-0.00142411,0.000717493;
0.000301578,-0.00196604;-0.00109746,-0.000537711;
-4.74854e-05,0.000105107;0.000542546,-0.000421638;
0.0024798,0.00265462;0.00161891,7.03992e-05;
-0.000783136,0.00247663;-0.00104996,-0.00261484;
-0.000849988,0.00211759;-0.000638128,-0.000343494;
0.00278818,-0.00560535;0.00204884,-0.00146824;
0.000779022,0.00119843;0.000236907,0.00280654;
0.000318222,-0.00219008;0.00100584,0.00100898;
0.00167775,0.000850736;0.00149352,0.00116472;
-0.00232972,-0.00248246;0.000157767,-0.000257228;
0.000672466,-0.000664262;0.00123298,-0.00038001;
0.000279214,-0.00172229;-0.000786533,0.00064738;
0.00348749,-0.000119591;0.00470238,-0.00120949;
1.99478e-05,-0.00427087;0.00190015,0.00061088;
0.00077234,-0.00100638;0.000390444,0.00047448;
-0.00106562,-0.000967178;-0.00115962,-1.18689e-05;
-0.000248344,0.000728163;-6.81601e-05,0.00226857;
0.00184766,-0.00928244;0.0011156,-0.00167786;
-0.000546107,-0.00144016;0.000325209,-0.00150683;
0.000175544,-0.000989914;0.000764775,-0.00109698;
-0.000277099,-0.000166441;0.000985752,0.00054388;
0.000604888,0.00125056;-0.000631343,0.00574793;
#
-0.000210371,4.18326e-05;0.00275891,-0.000203997;
-0.00197974,0.000647515;0.000579195,0.000626307;
0.000974201,0.00032836;0.00151883,6.95535e-06;
0.000627871,-0.00128234;-0.000875876,-0.000190366;
0.00114055,-0.00130882;-0.0012998,-0.00156025;
0.0024234,0.00124699;0.000533013,0.00166756;
-0.00135922,0.00173707;0.00160848,0.00280701;
-0.00116189,0.00133533;0.000381281,0.000175434;
0.0014311,0.00188644;0.00496141,0.00297734;
-0.000780738,7.15053e-05;-0.000596508,0.00204881;
-0.000546202,0.000643715;0.000838565,-0.000530208;
0.000274526,-0.00118486;8.14286e-05,0.0017959;
-0.00139326,-0.000744181;-0.00107775,0.00118161;
0.00248569,0.00129756;0.000503591,0.00223867;
0.00106251,0.000955784;-0.000178158,-0.000191168;
-0.00101715,-5.90269e-05;-0.000525332,-0.000719434;
0.000369091,-4.16606e-05;0.00025733,-0.00102607;
0.00120348,-0.000744748;-0.000564998,0.00223603;
0.000799302,-0.000149255;-0.000632863,-0.000927556;
0.000153694,0.00137835;0.00119679,-0.000322085;
-0.00182391,0.00248876;6.77248e-07,0.00233765;
0.0010397,0.00115599;0.00035111,0.000602983;
-0.000503566,0.000213828;-0.000856464,0.00144978;
0.000271123,-0.000443111;0.000186371,-0.000454477;
-0.000439246,-0.00165647;0.000860171,-0.00107114;
0.00128017,0.00111001;-0.000634717,4.42803e-05;
0.00140267,0.000432523;-0.000289044,0.00115919;
0.00108776,-0.00129701;0.00102639,-0.00118349;
0.000917804,-0.000601302;0.000644108,0.00163549;
0.00276247,-0.000843708;0.000658114,0.00285045;
0.000184907,0.00179468;-3.67245e-05,-0.000541832;
-0.000583665,0.00127104;-0.000822863,0.000458002;
-2.42351e-05,0.00181299;2.16523e-06,0.00179519;
0.00103224,0.000168947;0.000428437,-0.000524859;
0.00257186,0.00273397;-0.000985464,0.00333951;
-0.000580844,-0.00120287;-0.000161798,-0.000574999;
-0.00116025,-0.000356602;0.00140058,0.00146715;
-0.000328828,-0.000504704;-0.00116165,3.89145e-05;
0.000759202,9.99626e-05;0.00169437,0.000894159;
0.000892027,0.00099939;0.00225374,0.000790956;
-0.00212854,-0.0019491;-0.000613128,0.000604321;
-0.00164319,0.00222864;0.00106304,-0.00182389;
0.000994263,0.00169206;0.00225643,0.000665667;
0.000549623,0.000810348;0.000609734,0.00221363;
0.000712498,3.69585e-05;-0.000539846,0.00196576;
-0.000143874,0.000275728;0.000152102,0.00153424;
-0.00120288,0.000280091;-0.00107887,-4.67007e-05;
2.08631e-05,0.00152012;-0.000952351,-0.00115236;
-0.000138285,-0.0012483;-0.000445657,-0.000635024;
0.000421701,-0.000828624;0.000291994,-0.000687448;
-0.00157807,-0.000452829;0.00262448,0.000863467;
0.000756933,-0.000910246;0.000317011,0.00195926;
2.93913e-06,-0.000852988;9.89399e-05,0.00244935;
0.00025549,0.00140748;-0.00136292,0.000559604;
0.000124089,-0.00122485;0.00164274,0.000273405;
0.00118498,-0.00202995;0.00216248,-0.00018688;
-0.000292433,-0.00049578;0.000465479,-0.000193457;
0.000123723,0.0003808;0.000909341,0.000516041;
-0.00090029,0.000683211;0.000719136,0.00125502;
-0.000728177,-0.00186707;-0.00170237,0.00195462;
#
-0.000575683,0.00144445;0.00113723,0.000704684;
0.00470833,0.00432209;0.00745511,0.00747526;
0.000238544,-0.00137761;0.00134211,-0.00116861;
0.00486877,0.00368092;0.00560746,0.00541231;
0.00238098,0.0026374;-0.00122812,-0.000659732;
0.000330508,0.00193798;-0.000230179,0.00307747;
0.00229487,0.00113839;0.00232789,0.00102638;
0.000795178,0.001452;0.00104615,-0.000983894;
0.00108936,0.00133085;0.00237924,-0.00339239;
-0.0021104,0.0016296;0.0010739,-5.93289e-06;
-0.00141523,0.00051947;-0.000239162,-1.91263e-05;
-0.000905177,-0.00281512;0.000919055,-7.85073e-05;
0.00245542,0.00452165;0.00395011,0.0014505;
-0.00112719,-0.00295608;-0.00260338,-0.0013828;
-0.00107913,-0.00223913;-0.002265,-0.0019991;
0.000465324,-0.000718018;7.11917e-05,0.00113911;
7.73292e-05,0.00112287;-0.000487987,-0.00105727;
0.00325562,0.0056158;0.00341782,-0.000598313;
0.00106539,-0.00132037;0.000505446,-0.000608343;
0.00137139,-7.54974e-05;-0.000162918,0.000682907;
0.00239721,-0.00014659;0.00256758,-0.00329517;
0.00123495,0.000176062;-0.00128616,-0.00162275;
4.63315e-05,-0.000638088;-0.000583933,-0.00306771;
0.000288507,-0.00111216;0.00132241,-0.000885722;
0.0132396,0.0125105;0.0147951,0.0167237;
0.000291332,0.000677671;0.00311495,0.00053114;
-0.000106813,-0.00108349;0.000948931,-0.00103648;
-0.00316067,-0.00140953;0.000301625,0.000300614;
-0.00372404,-0.00298948;-0.00118821,-0.00349265;
-0.000673518,-0.000505804;-0.0042568,-0.00204863;
-2.23421e-05,-0.00193722;0.00254628,-0.000451675;
0.00459626,0.0036091;0.00148498,0.00345761;
-0.00157092,0.000255585;0.000141696,-0.000658609;
-0.00224347,-0.000746302;-0.00338155,-0.00241472;
-0.000771975,-0.00359909;-0.00271616,0.000176898;
0.000522794,-0.00151156;-0.00112161,-0.00142468;
-7.4352e-05,-0.000375652;-0.000101551,0.00114833;
-0.00105697,0.000938391;-6.75183e-05,-0.000554953;
-0.00237391,-0.00348164;-0.00215055,-0.00172537;
-0.00213762,-0.00311729;-0.00186894,-0.000885799;
0.00848485,0.00734484;0.00588066,0.00938652;
0.00315388,0.00130845;-0.000254939,-0.00526754;
-0.0046264,-0.00352468;-0.00244465,-0.000347429;
-0.000562584,-0.00207764;-0.000569395,-0.00246419;
0.00129848,0.000351348;0.0017768,-0.00116812;
-0.00474404,-0.00365661;-0.00416464,-0.0046752;
0.00154138,0.0015995;0.00131318,-0.00156332;
-0.000987644,-0.000625019;-0.000990894,0.00129023;
3.70486e-07,0.00106271;-0.00046119,-9.22359e-06;
-0.00226429,-0.000392675;-0.00258102,0.00119335;
-0.00372475,-0.00358849;0.000519703,0.00259087;
0.00350168,0.00285141;0.00214541,-0.000204695;
0.000278608,0.00294463;0.000367678,0.000693945;
-0.000107341,0.00128891;-0.00045394,0.000414674;
-0.00296886,-0.00102046;-0.00126761,-0.00319844;
0.000764793,-0.000175035;-0.00363557,-0.00167945;
-0.000926156,0.000293108;-0.00204774,-2.24065e-05;
-0.00187267,-0.00279044;-0.000561807,-0.000649213;
0.00112285,6.32203e-05;-0.000443119,0.000679375;
0.00676677,0.00967941;0.00757441,0.010162;
#
-0.000270018,-0.000201138;0.00108934,0.000924478;
-0.000932824,0.00118253;-0.000722438,0.000287664;
0.000956461,-6.33165e-05;0.00057248,0.000538219;
8.41464e-06,0.00136433;-0.000558782,-0.00100043;
0.000361865,0.000623865;0.00139953,0.000165958;
-0.00109179,-0.00136989;-0.00102512,0.000211375;
0.000650225,0.00061449;-7.19612e-05,-0.000476819;
0.0006944,0.000279266;-0.000433117,0.000910361;
-0.0013821,0.000184612;-0.000382187,-0.00142661;
-3.55087e-05,-0.000190364;-0.00133334,-0.00108814;
-0.000240803,-0.00108888;-0.000887739,0.000603472;
-0.000894973,-0.000874914;0.00077623,-0.00130774;
0.000928255,0.00111541;-0.000685164,0.000427098;
-0.000688409,0.000413373;0.000323294,-0.00036198;
0.000426348,-0.00118247;0.00137982,-0.000323678;
0.000217192,-0.000505355;-0.0013366,0.00129136;
-0.000354389,-0.00136053;0.000131827,0.000367918;
-0.000694568,0.00108299;-0.000964232,-0.000197301;
0.000716611,-0.00116863;0.00137043,0.00111278;
0.00103079,-0.000800809;-0.000883991,0.000892168;
-0.000143528,0.000130401;0.000591131,-0.00123359;
0.000369067,0.00125013;0.000109692,0.000462742;
-0.00115446,-0.000162766;-0.000141443,0.000800653;
-0.000574042,0.000882346;-0.00132986,-0.000207338;
-0.000543883,0.00079114;0.000701593,-0.000159449;
-0.000237581,-0.000856824;0.0010605,-0.00109125;
0.00102548,-0.00016483;-0.00129202,-0.00111792;
-0.000248885,-0.000974427;-0.0012953,-0.000396056;
0.000756031,-0.000458248;-0.000579058,-0.00102387;
-0.000598672,4.4846e-06;0.000584247,-0.00124002;
0.00054523,-0.00128116;-0.00133904,-0.000154878;
-0.00111528,-0.000209018;-0.00117173,-0.00042728;
0.000700444,0.00135724;0.000821286,0.000747089;
0.000324014,0.00115671;0.00118815,-0.00145239;
-0.000638385,0.000571432;0.00101077,-0.00113855;
0.00120387,4.34805e-05;0.00133528,0.00123187;
0.000778825,0.0012883;-0.000539273,0.000983925;
0.000598137,-0.000783444;-0.000661589,0.00100222;
-0.000211163,-0.000683016;-0.00035953,-0.00106843;
-0.000571084,0.000787254;-0.000303058,0.00131908;
-0.0010092,0.000543352;-0.00109561,-0.00123004;
-0.000526388,-0.00062633;0.000746277,-0.000678663;
0.00102801,-0.000169054;-0.000546339,0.000649075;
0.000701687,0.000330179;0.00118851,0.000742815;
0.0012636,-0.000708929;0.000781576,-0.000958125;
-0.00132505,0.00063852;-0.000338816,0.000948856;
-0.000862763,0.000367486;-0.000972603,-0.000145313;
-0.00122552,-5.57204e-05;-0.00131333,-0.000626988;
0.000963803,-0.00109376;-0.000571095,0.000756113;
-0.00138737,0.00047287;-0.000711128,0.000889338;
-0.000809807,0.0011093;0.0011631,-0.000185844;
0.000648466,-0.000540246;-0.000990344,0.00141875;
-0.000510545,-0.000515688;-0.00042042,-0.000679377;
-0.000100916,0.000629912;-0.00124116,0.000585399;
0.000554466,-0.000660733;0.000335313,0.000966763;
-0.000868016,8.94792e-05;0.000225984,0.000731355;
0.000927599,-0.000343416;0.000392119,-0.000129011;
0.00138396,0.00013377;-0.000929844,0.00122179;
0.000147142,-0.000155796;0.0013616,0.00058584;
-0.00125292,0.000780184;0.000669834,0.000671261;
#
0.000583765,0.00173029;0.000481299,0.00145531;
0.00115964,0.00067928;-0.00144333,0.00142733;
-0.000171894,-0.00121358;0.000348247,0.000499448;
0.00127399,0.00318373;0.00131715,0.00345609;
0.000892286,-0.000437218;-3.26865e-05,-0.000119935;
0.000220169,-0.00161533;-0.00109945,-0.0030127;
0.00025546,0.000716201;0.0014223,0.00183711;
0.00113863,-0.000921384;-0.000505317,-0.000214255;
0.00181007,0.000148019;-0.000741598,-0.00406203;
-0.00233058,-0.000656789;-0.000821151,-0.000330545;
0.000435965,-0.000438532;0.00126747,-0.00140126;
0.000443857,-0.00153565;0.000106806,-0.000686826;
-0.000294108,0.000278438;-0.000547503,-0.000508243;
0.00053421,0.000100898;-0.00182427,-0.00300254;
-0.00175411,-0.000258553;-0.00151273,-0.00173977;
0.0013432,0.000595612;0.0010568,-0.00117196;
-0.000656413,-0.000125052;-0.000505528,0.000135788;
0.00164343,0.0028978;0.00277714,-0.000329981;
0.000634121,-0.0011891;-0.00016233,-0.00141446;
0.000885711,0.000952528;0.000647868,0.000653932;
0.00195328,-0.00149969;0.000994152,-0.00224548;
-0.00137799,-0.00140452;0.000365546,-0.00153238;
0.000894837,-0.00228897;-0.000489174,-0.00202421;
-0.000180176,-0.000267677;-0.00142372,0.000617259;
0.00442616,0.00466065;0.00589335,0.00452822;
-0.000173597,-0.000430417;0.00157668,-0.000262231;
0.000966434,-9.91562e-06;-0.000326155,0.000347557;
-0.00296933,0.000737572;-0.000193168,0.00157477;
0.000600677,0.000616497;0.000936999,-0.0014356;
-0.00113764,-0.00303911;-0.000351325,-0.00108575;
0.00175584,-0.000662653;0.00186113,-0.000133634;
0.000964391,6.71838e-05;0.00140088,0.00155547;
0.00108677,0.00147856;-0.00049381,-4.41537e-05;
-0.00172962,-0.00115557;-0.001647,0.000792139;
0.000403029,-0.00251786;0.00163513,-0.00207575;
-0.000559678,-0.000710346;0.000379483,-0.000712797;
-0.00189848,-0.000510563;0.000916402,0.00079808;
-0.00044612,-0.00106567;0.000594528,-0.000836786;
-0.00187949,0.00119111;-0.000497969,-0.000758406;
-0.00120834,-0.000633599;-0.00205515,-0.000571319;
0.00205657,0.00149309;0.002758,0.00372414;
0.00156068,-6.89484e-05;0.000789142,0.000437458;
-2.50151e-05,0.000460633;-7.14745e-05,-0.000449785;
0.000531963,7.65006e-05;-0.0012221,-0.00281682;
-0.00109647,-0.000166734;-0.000219397,-9.14763e-05;
-0.00194268,-0.00198248;-0.000656686,-0.000834673;
0.000775811,-0.000512392;-0.0005481,-0.00166996;
0.000593653,-0.00029872;-0.00179252,0.000955127;
0.00126046,-0.000603357;-0.00140301,-0.0013125;
-0.00172081,-0.000212802;-0.00184404,1.2499e-05;
0.000615562,-0.000463312;-0.00144364,0.00319751;
-0.00205155,-0.000789569;-0.00336593,0.00164549;
-0.000921962,0.00252899;-0.000628434,5.97319e-05;
0.000412584,-0.000994984;0.000885589,0.0010767;
-0.00140368,0.000899002;-0.000867606,-0.00182831;
-0.000496468,0.00240763;-0.0022954,-0.000777391;
-0.000773947,0.000859985;0.000745915,-3.68587e-05;
0.000170385,0.000370602;0.000116783,-0.000416152;
0.00124753,0.00104018;0.000331625,-1.4143e-05;
0.00286195,0.00484261;0.00477626,0.00585091;
#
-0.000685181,5.21651e-06;-0.00491862,0.00105671;
0.00169026,-0.00146257;-0.000106529,0.00113628;
2.61941e-05,0.00263796;0.000830758,-0.00029609;
0.00395121,-0.00297825;-0.00138977,0.000704881;
0.00104216,0.000885269;0.00222924,-1.63407e-05;
0.00358653,-0.00254477;-0.000528252,0.000519837;
-0.00166115,0.00197526;-0.00295689,0.00294407;
-0.00079762,-0.000994928;0.00012451,0.000335082;
-0.00354841,0.00226156;-0.0036458,0.00287391;
-0.00127337,-0.000439821;-0.00142726,0.0013689;
0.000882721,-0.000320849;0.00120129,0.000346284;
-0.00302788,-0.000921086;0.000360256,-0.00232799;
-0.00274021,0.000262243;-0.000869707,-0.00111383;
0.00167293,0.00199007;-6.01085e-05,0.000953645;
-0.000282302,-4.2874e-05;0.00139526,0.000215788;
0.000887405,0.000698059;-0.000756735,6.25703e-05;
-0.00215394,0.00211169;0.00100458,0.00365663;
-0.00356983,0.000309849;-0.0034777,0.00066086;
0.00128091,9.58402e-05;0.000107871,0.000518187;
0.000318555,0.000878494;0.000956063,-1.75252e-05;
-0.00143203,0.00143186;-7.91077e-05,-0.000683592;
0.00173346,0.00098448;0.00106821,-0.00200738;
0.00165778,-0.000421206;-0.000300952,-0.000526984;
0.000773131,0.000440481;-0.00071853,-1.94387e-05;
0.00212148,0.00326183;0.000322367,0.00409501;
-0.00168558,0.000172387;-0.00156017,-0.000615189;
0.00113126,-0.000364384;0.000476602,0.000722205;
-0.00171503,0.00150449;-0.00206518,-0.00190079;
-0.00160229,0.00159556;0.00127703,-0.000193404;
0.00269841,-0.00456746;-0.00192302,-0.00418015;
-0.00341636,0.00468535;0.00657087,-0.0050899;
0.00409545,-0.00615119;0.00143228,-0.00491223;
-0.0038737,0.00364583;-0.00109245,-0.000588291;
0.00216588,0.000568748;0.000934856,0.00132537;
-0.00033446,0.00397646;0.000567729,-0.00291742;
-0.000206872,-0.00105663;-0.00031839,0.000388176;
0.00201952,9.65942e-05;0.000123371,-0.000124041;
-0.000455064,-0.00113629;-0.000933757,-0.00128206;
0.000206516,0.00262619;-0.00211791,0.00118396;
-0.000193864,-0.000471439;-0.00105242,-0.00130843;
0.000245379,0.00080696;0.00107441,0.0013794;
-0.00146538,-0.0018753;0.00417732,0.000508182;
-0.00263122,0.00354376;0.000965401,0.0012823;
-0.000730197,8.5115e-05;-0.00156207,0.00395064;
-0.00301834,0.000537109;0.000280025,-0.000533114;
0.00145233,0.000885496;-0.000677525,0.000468111;
-0.00207012,0.00044134;0.000581962,-0.000261274;
0.00153556,-0.00017041;0.000342208,-0.00112332;
-0.00117113,0.00126309;0.000968109,9.13602e-05;
0.000961232,-0.000490431;0.000653042,0.000930352;
-0.000282873,0.00221079;-0.000399234,0.000533463;
0.00351963,-0.00419251;0.000100011,-0.00142187;
-0.000836183,5.44427e-05;-0.00168352,0.00178698;
0.000482694,0.000637303;-0.00102978,-0.000778713;
-0.00176883,0.00127523;-0.00280343,-0.000888358;
0.00581722,0.00127537;0.00130253,0.00440355;
0.000172477,0.00102048;-0.000110411,-0.00125067;
0.000817028,-0.000399622;-0.000232777,-0.00167811;
-0.00143188,-1.35125e-05;-0.000635298,0.00101161;
-0.0010285,0.00314651;0.00242981,-0.00368053;
#
0.00101914,0.000231607;-0.000164696,-0.000259532;
-1.2356e-05,-0.0008681;-0.000370877,-9.59559e-05;
7.34306e-05,-8.03988e-05;-0.000769022,0.000747801;
0.000405966,-7.47623e-05;0.000747042,-5.45779e-05;
0.00109746,-0.000939926;0.00122606,-0.00133645;
-0.000894419,0.000781143;0.000190212,0.000531719;
-0.00128248,0.000451094;0.00130686,-0.00103401;
-0.000468584,-0.000472901;0.00133835,-0.000416903;
0.000683912,0.000618744;0.00126285,-0.000892226;
-0.00102952,0.000308229;0.000440089,5.0515e-05;
-0.000139307,0.00131443;0.000756793,0.00129637;
-0.00113272,-0.000971755;-0.00120351,-0.000872146;
0.000371262,-0.000258406;0.000721886,-0.000452441;
0.000692823,-0.000583455;0.00132925,-0.000813319;
-0.00130695,-0.000834873;0.00073358,-5.25065e-05;
0.00137069,-0.00098166;-0.0013565,-0.000322311;
-0.000258366,-7.32811e-05;-0.0007968,0.000226403;
1.90539e-05,0.000123155;-0.000580779,-0.00115503;
0.000915598,0.000623913;0.000276332,0.000153858;
-0.00124903,-0.000746584;-0.00121079,0.000625097;
0.00101704,-0.00133924;-0.000562235,0.00015699;
0.000296834,-0.000154399;0.000671368,-0.00136526;
-0.00075756,-0.000524228;-0.00109665,0.000521783;
-0.000682825,-0.00119716;0.00137037,0.000737011;
-0.000476353,0.000560984;0.000413107,-0.000265933;
-0.00104261,-0.000141657;-0.000763838,-0.000702334;
0.000613259,0.00116207;-0.000273886,0.000851811;
0.000117978,-0.000541374;-0.00145688,-0.00140523;
-0.000294778,0.00106746;0.000591294,-0.000804627;
-0.00125251,-0.000306499;-0.000768408,-0.000953954;
-0.00134871,-0.000268197;-0.000243663,-0.00111855;
0.00111705,-0.000325813;0.00119218,-0.00119831;
-0.000906822,-0.00097446;0.000703288,0.000582549;
-0.000155261,0.000849619;0.000953064,0.000311365;
0.000591431,0.000984037;0.000259877,-0.000691768;
0.00135982,-0.000872285;0.000407335,-0.000457843;
-0.00108188,0.000856049;-0.000493478,0.001182;
0.00117836,-0.000573741;0.000625965,0.00127024;
-0.00114987,0.000227686;-0.000728716,0.00117566;
0.00113446,0.0010946;-0.000953349,-0.000560243;
-0.000618396,-0.000266746;0.000828132,0.000418488;
0.00112087,-0.000468696;-0.000499715,-0.000601769;
0.00051985,0.000956207;0.000833261,-0.000170391;
8.77081e-05,-0.00125954;0.000401955,-0.000291624;
-0.000276782,0.000676911;-0.000444832,5.26238e-05;
-0.000942637,9.10309e-05;-0.00116128,0.00100584;
-0.000275144,-0.000617241;-8.7176e-05,-0.000540245;
0.00115623,0.000241193;0.000975643,-0.000431952;
-0.00104859,0.000347595;0.000823921,0.00111276;
-0.000481773,-1.20913e-05;0.000139668,-0.000369649;
-0.0003972,-0.000417428;-0.00134681,-0.00122854;
0.000631137,-0.000288847;0.000159554,0.00121134;
0.000777066,-0.00056222;-0.001054,0.000685911;
-0.000558898,0.00068871;-0.000305823,-0.00122602;
-0.000571859,0.000878317;-0.00142393,-0.000604223;
0.00131304,-0.000314115;-0.00143587,-0.000291472;
-0.00143326,0.000915338;0.00099586,-0.000750371;
-0.000857278,-0.000360762;-0.000482932,0.000449541;
-0.00015734,0.000872392;0.000805496,0.00025143;
-0.00124332,-0.000297975;0.000232105,-0.0011635;
#
0.00157002,-0.000547317;-0.000649609,-0.00166072;
-0.00108886,-0.00190307;-0.000926284,-0.00163951;
0.000309221,0.00123935;-0.0011601,0.00100454;
0.00295102,0.000507949;-0.00128681,-0.00100026;
1.58983e-05,-0.000529167;0.000498489,0.000915074;
0.00142142,0.000754176;-0.000394182,-0.000631153;
0.000802588,-0.00102638;0.000111536,-0.000288419;
0.00141666,0.000750873;0.000902054,-0.000957269;
-0.000818213,0.000538513;0.000402224,-0.00223822;
-0.000799638,-0.00011265;-0.00106874,0.00142244;
0.00111764,-0.000104055;0.000352132,-0.00120396;
0.000495781,0.000911997;0.000480006,-0.000432113;
-0.00152256,-0.00147704;0.000108248,-0.000525294;
0.000716455,0.000643754;0.000801112,0.000362011;
-0.000841592,0.000872397;0.000358573,-0.000979419;
0.000686991,0.000661748;-0.000723166,-0.000976895;
-0.00128921,-8.1552e-05;-0.00110509,0.000760388;
0.0013354,-0.000322285;-0.000442714,-0.00150118;
-0.000188664,0.000751159;0.00044208,-0.00103977;
-0.000198452,-0.0013487;-0.00116828,-0.00124648;
-0.00167909,-0.00134425;-0.000319608,0.00120741;
-0.000372843,0.000107461;0.000210826,-0.00141867;
0.000994822,0.00069301;0.000872436,0.000805844;
0.000117423,0.00114856;-0.000390057,0.00107443;
-0.00222063,-0.00224419;-0.00376382,-0.00295138;
-0.000715019,-0.000447079;-0.00128723,-0.000445941;
0.000877926,0.00100954;0.00143049,0.000692416;
0.00237221,0.000346409;-0.000192434,0.00173959;
-0.000755097,0.0013591;0.000128808,0.00128551;
0.00380794,0.00207003;-0.000868969,0.00179324;
0.00241872,0.00262308;0.00198847,-0.00102617;
0.00253975,0.0016096;-0.000936366,0.000714976;
0.000196849,0.00121467;-0.000122835,-0.000485851;
0.000479743,0.00127955;0.00158027,0.000817195;
-0.00193255,0.000985623;-0.000380639,-0.000115192;
0.00102708,0.00052256;0.000662383,-0.000965552;
0.000721065,0.000344368;0.000643189,0.00105288;
-0.000331881,-0.000956982;0.000244423,-0.000821962;
0.00210203,0.00138388;0.00123022,5.70254e-05;
0.000391324,-0.000124138;-0.000356967,0.000390855;
-0.00223659,-0.00165175;-0.000731112,-0.0021957;
0.000961124,4.96603e-05;0.00254615,0.000904025;
0.00046113,0.000280787;0.00137644,0.000487611;
-0.00101092,0.00201666;-0.00164331,-0.000918814;
-0.000648364,-0.000838639;-6.61797e-05,-0.00114841;
0.00311209,0.000430196;0.000299688,0.00172501;
-0.000978411,-0.000983999;-0.00114401,-0.00163889;
-0.000537737,0.00197211;-0.000400061,-0.000172435;
0.00104982,0.000758921;0.00116847,0.000344851;
0.000606088,-0.00147183;2.54995e-05,-0.000124581;
-0.000530407,0.00084709;8.96751e-05,-0.000760824;
0.00290664,0.00125553;-0.00264676,0.00122884;
-0.000280412,-0.00104503;-0.00116906,1.84615e-05;
0.00117569,0.000607947;0.000623008,0.00126406;
0.0010842,-0.00129162;-0.000670248,0.00130584;
0.00254475,0.00455732;-0.00218277,-0.00137182;
-0.00126067,0.000305148;0.000355863,0.000911108;
0.00161046,-0.00115359;0.00124693,0.000910203;
-0.00130569,-0.000852433;-0.000430249,-0.00129763;
-0.00203378,-0.00176431;-0.000822578,-0.000919794;
#
-0.00223928,-0.000484153;0.000869474,0.00550283;
-0.00198784,6.4379e-05;-0.00523536,-0.000820329;
2.7065e-05,0.000842561;-0.000960416,-0.00134558;
-0.00285364,-0.00389643;0.00276296,0.00422885;
0.000892681,-0.000777314;0.00242324,0.00266735;
0.00537018,0.00394985;-0.0090635,-0.0152523;
-0.0015962,-0.00295167;0.0017917,0.00314092;
-0.001033,-0.000241642;-0.00119144,-0.000869109;
-0.000209839,-0.00203189;0.00112782,0.00467711;
-3.52301e-05,-0.00200691;-0.00106328,0.000886535;
0.00128526,-0.00041037;-0.00134051,-0.000561855;
-0.00283887,-0.00240269;0.00220704,0.00198686;
1.19756e-05,0.000741719;0.00248562,0.00367398;
0.00288915,0.00462903;-0.00318789,-0.00866443;
-0.00119735,-0.00169062;0.0011358,0.00188326;
-0.00079228,-0.00108544;-0.00132621,0.00113704;
-0.00343131,-0.00467693;0.00391269,0.00242504;
-0.00235005,-0.000481007;0.00186678,0.00288047;
0.000469059,0.000471266;0.000666924,0.000828926;
0.000169917,-0.000768097;-0.00126061,-0.00068007;
-0.000594561,-0.000348349;0.00171166,0.00362778;
0.00163852,0.00154769;-0.00160099,-0.00486695;
-0.00172131,-0.00220281;0.00119178,0.00116582;
-0.000553567,-0.000313593;9.24379e-05,-0.00104648;
0.00505316,0.00486183;0.0048412,0.00416823;
-5.43599e-05,-0.00214159;0.0046077,0.00481031;
-0.000654761,-0.00100482;-0.00122885,8.46861e-05;
-0.00119866,-0.00248361;0.00231531,0.0016231;
0.00159809,-0.00267698;0.000391709,0.00289922;
-0.00272527,-0.00616102;-0.00207806,-0.00156929;
0.000663069,0.00152699;0.0077018,0.00396565;
0.00191635,0.00547309;-0.00771821,-0.00726954;
-0.00284718,-0.00306299;0.00965407,0.00766802;
0.000769562,-0.000702748;-0.00207409,-0.000913594;
-0.000811858,-0.00446433;0.00482175,0.00026783;
1.74998e-05,0.000662908;0.000694459,-0.00124731;
0.00506188,0.00529102;-0.00277365,-0.00309861;
-8.81268e-06,-0.000515065;-5.2677e-07,-0.000304141;
-0.00365383,-0.00244664;0.00300728,0.00207174;
-0.000719408,-0.000825909;-2.09549e-05,0.00108576;
0.00525486,0.0047511;-0.00330114,-0.00219412;
-0.000755283,0.000390108;0.00369988,0.00241467;
-0.00532293,-0.00622084;0.00227461,0.0014211;
-0.00178626,-0.000288901;0.00296154,-0.000551195;
-0.00237899,-0.000555126;0.0020292,0.00324047;
-3.41726e-05,-0.00201109;-0.000215107,-0.00169173;
0.000289755,-0.000118066;0.00371068,0.00252955;
-0.000380564,-0.000991058;-0.000927445,-0.00255986;
7.64261e-05,0.000409139;0.00135672,0.000925282;
0.000221212,0.000572713;0.000345587,-0.00141833;
-0.0109398,-0.0074874;0.00791176,0.00815305;
0.0063558,0.00415996;-0.0106324,-0.00894177;
0.00207585,0.000178427;-0.0011047,-0.00161143;
-6.6342e-05,0.000130635;-0.000606251,-0.00035293;
0.00157386,-0.000486863;-0.00528117,0.00036322;
-0.00232244,0.00239557;0.00129043,0.000456881;
0.00123141,0.001116;-0.00115186,-0.0018466;
-0.000626279,-0.00147875;-0.00189428,0.000477005;
0.00116539,0.000679339;0.00120636,-0.0003482;
0.00274714,-0.00165836;0.00661459,0.00767096;
#
-0.000245033,0.000680455;-0.00124432,-0.000726196;
0.00226589,0.0021192;0.00175522,0.00038123;
0.00121262,0.00144377;-0.00144291,0.000568809;
0.00229648,0.00201794;0.000853495,0.000442284;
-0.000477648,0.00146419;-0.000957976,-0.000875646;
0.00164349,-0.00129845;-0.000171831,0.00115316;
7.59944e-05,0.00109251;-0.000102599,-0.00107624;
-0.000984138,-0.000907984;0.00052186,-1.40801e-05;
0.000168779,-0.000977572;-0.00169151,-0.00278387;
0.000463796,0.00148871;0.00055799,-0.0019778;
0.000264209,-0.000485959;-0.000790264,0.000367466;
-0.00210471,0.0011675;0.00101822,-0.00118162;
0.000678773,-0.000138199;0.00143157,-0.00266609;
-0.000257105,-0.00195465;-0.00167663,0.000216923;
-0.0006878,3.05719e-05;-3.83953e-05,-0.00147371;
0.000814631,-0.000105902;0.00129543,0.00106793;
-0.00165899,0.00154252;-0.000488517,5.40414e-05;
0.00123783,0.00136154;0.000310986,-0.00336921;
-0.000854413,-0.0003184;-0.000915635,-0.00144492;
0.000631868,0.000652609;0.00145281,0.000484827;
-6.216e-05,0.000294633;0.000499768,-0.0018293;
-0.00174426,-0.00235053;-0.000911638,-0.00147492;
0.000627325,9.36008e-05;0.000770663,0.000512351;
0.000147532,-0.000808148;-0.000741758,0.000758489;
0.00156984,0.00423477;0.00303565,0.00350882;
0.00010838,0.00176377;0.000143691,-0.000410606;
-0.000704427,0.0013347;0.00112572,0.000689743;
-0.00217748,0.00129927;-0.000398194,0.000781074;
-0.0019822,-1.42162e-05;0.00166949,-0.000823436;
-0.00103797,-0.000443081;-1.59154e-05,-0.00204442;
-0.000609464,-0.00152313;-0.00116314,-0.003701;
0.0016122,-0.00147783;0.0017158,0.00306819;
-0.00197124,0.00134951;-0.00225339,-0.00289907;
-0.000358797,-0.000650939;0.000243299,0.000804758;
-0.00210562,-0.00226879;-0.0016497,-0.00111118;
0.000636737,-0.000535951;-0.000668288,0.000772543;
-0.00184399,9.35606e-05;-0.0015172,-0.000686358;
2.3903e-05,0.00024053;0.000953407,-0.000702904;
-0.000435199,0.00135356;-0.00264454,-0.000931996;
-0.00220251,-0.00200604;0.000645259,6.84186e-05;
0.000237517,0.000107416;0.00167889,0.00362444;
7.9517e-05,-0.00353944;0.000230134,-0.000395627;
-6.28309e-05,0.000984898;-0.000623608,-0.00101127;
-0.00117129,0.000791558;-0.00219467,-0.00167323;
-0.000350078,-0.00118234;0.000612411,-0.00131722;
-0.00215683,-0.00109482;-0.00186615,0.000629472;
0.00148872,-0.00198607;-0.000809784,-0.000468407;
0.00170561,0.00149692;0.00174474,0.00210144;
-0.00116938,0.00116798;0.000758023,-0.00108407;
0.000795284,-0.000175872;0.000161305,-3.82821e-05;
-0.00141592,0.00135932;-0.00161886,-0.000806237;
-0.00184181,-0.000219147;-0.000129551,0.00284273;
-0.00216646,0.00159861;-0.00135442,-0.00157153;
-0.00013393,0.000308553;-0.000821677,0.00109505;
-0.000159529,-0.000770717;-0.00124783,-0.000123451;
0.00173519,0.000101152;-0.00206287,0.00285923;
-0.00138748,0.00052403;-0.000257527,-0.000895091;
-0.00150233,-0.000932609;-0.000361335,-0.00120863;
0.000995467,0.000800837;-0.000419813,-0.000986769;
0.00134121,0.00366867;0.000472047,-0.000348264;
#
-0.00332026,0.00435145;-6.98462e-05,-0.000912431;
-0.00205471,0.00167126;-0.00231995,-0.000369777;
0.00116504,-0.000711745;-0.00146323,-0.00195627;
0.00165254,0.00393947;0.00403677,0.00374851;
0.00186755,-0.00020421;0.00319348,0.0030514;
0.000194819,-0.00762749;-0.00154067,-0.00296218;
0.00378092,0.00339389;0.00442687,0.00272595;
0.00113351,0.000405808;-0.00135927,-0.000807414;
0.00650138,-0.00147232;0.00197649,-0.00286818;
-0.000559895,-0.000606134;0.00191559,-0.000241935;
0.000329272,-0.000503362;-0.00122177,-0.000110204;
-0.00245099,-0.00322601;-0.00178949,-0.0035675;
-0.000334951,0.0049747;0.000789225,0.000599957;
0.00114913,-0.00168992;-0.00114856,-0.00397534;
-0.00158142,-0.000908894;0.00208903,-6.43161e-05;
0.000425881,-0.000998362;-0.00125646,0.000692591;
0.000146976,-0.0010336;-0.000198872,0.00179314;
0.00192706,0.00590192;0.00302864,0.000675396;
0.000944459,0.00101296;0.000236574,0.00110847;
-0.0013674,-0.000454208;-0.000842432,0.000891175;
0.000117907,0.000415489;0.00143109,-0.00171206;
-0.00148303,-0.001073;-6.9542e-05,-0.00259203;
-0.00126552,-0.0021952;0.000680027,0.000768184;
0.00107932,0.000783117;-0.00128373,-0.000747197;
0.00592263,0.00264478;0.00631274,0.00405731;
0.00204124,0.00188031;0.00035745,0.000182336;
-0.00143595,-0.00141483;-0.000608847,0.000772977;
-0.00802754,0.00510934;-0.00535144,-0.00116266;
0.00201976,-0.00179232;-0.000217663,-0.00418995;
-0.00504151,-0.00405078;-3.20636e-05,-0.000838148;
0.0010194,-0.00125855;-0.000159041,-0.00397635;
-0.00584836,-0.00306467;-0.00319428,1.68855e-05;
-0.000666354,0.0050832;-0.00133743,0.00103096;
-7.01881e-05,-0.000315484;-0.00166593,0.00104856;
-0.000885925,-0.000421165;-0.00301942,0.000963114;
-0.000768539,-0.000259141;0.000903535,0.00158098;
-8.1006e-05,-0.00322851;-0.000837103,0.000901883;
0.000710493,-0.00105275;0.000524084,-0.00104303;
-0.000348004,-0.000192119;-0.000238554,-0.00250658;
0.00165601,-0.00151513;-0.00166751,-0.00134988;
0.00261219,0.00173053;0.00438998,0.00430139;
0.00129587,-0.00167731;-6.90949e-05,-0.00205899;
-0.00174551,0.0029992;-0.00142644,-0.0015157;
0.00251361,-0.0046677;0.00456776,-0.00257192;
-0.00161372,0.000677465;0.0008674,0.00179472;
-0.0017221,-0.000372839;-0.00260818,0.000786882;
0.000913676,0.000715006;-0.000135821,-0.000919312;
-0.00196351,-0.00182665;-0.00223023,0.000332047;
-0.00025987,-0.000894381;-0.00031599,0.000894001;
-0.000486408,-0.000458195;0.000577607,0.000263926;
0.00459375,-0.0019213;0.00329107,-0.000979913;
0.00121387,-0.00823165;-0.00299055,0.000726227;
-0.000688808,0.00270834;0.00390524,0.002374;
-0.000517242,0.00121109;-0.00123079,-0.000814364;
-0.00558169,0.00423926;-0.00464669,-0.000829387;
0.00679095,-0.01474;0.00203355,-0.00113439;
-0.000648914,0.000305058;-0.000355548,-0.00137968;
-0.000938914,-0.00168774;0.000299322,-0.00169192;
0.00104499,-0.000208505;-0.000518588,1.85816e-05;
-0.00288655,0.0091204;0.00266857,0.00814743;
#
-0.0014379,0.000469597;0.000334456,-0.000538236;
-0.00034363,-0.000329886;-0.00124489,-0.000561554;
0.000722422,0.00106881;-8.33195e-05,0.000715812;
0.000645959,-0.000555357;0.000465522,-0.00103901;
0.0012632,-0.00104985;0.000949334,0.000231583;
0.000497769,0.00122665;0.0011642,0.000776923;
0.000533789,0.0005364;-0.000313647,-0.000232547;
0.000666864,0.00117255;-0.00128891,0.00123268;
-0.00081976,0.000562232;0.000243196,0.000224441;
-0.000328963,-0.00115974;0.00105473,0.000392098;
0.000655776,-0.000849952;-0.00113769,0.00120198;
0.00112801,0.00061339;-0.000167963,0.000568441;
-0.000818404,0.00119789;-0.00129986,0.00101266;
-0.000203554,0.000865183;0.00058154,0.00141978;
-0.000187608,-0.00113583;-0.000817373,-0.00108927;
0.000371416,0.000947676;0.00106268,0.000962909;
0.00045405,0.0010665;0.00112828,0.000143481;
5.77445e-05,0.000713688;-0.000144125,0.00102444;
-0.000451278,0.000797116;0.000820301,0.000363204;
-0.00125657,-6.87063e-05;0.000970044,0.000408891;
-0.000282645,0.00133663;0.000506867,0.000499287;
-0.00147651,-0.00136906;0.00133968,-0.000472743;
0.000986764,0.00111352;4.72425e-05,0.000901729;
-0.000610016,-0.000225914;-0.000326084,-0.00109601;
-0.00039706,-0.00112055;-0.00121275,-0.000838621;
0.0013444,0.00126642;0.00131178,-0.000269352;
-0.000375812,-0.000754539;0.000335303,0.000920947;
-0.00053765,0.00128896;0.00039764,0.000939542;
0.000160791,0.000552718;0.000293862,-0.00108024;
-0.0014227,-1.70732e-06;-0.000541149,0.00120226;
0.000445005,-0.00170848;0.00091876,-2.35851e-05;
0.000961382,-0.000895632;-0.00133429,-2.29831e-05;
-2.64189e-05,0.00129688;0.000484596,0.000966947;
-0.00121539,0.00080679;0.000644531,-0.000931107;
0.00134717,-0.00134614;0.00128441,0.000762974;
0.000505493,0.00134764;-0.000546541,-0.000660238;
0.000305456,-0.00118813;-0.00139186,0.000300536;
0.000550387,-0.000853005;-0.000601169,-0.000768933;
-0.000526841,0.000425669;-0.000700946,-0.00124923;
0.000107812,-0.00061091;0.000340959,-0.000116864;
-0.00105179,0.000197849;-0.000410351,-0.000834219;
-0.000139691,0.000939947;0.00113471,6.51942e-05;
0.00121606,-0.000631991;0.000937328,-0.00143681;
-0.000203434,-0.00103391;-0.000257709,0.000785805;
-0.000835915,0.000376103;0.000857829,0.00059853;
0.00102713,-0.000681784;0.000522794,0.000719543;
-0.000342758,-0.000126984;-0.00139609,-0.000856843;
0.000926841,-0.000523677;-0.000647396,0.000933051;
0.000710408,0.00076222;-0.000849692,0.000993097;
-8.7647e-05,0.000224456;-0.000190951,0.000599396;
-0.000748056,0.00106073;0.000885797,0.000681229;
-0.000658274,-0.000846845;-0.00113982,-1.10528e-05;
1.74973e-05,-0.000522688;0.00100857,-0.000851737;
0.000679639,-0.000514871;-0.000911119,0.000262162;
0.00029712,0.00122086;0.000814154,-0.00078941;
-0.00144137,-0.000561649;0.000790099,0.00133415;
-0.000119681,-0.000403278;-0.00114898,-0.00142528;
0.000958252,0.000703632;0.00134189,-0.000373502;
-0.000249739,9.6174e-05;-0.000191639,0.000570801;
0.000582513,-0.00138612;-0.000839899,0.000762027;
#
0.000618928,0.00218978;-0.000882301,0.00138477;
-0.00100395,-0.000984296;-0.00143977,-0.0028249;
0.000956337,0.00147496;0.00078107,0.00049699;
-0.000870635,0.0033735;0.00111683,-0.000423101;
0.00171196,-0.000765609;-0.000709813,0.000528913;
-0.00238297,-0.00134345;-0.00169697,-0.000646607;
0.000212595,-0.00112757;0.00141545,-0.00270552;
-0.00114811,-0.000928809;0.000818097,0.000180674;
-0.000449279,-0.000907822;-0.00194677,-0.000788474;
0.000958993,-0.000562438;0.000280636,0.000310137;
0.000824822,-0.000772744;0.00117081,0.00102184;
0.000531331,-0.000643328;-0.000133317,0.000372942;
0.000265254,-0.00158093;-0.00111495,0.000285265;
-0.00187774,0.000405401;-0.00179993,-0.00132836;
0.000270063,0.00135785;-0.00110527,3.22507e-05;
-0.000862589,0.000579697;-0.000723471,0.00088448;
-0.00120477,-0.00128397;-0.000195776,-0.00127224;
0.000585429,0.000437696;-0.00177831,-0.00188715;
-0.00105536,-0.00109766;-0.000182878,0.00029979;
0.000158426,-0.000951156;0.00131927,-0.00031631;
0.00166112,-0.000972661;-0.00150208,0.000376836;
-0.00035039,0.00013048;-0.00139853,0.00100773;
-0.00018451,-0.000542073;-0.00060084,0.00134661;
-0.00063747,0.000659957;0.000169917,-0.000310511;
0.000613731,0.000957997;0.00144909,0.00121267;
-0.000174003,0.000624212;-0.000919819,-0.0012826;
0.000597382,-0.000649296;0.000700078,-4.44654e-05;
-0.00100706,0.000692121;0.00165167,0.00168946;
0.000182481,0.000289272;-0.00152084,0.000320566;
-0.00248637,0.000916106;0.00132011,0.00106114;
0.00189478,-0.002224;-0.00271375,0.00339533;
-0.00254466,0.000890958;-0.00120889,0.00303894;
0.00168796,-0.000582979;0.000248925,-0.000123665;
0.000780804,0.000568249;-9.21247e-05,8.64852e-05;
-0.000645265,1.1538e-05;0.000811473,0.000393108;
0.000749567,-0.000154888;0.000929893,-0.0011044;
-0.00100181,0.000970403;0.000811414,0.00094606;
-0.00117883,0.00133716;0.000814388,0.00126405;
0.00106251,-0.000355643;-0.00110793,0.00100737;
0.000979689,0.000292561;0.000296529,-5.5035e-05;
0.000314439,0.000548423;-0.000147233,0.000263236;
0.000163243,-0.0027699;-0.00146212,0.00332648;
0.00222246,-0.0010521;-0.00250583,0.00071839;
-0.00277683,0.00101882;-0.000321147,-0.00176341;
-0.000198619,-0.000897426;-8.44678e-05,0.000801161;
-0.00195226,0.000111793;0.000185893,0.00107183;
0.000570283,0.000800356;-0.00153469,0.00153881;
0.000193025,0.000728012;0.000467833,0.000199714;
-0.000517911,0.000376775;0.000409446,0.00125616;
0.000769208,-0.000617792;-0.000735514,-6.19193e-07;
0.00123156,0.000518464;-0.0022682,-0.000917096;
-0.00407964,0.00171103;0.000802533,-0.000652899;
-0.000954475,0.000251356;0.00304764,0.000318678;
0.000659462,0.000671687;0.000962574,0.000724543;
0.00105019,-0.000637176;0.00098049,0.00141671;
-0.00411439,0.00167959;-0.000238548,0.00181652;
0.000824687,0.000277485;-0.000185863,0.000178692;
0.0012561,-0.00040078;0.000983239,-0.00123386;
0.00132161,-0.0010919;-0.000381128,-0.000290957;
0.00199913,0.00156186;0.00338279,0.000540054;
#
0.000974625,-0.000591312;0.000884958,0.00105248;
0.000698316,0.000395099;-0.00087734,-2.02353e-05;
-0.00136671,-0.000174204;-0.0012695,-0.000337559;
-2.85746e-05,-0.00047304;-0.000381363,0.000769514;
-0.000647535,-0.00101326;-0.00103689,0.00024709;
-0.000464201,0.000490283;-0.000618617,-0.000837;
0.000371873,0.00138793;0.000140734,-3.38823e-05;
-0.00123965,0.000206396;-0.000254525,0.000240808;
9.54195e-05,-0.000245873;0.00124578,0.000728055;
0.000820479,0.0012915;0.000124929,0.000845935;
0.000116851,0.000351707;0.000169494,0.00103049;
-0.00108996,0.000829156;0.000960136,-0.00138236;
0.000968106,-0.000817124;-0.00062222,0.00144709;
0.000942957,0.000806562;0.00040509,-1.63637e-05;
-0.000882186,0.0011704;0.000110689,-0.000125816;
0.000541743,-0.000618758;0.000928881,0.000597219;
0.000398938,0.000309999;0.000382827,-0.00133323;
-0.00111719,-0.000557197;0.000935943,-0.00140889;
-6.19245e-05,-0.000320252;0.000933868,-0.000136766;
0.000139692,0.00138419;0.00125567,-0.000815793;
0.000310729,0.000308329;-3.1716e-05,0.000219639;
-0.00078963,0.000175598;0.000188789,-0.00120796;
-0.000265266,-0.0011078;-0.000619628,0.00037665;
0.000485723,0.000342978;0.00117908,-0.000788074;
-0.00111886,0.000479287;-0.000656553,-0.00138673;
0.000703371,-0.00056429;0.000262317,0.000378813;
0.000823853,0.000889956;6.56414e-05,0.00101983;
0.000998001,0.00144931;-1.05416e-05,0.00045176;
0.000870746,0.000726182;-0.000265387,0.000934037;
3.76513e-05,0.00139321;-0.000315071,-0.00074331;
0.000683157,-0.000399558;0.00118416,0.000486219;
-0.0002163,-0.00076651;-0.000338509,-0.000480892;
0.000228911,-0.00105137;4.18079e-05,0.000925022;
-0.000846726,-0.000757739;0.000758006,0.00142971;
-0.000611095,-0.000638627;-0.0001129,0.00035186;
-0.000326586,-0.000889761;0.00117583,-0.00131173;
0.000309142,0.00112197;0.00142444,-0.00019763;
-0.00112194,0.000389713;-0.00145405,0.00121304;
0.00066799,-0.00094458;3.85655e-05,-0.000470719;
-0.00086275,-0.000998053;0.000832631,0.000417248;
-0.000786641,0.00140618;-0.000578105,-0.00124787;
0.000778537,0.000950835;0.000574627,-0.00145366;
-0.00112723,-0.000136527;-0.000365359,0.000951104;
0.000250936,0.00013388;-0.00122131,0.00124066;
0.000308057,0.00142364;0.000263629,0.00133687;
-0.00102623,0.00130131;0.000937084,0.00077371;
0.00144859,-0.00123999;0.000473517,-0.000168836;
-0.000429257,-0.00141767;-0.000324438,-0.00112793;
-0.00119902,-0.000272032;0.000129629,0.000124101;
-4.12474e-05,0.000212797;0.000325823,-0.000658859;
-0.000980256,-0.00113941;0.000731491,0.00122239;
-0.000485393,0.000503197;0.00093831,4.43432e-05;
0.000879292,0.0012312;-0.000832679,0.00116406;
-0.000947256,-0.00101692;0.00091119,-0.000791965;
-0.000120644,-0.000367154;-1.48389e-05,-0.000338419;
-0.00112985,-0.00125013;-0.00141806,0.000194656;
-0.000354049,-0.000993815;0.00091006,-0.000472116;
-0.000125936,-0.00111425;-0.000910139,0.000498047;
-0.000284478,-0.000711747;0.000798226,0.00102741;
