-2.72926e-06
-4.4027e-06
-4.51537e-06
-1.54837e-05
-3.32524e-06
0.00559185
0.0129389
1.96642e-05
0.00843742
-6.75598e-06
-2.83223e-06
-3.01271e-06
0.000715876
0.0191434
6.12026e-05
0.0176864
0.00419083
7.65015e-07
0.0193764
-1.39814e-05
-3.17986e-05
0.00886934
-1.90892e-06
-0.00255554
0.0132681
0.0393726
0.000185388
0.0151763
-1.62427e-06
-9.87768e-06
-1.50275e-06
0.0106239
-3.93179e-06
-0.0236982
0.0167714
0.0
0.0153104
0.00280365
0.0346226
0.0518538
-2.26339e-06
0.010971
-2.07115e-06
-0.00205783
0.0106512
-2.49725e-06
0.00626576
-1.33733e-06
-5.67386e-06
-6.4211e-07
-0.000286935
-2.79203e-06
0.010423
-0.0264487
-6.89554e-06
0.0520244
-3.28385e-06
2.23268e-06
-2.04961e-07
0.0170089
-0.00269705
-1.83253e-06
-1.46409e-05
0.00292996
-3.12285e-06
0.0556734
-1.2726e-06
0.00176961
-1.751e-08
0.00431821
-2.3622e-06
0.0
-2.3806e-06
0.00946988
0.000145484
-0.000440872
0.000129984
0.000882536
-4.16744e-06
0.00859311
-0.00177972
-3.41747e-06
0.00828088
-0.00284331
-1.52191e-06
0.00748454
0.00247343
-2.3986e-06
-1.09478e-06
0.0421422
0.0478051
0.000109808
-1.34458e-05
0.023671
-0.00261002
0.0
-0.00275862
0.000907884
-9.67645e-06
-2.61238e-06
0.0100946
-0.0106226
0.00209411
-0.00112563
2.20201e-06
5.8208e-07
-3.71483e-06
-9.57919e-06
0.0190935
0.0124208
-1.11881e-06
0.0296758
0.0636151
0.00656599
-1.58646e-06
0.0742086
-1.62099e-05
0.01966
-1.76785e-06
-9.01284e-06
