0.00442784,-0.00140837,0.00502645;0.00447,-0.00133204,0.00138228;0.00642133,0.00301264,0.00443131;
0.00379295,0.000489507,-0.001103;-0.000627602,0.00121475,0.00123372;-0.000306506,-0.000536906,0.00138858;
0.0017578,0.00248066,0.000743989;-0.00016087,0.000641713,0.000204698;-0.00187386,-0.00169469,-0.000612099;
-0.0049718,-0.00442859,0.00107119;-0.00599827,-0.0050445,-0.00158263;-0.00368271,-0.00267004,-0.00170034;
0.0080429,-0.00227337,-0.011317;0.0147993,0.0102337,-0.00807011;0.0126971,0.00992428,-0.00571371;
0.00185204,-0.00101579,-0.00119582;0.00156778,-0.00438416,-0.00506094;-0.000650113,-0.00644935,-0.00389416;
-0.00374075,0.00239227,0.0100331;-0.00282534,-0.00565447,0.00665493;0.00397642,0.00392746,0.00961192;
0.00123122,-0.00186417,0.00507754;0.0022236,-0.00312368,0.00203154;-0.000671024,-0.00185305,7.05611e-05;
0.00399937,0.0115745,0.00128126;0.000342782,0.0114623,0.00740699;0.00314675,0.0106301,0.0107866;
0.002513,0.00320234,-0.00223185;-0.000257567,-0.000313836,-0.00362217;-0.0023206,-0.00162175,0.00150297;
0.00219789,0.00703276,0.00170101;0.00164864,0.00701317,0.00202605;-0.00348167,-0.00177884,-0.00149601;
-0.00246112,0.0057738,0.00890554;-0.00361984,-0.00125292,0.00534086;-0.000988107,-7.53644e-05,0.008203;
-0.0011842,0.000670521,0.00177007;-0.00178037,-0.00260593,-0.00206251;0.000999471,0.000887889,-0.000476039;
-0.00352144,-0.00927646,-0.010192;0.000329004,-0.00465989,-0.0026517;0.0186089,0.0184966,0.011104;
0.00941492,-0.00149173,-0.00945797;0.0190521,0.00827252,-0.00932113;0.0157574,0.00414889,-0.0110687;
0.00193305,-0.00157374,-0.00413215;0.000540494,-0.00030348,-0.00163714;0.000604252,0.00485552,0.00290831;
-0.000136685,-0.00104883,-0.00544481;0.00220897,0.0011146,-7.11169e-05;0.00127707,-2.61672e-05,-0.00219141;
-0.00195863,0.00790863,0.000454811;-0.00607784,0.00381066,0.00474543;-0.00983148,-0.00383803,0.00271084;
0.00521863,0.0170968,0.00537783;0.00226476,0.0134231,0.0104981;-0.000250188,0.00895087,0.0118761;
0.00177268,-0.000758707,-0.00602682;-0.00394983,-0.0088386,-0.0110982;-0.00477772,-0.00364329,-0.0062375;
#
0.00578298,0.00138895,0.00273779;0.00323414,0.006146,0.0126821;0.0105184,0.00789533,0.00709789;
-0.00214789,0.00115326,-0.000846107;0.00294528,0.00172812,-0.00180067;0.00329119,0.00213209,0.00169403;
-0.00251179,-0.00630598,-0.00715129;0.00102803,-0.00341029,-0.000113868;-0.00179598,-0.00156431,3.89478e-06;
0.0151202,0.0135342,0.0135434;0.0187133,0.0184197,0.0158366;0.0206219,0.0184494,0.016766;
0.027966,0.020887,0.0211816;0.0118174,0.0083864,0.0210531;0.0121552,0.00712113,0.0174438;
-0.0131113,-0.0135959,-0.0102882;-0.00240341,-0.00370089,-0.000115739;-0.00316727,0.0048313,0.00635355;
-0.0120416,-0.0143191,-0.00836469;-0.00803648,-0.0129814,-0.00999198;0.00508374,-0.00748968,-0.0116619;
-0.00977585,-0.0107861,-0.00655308;-0.00563728,-0.00359087,-0.00562475;-0.00180548,0.00157391,0.000695991;
-0.0103466,-0.0120049,-0.011459;-0.00565328,-0.0112904,-0.0106563;-0.00449519,-0.00977494,-0.00612216;
-0.00561372,-0.0110734,-0.0129111;0.000739508,-0.0010819,-0.00319245;-0.0019322,-0.00504825,-0.00351272;
-0.00659992,-0.00193465,0.00197382;0.0147057,0.0063958,-0.00101616;0.00482503,0.00852898,0.00715298;
-0.0152501,-0.0153722,-0.0125274;-0.00970916,-0.0132932,-0.0112084;-0.00242913,-0.0119508,-0.0136034;
0.016454,0.00621363,0.0019514;0.0303187,0.0323855,0.0220372;0.0141855,0.00839756,0.00781311;
0.0322468,0.016842,0.00126364;0.015308,0.0194047,0.0122255;0.0193923,0.00239914,-0.00511017;
0.0194961,0.0140602,0.0228394;0.00452154,0.00207323,0.0188398;0.00473302,0.0066163,0.020131;
0.0255213,0.0266562,0.019788;0.0170765,0.0141851,0.0115576;0.0204562,0.0195991,0.0127859;
0.0197478,0.0169736,0.0115729;0.012306,0.00776681,0.00791844;0.0188017,0.0171073,0.0112706;
0.0122496,0.0168501,0.015496;0.0328887,0.0210384,0.0127703;0.0266442,0.0245825,0.0218148;
-0.0136683,-0.0160916,-0.019594;-0.00836328,-0.0146765,-0.0149288;-0.00716681,-0.0096631,-0.0103076;
0.0173427,0.0136716,0.0179708;0.059424,0.0556113,0.0317539;0.0140406,0.0189702,0.018794;
#
0.000942481,0.0033388,0.00929909;0.0123878,-0.00601252,0.00779675;0.031833,0.00977487,-6.5874e-05;
0.00228147,0.000400231,0.00132076;0.00318388,0.00254751,-0.000229437;0.00143829,0.0042035,0.00144453;
-0.00504423,-0.00646595,-0.00645842;-0.00513643,-0.00736214,-0.00692827;-0.00712719,-0.00641936,-0.00374021;
-0.00500842,-0.00194262,-0.000117667;-0.0036729,-0.00235451,8.02991e-05;-0.000212444,-0.00295257,0.00242833;
0.0321602,0.0263045,0.0253641;0.039855,0.0293403,0.0197536;0.0359239,0.0311772,0.0151319;
-0.0129624,-0.0147543,-0.00935155;-0.014693,-0.0173847,-0.0145324;-0.0134338,-0.0172162,-0.0127041;
-0.00812303,0.00543069,0.00787013;-0.0125046,-0.00352719,0.0121752;-0.000913903,-0.00636187,0.00499648;
-0.00434567,-0.00470892,0.00194979;-0.00330416,-0.00725596,-0.00116489;0.00071526,-0.00680324,-0.00391654;
0.00651408,0.00238122,-0.00340419;0.00400767,0.00876922,0.00293655;-0.00577466,0.00997414,0.0094933;
-0.0160714,-0.0125835,-0.011809;-0.0155443,-0.0125927,-0.0117055;-0.0123223,-0.0100481,-0.0114631;
0.007304,0.00185287,-0.000756427;0.00441891,0.0129076,0.00734434;-0.0135209,-0.00040989,0.00858318;
-0.00484499,0.00297612,0.00521228;-0.00897961,-0.00141113,0.00697567;-0.00386633,-0.00582889,0.00697115;
0.00302656,0.00975679,0.00688106;-0.00176736,0.00329564,0.0176011;0.0120046,-0.00222117,0.00272363;
-0.0128503,0.00157497,0.00783607;-0.00941088,-0.0097705,0.00865546;0.0166984,0.00266066,-0.00561219;
0.0331347,0.0229276,0.024384;0.0402227,0.0266034,0.0138842;0.0306932,0.0270881,0.0117651;
0.00273505,0.00458824,0.0124502;0.0101022,0.00504058,0.00252775;0.00959149,0.0124464,0.00644835;
-0.00144067,0.0025137,0.00650646;-0.00214612,-0.00227576,-0.00196776;-0.00428778,0.0011381,-0.00194672;
0.0135426,0.00971679,-0.000511518;0.00700285,0.0213948,0.0121578;-0.00953506,0.010068,0.0180012;
0.00870384,0.00749815,0.000347731;0.00674447,0.0163035,0.0075786;-0.00342068,0.0125463,0.014061;
0.00048658,0.00246696,-0.00143074;-0.00747078,0.00550358,0.0158978;-0.00831537,-0.01106,-0.00268451;
#
-0.0063232,0.00138691,0.00419059;-0.00249893,0.00296614,0.000983256;0.000216402,-0.00101623,-0.00411706;
-0.00196546,-0.00301703,-0.00103506;-0.00223539,-0.0004974,-0.0011391;-0.00150272,-0.00219976,-0.00187901;
0.00312531,0.0055903,0.00477303;0.00453759,0.00618654,0.0028002;0.00460569,0.00529682,0.00251469;
-0.00175038,0.00156796,-0.00126066;-0.00029751,-0.000429971,-0.00279064;-3.19909e-05,-0.000126268,-0.00242061;
-0.0038,-0.00252868,0.00191049;-0.00384352,-0.000762756,0.00904395;-0.00161494,0.0060039,0.0122035;
0.00708788,0.0111483,0.00969713;0.0135869,0.019426,0.0143948;0.0145602,0.0144886,0.00417824;
0.0162033,0.0128083,0.00324598;0.0126322,0.00554316,-0.00175295;0.00950652,2.73557e-05,-0.00293464;
0.00474772,0.00564443,0.0057972;0.00581979,0.0080238,0.00375199;0.00576465,0.00687475,0.000388678;
0.000457206,-0.00212442,-0.00325743;0.00137311,-0.00411431,-0.000848129;-0.00386225,-0.000552961,0.0026005;
0.00631562,0.0116943,0.00841786;0.012808,0.0131189,0.00476628;0.00819233,0.00464746,0.00405138;
0.000470163,0.000413531,0.00270291;0.00427558,0.00580018,0.00593063;0.00689484,0.00189711,-5.14211e-05;
0.018179,0.0129969,0.00395841;0.0159863,0.00939356,0.00147981;0.0134223,0.00297152,-0.00354489;
-0.0054268,-0.00371252,-0.00373112;-0.00371291,-0.00405708,-0.00524507;-0.00409734,-0.00484513,-0.00465659;
0.0068632,0.00736681,0.00225425;0.00189876,-0.00528066,-0.0038287;-0.0072212,-0.00444842,0.00367982;
-0.00475228,-0.0021662,0.00410424;-0.00544755,0.00413354,0.0135992;0.00289301,0.00772546,0.0104232;
-0.00551429,-0.00469153,-0.00388979;-0.00371704,-0.00397825,-0.00112377;-0.00245005,-0.00411307,-0.00388982;
0.00228311,0.00195105,-0.000451884;0.00272383,0.00322972,0.0061772;0.00448338,0.0054873,0.00401659;
-0.00653151,-0.00905037,-0.00747769;-0.0042485,-0.00799429,-0.00844321;-0.00611286,-0.00782117,-0.00663637;
-0.00152667,-0.00315034,-0.00442271;-0.000987488,-0.00486994,-0.00406685;-0.00167374,-0.00503334,-0.00284127;
-0.00268451,0.00374624,0.00433255;0.00283072,0.00394249,-0.000607619;0.000848178,-0.00210581,0.000774358;
#
-0.00144862,1.62796e-05,0.000151923;-0.000796686,-0.000684753,-0.00145138;-0.00116231,-0.00095667,-0.00150523;
0.000447676,-0.000871921,0.00132107;-0.000388869,0.00162227,0.00138538;-0.000978699,0.00132054,0.000680123;
-0.000309464,0.00122159,-0.000199992;0.00148494,0.00090088,0.00145736;-0.00111423,-0.000637062,-0.000637663;
0.000157666,-0.000311236,0.00134921;0.000539867,0.000392012,0.000819254;5.10481e-05,0.00153419,-0.000767188;
-0.00048917,0.000807216,0.000673689;-0.000930663,-0.000349199,7.51237e-05;-0.000526623,0.00158928,-0.000784438;
-6.96632e-05,-0.000497784,0.00137904;-0.00131427,-0.00160977,-0.00141745;-0.000657464,-0.000508251,0.00147697;
-0.000297392,-0.000171565,0.000634578;0.00013878,-0.000197842,0.000330651;-0.00126564,0.0012246,0.000441255;
0.000786516,-0.000712164,-1.24917e-05;0.000639966,-0.000757564,0.00128955;0.000897386,-3.73068e-05,0.000385309;
0.000955419,0.00187909,-0.000998408;-0.00101381,0.000836109,-0.00129583;5.3845e-06,0.0014436,-0.000967974;
-0.00168139,-0.00128218,0.00173999;-0.000724538,-0.00146484,-0.0012735;0.00077074,-0.000162368,-0.00100402;
0.000626993,-0.000269253,-0.000171291;0.00155874,-0.00149044,-0.000719482;0.000852262,0.000790513,-0.00106187;
-0.000852479,0.000378441,0.00165746;-0.00173503,0.00169364,0.00199444;-0.00107772,0.00198781,0.00270453;
-0.0009379,9.66477e-05,-0.0014916;0.000723675,0.000686925,-0.00134782;0.000139277,-0.000575825,-0.0015065;
-0.000626769,0.000263122,-0.00125591;-0.00115435,-0.000290652,-0.00030601;-0.00133967,-0.0014055,-0.000417546;
0.00066338,-0.000750443,0.000920089;-0.00050586,-0.00165545,-0.00140711;0.000177484,-0.000577385,-0.000534052;
0.000279998,0.000260981,0.000360305;-0.00163729,0.001267,-0.000735471;-0.000746141,-0.00109281,-0.00111656;
-0.00173065,0.00117011,-0.00117382;0.000276062,-0.000969476,-0.00113405;3.03477e-05,0.00059144,-0.00148798;
-0.000587873,0.000307742,-0.000778775;0.00134282,-0.00109711,2.69918e-05;-0.000981556,-0.000317619,0.00185829;
0.000167987,0.00176474,-0.000812265;0.000661552,0.00159925,-0.00104749;0.00207126,-0.00011496,0.00135657;
0.000303027,-0.00100828,-0.000508812;-0.00106438,-0.00108517,-0.00028889;-0.000371815,-0.000165758,0.00168777;
#
-0.00341125,0.0390413,0.0251727;-0.00148022,0.0311515,0.0133371;0.00213709,0.0137763,0.00532681;
0.00734221,0.00112367,0.00426449;0.0066921,0.0014861,0.00245955;0.00266894,-0.000837012,-0.000589151;
0.00783321,0.0189684,0.00567058;0.0155641,0.0194689,0.00145941;0.0118314,0.00594026,0.00366912;
-0.0011831,0.00876608,-0.0059837;-0.000322636,0.00425521,-0.00790214;-0.00369943,-0.00118241,-0.00855456;
-0.0158593,-0.0162959,0.0134407;-0.0178596,0.000156023,0.0251088;-0.00202099,0.00994886,0.0165034;
0.00852561,0.0376118,0.0187671;0.0272476,0.0437024,0.00494555;0.0255099,0.0183637,-0.00298343;
0.0154224,0.00614648,-0.0170275;0.00651711,-0.00074696,-0.0112103;0.00317188,0.00415897,0.0028712;
0.00368681,0.02569,0.0160046;0.00519718,0.0243978,0.00858209;0.00751981,0.013983,0.00267727;
0.0295292,-0.0015392,0.0120169;0.0241651,0.000467353,0.0190328;0.0118078,0.0119194,0.0160803;
0.0199585,0.0314063,0.0049004;0.040321,0.0247511,0.00165027;0.0235359,0.00724996,0.0126036;
-0.000155001,-0.00409526,-0.00934187;0.0133624,0.0044505,-0.0162942;0.00648847,-0.00738998,-0.0214976;
0.0164262,0.00738951,-0.019505;0.00972016,0.00299634,-0.0141741;0.00572457,0.0023707,0.00237328;
0.00203554,0.0017665,-0.00752046;0.000189367,-0.00304632,-0.010511;-0.00705707,-0.00442598,-0.00598518;
0.0148806,-0.00799864,-0.0278504;0.00186316,-0.0179257,-0.011506;-0.0101129,-0.00288012,0.00480291;
-0.0213369,-0.00248443,0.0276084;-0.0151155,0.0165221,0.0291727;0.00554685,0.0215247,0.0169406;
0.00413004,0.00108575,-0.00474072;0.00060366,-0.00844535,-0.00650991;-0.00571372,-0.0101289,-0.00781157;
0.00954089,-0.00201646,-0.00593424;0.00183935,-0.00338809,-0.0046603;0.00104847,-0.00349671,-0.00934707;
0.00835157,-0.0102277,-0.0127293;0.00784146,-0.00785563,-0.0144145;0.000486082,-0.011679,-0.0131568;
0.0198776,0.00290273,0.00466554;0.0214481,0.000837963,0.0079822;0.0128827,0.00536265,0.0077244;
0.00658204,0.000942268,-0.0147363;0.0176997,-0.00377505,-0.0255794;-0.00474951,-0.0152645,-0.00927402;
#
-0.00175651,-0.000842866,0.00082526;-0.00289482,-0.00102953,0.00249507;0.000107641,-0.0017133,0.000146447;
-0.00153674,-0.00027638,0.000708839;-0.00195599,-0.000755599,0.00104127;0.000933532,-0.000568562,-0.000722361;
-0.000852436,0.000969997,0.00132369;0.000815939,0.000594021,0.00224783;-0.000251486,0.00154955,0.0015332;
0.0051777,0.00687496,0.00663548;0.00563419,0.00716586,0.00757065;0.00738557,0.00572524,0.00704884;
-0.00499706,-0.00683319,-0.00356054;-0.00438241,-0.0022175,-0.00274097;-0.00442072,-0.00215997,-0.0015234;
0.000669329,0.00286899,0.00282957;0.00585538,0.00286842,0.00500245;0.00480977,0.00510331,0.00670194;
0.014099,0.014857,0.0127385;0.0145432,0.015463,0.0138135;0.0158384,0.0163728,0.0159532;
0.00427578,0.00496355,0.00363105;0.00605578,0.00381222,0.00666276;0.00596354,0.00567282,0.00548578;
0.00170327,0.00131468,0.0013868;-0.00144657,0.000978866,0.000375233;-0.000443056,0.000671134,-7.36564e-05;
-0.000156823,0.000535699,0.000639589;-0.000361102,0.000524495,0.0016506;0.000274889,0.00140178,0.00168973;
-0.00364319,-0.00223827,-0.00216064;0.000548841,-0.000571546,0.00222507;-0.000573726,0.000622514,0.00186401;
0.014242,0.0143839,0.0135418;0.0168397,0.0163886,0.0144494;0.0172566,0.0155302,0.0156853;
0.00158522,-0.000758723,0.00254632;-0.00453755,-0.00361696,-0.00173063;-0.00164439,-0.00214832,-0.00151362;
0.00669054,0.00524717,0.00412082;-0.000763045,-0.00246418,-0.00225887;-0.00121164,-0.00293576,-0.000793566;
-0.00608745,-0.00448958,-0.00365931;-0.00552614,-0.00328996,-0.00266106;-0.00402722,-0.00405965,-0.00195751;
-0.00418954,-0.00334297,-0.00346628;-0.00136608,-0.00114827,-0.00274139;-0.00186905,-0.00282942,-0.000705128;
-0.0009902,-0.0016715,-0.000171311;-0.00339973,-0.00256905,0.000499181;-0.00183543,-0.000274431,-0.000840757;
0.0026126,0.00408787,0.00621147;0.00503265,0.0046371,0.0068243;0.00583635,0.00722616,0.00616847;
-0.00261877,-0.00380049,-0.00235744;-0.0042858,-0.0024367,-0.00180785;-0.00279078,-0.00364743,-0.00139637;
-0.000964269,0.00123648,0.00180034;-0.00634254,-0.00570524,-0.00441456;-0.00399644,-0.00283739,-0.00219448;
#
0.00715606,0.00377179,0.000113383;0.00617439,0.00631416,-0.000682198;0.000238114,0.00501545,0.00168508;
0.00165018,0.00261713,0.00106669;0.00245368,0.000625975,0.0030306;-0.000689821,0.000326024,0.00104133;
0.000416925,0.000853285,0.000262337;0.00335614,0.00311709,0.00201417;0.00325943,0.00191342,0.00158934;
0.000740221,1.69015e-05,-0.000986673;0.001175,0.00108742,0.000766236;-0.00158109,-0.000421313,-0.00117559;
-0.00157231,-0.00209142,-0.00337977;-0.000682857,-0.000472185,-0.00219041;0.00335075,0.00357521,-0.000450254;
8.91657e-05,-0.000210479,-0.00138165;0.00387533,0.00332188,-0.000232637;0.0056655,0.000598219,-0.0020691;
0.00481219,0.000420931,0.00202913;0.00477755,0.00142618,-0.0007706;0.00218226,-0.000284626,-0.00205223;
0.0023529,0.00240185,6.59648e-05;0.00368738,0.00326821,0.00169417;0.00083102,0.0015601,0.000446629;
-0.00028361,0.00235019,0.00103185;0.000464644,0.000307326,0.00490948;0.0016905,0.00201317,0.00325142;
0.000989692,-8.61258e-05,6.5544e-05;0.00292113,0.000542692,0.00210284;0.00421682,0.00202993,0.0010415;
-0.00179021,0.00102989,1.93379e-05;0.00349178,0.000898877,0.00194969;0.00362938,-0.00033778,-0.00179591;
0.00550327,0.00289786,0.00125176;0.00607826,0.00198791,-0.00164899;0.00415784,0.000513196,0.000316946;
0.00239077,0.000414117,0.00114672;0.00242715,0.00391635,0.000855865;-0.000352697,0.000554037,-0.00186455;
0.00164382,-0.0035146,-0.00398438;0.0048178,0.00120963,-0.00426788;-0.00129035,0.000456033,-0.00083795;
-0.00156211,-0.00246189,-0.00442777;-0.00105792,0.0028694,-0.00205052;0.0045242,0.00273465,-0.00132794;
0.00425523,0.00340692,0.0016594;0.00273564,0.0016227,0.00218161;0.000978399,-0.00115085,-0.00145971;
0.000616781,-0.00166021,-0.00288193;0.00221826,0.000412398,-0.000727978;-0.000142609,0.000590638,-0.00217491;
-0.00134069,0.00229659,0.00260922;0.00102032,-1.65295e-05,0.00248643;0.00164509,-0.00201641,-7.21301e-05;
0.00127269,0.0017942,0.00450876;0.000976091,-7.16155e-05,0.00571835;0.00151939,0.00147508,0.00513959;
0.00117345,-0.00183156,-0.00306869;0.00589924,0.00455647,-0.00277193;0.000391036,-0.00135053,-0.00241211;
#
0.00617091,0.000607447,-0.00307268;0.00631854,-6.78782e-05,-0.00322591;0.00433415,-0.00146647,0.000720178;
0.000466716,-0.000773081,0.00044685;-0.00151215,-0.00103156,-0.000626489;0.000825102,0.00173887,5.56242e-05;
0.000308981,0.00127252,0.00010476;0.0020697,-0.00106519,0.000567827;0.000718853,0.000336058,0.0024232;
0.000778372,-0.00250627,-0.00115128;0.000529983,-0.000352395,-7.43695e-05;0.000750877,-0.00269967,0.00102323;
-0.00166123,0.000931624,-0.00152885;0.000863431,0.00576113,-0.0022194;0.00862814,0.0052941,-0.00240827;
0.000497316,0.00146426,-0.00245425;0.00533001,0.00210979,-0.00391248;0.00311547,-6.84937e-05,-0.000740584;
-0.000402218,-0.00407945,0.000180254;0.000922963,-0.00386612,0.004086;0.00108018,0.00370344,0.0107082;
0.00357449,0.000878841,0.000749642;0.00580578,6.94393e-05,0.000478189;0.0030533,-0.00159831,-0.000937575;
-0.00130246,0.00456542,0.0093617;-0.000303503,0.00624544,0.0134721;0.00230224,0.0133611,0.0145105;
0.00203774,4.57847e-05,0.000978763;0.00395859,-0.000973354,0.000958685;-0.000199838,-0.000707892,0.00937276;
-0.00111266,-0.000824357,-0.00444956;0.000882715,0.000315065,-0.00482436;0.00246393,-0.00263058,-0.00333773;
-0.00130464,-0.00326723,0.00314443;-0.000757638,-0.0024772,0.00483095;-0.00229883,-0.00028333,0.0100178;
-0.000607426,-0.00464129,-0.00464848;0.000395549,-0.00288397,-0.00414416;-0.000140169,-0.0029995,-0.00322095;
-0.00417691,-0.00849141,-0.00501543;-0.00672708,-0.00635575,0.00147558;0.00444989,0.0126015,0.011782;
0.000829655,0.00321284,-0.00046219;0.00539014,0.00806263,-0.00178154;0.0106998,0.00361236,-0.00717883;
-0.00175139,-0.00428322,-0.00514024;-0.00262613,-0.00417487,-0.00151556;0.00153889,-0.00186456,-0.00153867;
-0.00166825,-0.00286246,-0.00417;-0.00033343,-0.000771093,-0.00277286;0.00236515,0.00268385,-0.00129467;
-0.00224907,-0.00251939,0.002744;-0.00149785,-0.000109369,0.00494851;-0.00123286,-0.00207615,0.00248341;
0.00138798,0.00165696,0.00772293;9.51287e-05,0.00273139,0.0108581;0.000947308,0.00559406,0.0101029;
-0.00469086,-0.0065524,-0.00736786;-0.000158975,-0.00525047,-0.00760845;-0.00434144,-0.00687817,-0.00277224;
#
-0.0302897,-0.0280674,-0.0128149;-0.0199603,-0.00933325,0.00302936;-0.020731,-0.0249276,-0.0209473;
-0.00706194,-0.00354908,0.000100312;-0.000294274,0.00216638,0.00361311;0.007758,0.00273296,0.00256055;
0.0159915,0.00995511,0.00298264;0.011524,0.0165404,0.0261116;0.0223544,0.0376155,0.0276695;
-0.0144268,-0.0144293,-0.0083967;-0.0124509,-0.00678394,-0.00234407;-0.0119317,-0.00805062,-0.00548434;
-0.0022674,0.0130403,0.0034947;0.0155114,0.0138115,-0.00835679;-0.00476607,-0.0116296,-0.0108029;
0.0402341,0.0246567,0.00674703;0.0251489,0.0119655,0.0370161;0.028074,0.0665514,0.0600281;
-0.0161969,-0.0162553,-0.0123776;-0.0102826,0.0062575,0.00997573;-0.00444384,0.00545786,0.00832489;
0.00158418,-0.00553838,-0.0101816;-0.00658304,-0.00726269,0.00144613;-0.00651377,0.00135217,0.0101445;
-0.011738,0.00440096,0.0148432;0.0208964,0.0265402,0.0126403;0.020695,0.00489592,0.00106792;
0.0345405,0.0142921,0.0116088;0.0217909,0.0536327,0.0670834;0.0643676,0.0837318,0.0545167;
0.00989334,0.0061809,0.00179849;-0.00148649,-0.00790875,-0.00233828;0.0229426,0.0374412,0.0307684;
-0.00647313,-0.0118023,-0.010011;-0.0156318,0.00173058,0.00896298;-0.00117141,0.015246,0.0152383;
-0.0209028,-0.0152844,-0.00517635;-0.00390744,0.0147128,0.0191257;0.0165288,0.0101618,0.00451576;
-0.016654,0.00147809,0.0216538;0.0790273,0.117144,0.0934058;0.063343,0.0261971,0.00641897;
0.0159072,0.0259324,0.00295785;0.0217884,0.00399775,-0.0132813;-0.00378629,-0.0039157,0.00111761;
-0.0142111,-0.00152687,0.0147946;0.0164605,0.017256,0.0148608;-0.000787616,-0.00320447,-0.00486725;
0.0122973,0.023011,0.0227939;0.0436393,0.0378449,0.0204884;0.0171699,0.0195513,0.0243131;
-0.0288909,-0.0280284,-0.0113927;-0.0249025,-0.0252481,-0.0213041;-0.00758594,-0.00278395,-0.00871017;
-0.0149049,-0.0117742,0.0059347;-0.000532043,0.00288701,0.00190273;0.0175746,0.00874465,-0.00529004;
0.0249599,0.0168124,0.010399;0.0184903,0.0514941,0.066409;0.0827665,0.0779833,0.0515322;
#
0.0203595,0.0138216,0.00284489;0.00513195,0.0132539,0.0188179;0.000340399,0.00314513,0.00843067;
0.00165467,0.0012524,0.00423316;0.00281414,-0.000962175,0.00155082;0.00170757,0.00331089,0.00316335;
-0.000167664,-0.00366521,-0.00343834;-0.00369175,-0.00335193,-0.00800616;-0.00351008,-0.00131762,-0.00813644;
0.0321538,0.0321221,0.0277305;0.0314007,0.0354093,0.0291051;0.0304661,0.0311824,0.0320893;
-0.000649921,0.000444186,0.00554931;0.00597377,-0.00460138,0.0121081;0.0155791,0.00252546,0.00737872;
0.0110344,0.00543609,0.00630713;0.00831935,0.00279896,-0.00101;0.00569139,0.00490849,-0.00493408;
0.0029205,-0.00377157,-0.00206868;0.00513809,0.00643015,0.0104725;0.01183,0.00433926,0.0248812;
0.0104552,0.00715175,0.00622895;0.00856292,-0.000342354,0.00339239;0.00926625,0.00198794,0.00580167;
0.00115004,0.000799128,0.0139591;0.00873807,0.0033413,0.00867008;0.00576009,0.00520279,0.0132296;
-0.00117482,-0.00697851,-0.00469353;-0.0110694,-0.00735395,-0.0132695;-0.00579704,-0.0103177,-0.016192;
0.00539043,0.000786653,0.00860711;0.0122409,-0.000848828,-0.00262428;-0.0077233,0.00115827,-0.00137641;
-0.00440883,-0.00923445,-0.00272025;-0.00288404,-0.00575745,-0.00302603;0.00732349,0.00443741,0.0181407;
0.0181091,0.0126762,0.00520367;0.00362791,0.0159508,0.0135863;0.00103016,0.00104361,0.0105998;
0.00495744,-0.000864049,-0.0102091;-0.00676713,0.00391017,0.00635735;-0.0137608,-0.0238027,-0.00765495;
-0.00499728,-0.00301966,0.0032809;-0.00167573,-0.00627114,0.0120996;0.0110894,0.00223436,0.00879449;
0.00584798,0.0099697,0.00723294;0.00261217,0.000774511,0.00762791;0.00384537,0.00433603,0.00179004;
0.0042065,0.00293623,0.00031863;0.00136726,-0.00269121,-0.00110917;-0.00200726,-0.00387032,-0.00754249;
0.0422545,0.0359964,0.0490479;0.0466476,0.0444538,0.0426167;0.036661,0.0477085,0.0537708;
-0.00976147,-0.00755298,0.00244534;-0.0116218,-0.00755678,-0.00448349;-0.0137138,-0.00241502,0.000361348;
0.017274,0.00772822,0.00688242;0.00657898,0.00531213,-0.0124153;1.9128e-05,-0.000546393,-0.00159345;
#
-0.00304405,0.000149206,0.00770012;-0.0101614,-0.0168539,-0.0130894;-0.0122387,-0.022969,-0.0235973;
0.00341859,0.00442153,0.00239812;0.00304309,0.00308712,0.00166556;-0.00126384,-0.00434581,-0.00335093;
0.00643073,0.00743087,0.00552153;0.00407884,0.00636841,0.00534062;-0.00248252,-0.0034076,-0.00397751;
-0.00311788,0.00110518,-0.000137149;-0.00371565,-0.00487834,-0.00242483;-0.0093172,-0.0108146,-0.0110973;
-0.00437397,-0.00397591,-0.0049079;-0.0025685,0.000722844,-0.00305637;0.0154616,0.0138282,0.0144113;
0.00835751,0.0150398,0.0108455;0.00652579,0.009981,0.0133694;-0.00380848,-0.00232868,-0.00219718;
0.0196756,0.025305,0.0251252;-0.00113626,0.000394957,0.000952597;-0.0183613,-0.0227509,-0.0187102;
0.000148138,0.00437078,0.00457306;-0.00381287,0.000773346,-0.000133443;-0.00864238,-0.0101719,-0.0109733;
0.000866439,-0.00367819,0.000646136;-0.00810858,-0.0139174,-0.00588566;-0.0155718,-0.0181932,-0.00627495;
0.0133729,0.0117248,0.00881432;0.00689213,0.00752281,0.0113342;-0.00871668,-0.00619126,-0.00689074;
0.019555,0.0217471,0.0169239;0.029045,0.0296029,0.0295166;0.0195672,0.0210555,0.0174931;
0.0227876,0.0284553,0.0249495;0.00758282,0.00671353,0.00661511;-0.0162174,-0.0162528,-0.0137258;
0.010746,0.0145101,0.0155624;0.00508511,0.00754804,0.00180152;-0.00288081,-0.00622729,-0.00572436;
0.0286366,0.0303382,0.0259552;0.00180331,0.00137309,-0.00494455;-0.00897787,-0.00981157,-0.0045237;
-0.0047205,-0.00270293,-0.00882377;1.88727e-05,-0.000929998,-0.000566299;0.0158823,0.017844,0.0168004;
0.00775287,0.0103099,0.00956815;0.00305861,0.00227849,0.000376403;0.00240816,-0.00180835,-0.00332884;
0.00927236,0.0097445,0.0102685;0.00847138,0.00987209,0.00638444;0.00765746,0.0064036,0.00847229;
0.00239519,0.00296582,0.00214772;0.00115567,0.00191086,0.000373841;-0.00542935,-0.00801145,-0.00780557;
0.0059615,0.00122254,0.00213003;0.000937591,-0.00285584,0.00107013;-0.00494599,-0.00895175,-0.00449021;
0.0276461,0.0318144,0.0242569;0.0271651,0.0281255,0.0283328;0.00147468,0.00442557,-0.00209662;
#
0.0317149,0.0154037,-0.00648001;0.0424326,0.0426976,0.0125128;0.0301865,0.0443672,0.0366079;
0.00107018,0.00168498,0.000195925;-0.00106912,-0.00180284,-0.00222116;-0.00204173,-0.0046964,-0.00385363;
-0.00143048,-0.00542859,-0.00620063;-0.00128439,-0.00741047,-0.00830554;-0.00101694,-0.00545494,-0.00726792;
0.0104923,0.00491061,0.000949493;0.014371,0.00571323,-0.000602404;0.0164053,0.0117478,0.0066954;
0.0191631,0.0342715,0.0421367;0.010312,0.0374902,0.0488263;-0.00788435,0.00862505,0.0263385;
0.00117417,-0.00285056,-0.00810231;0.00437432,-0.00380172,-0.0146419;0.00170668,-0.00834758,-0.0134256;
0.00678042,-0.0114854,-0.0140426;0.0173655,-0.00813824,-0.0227604;0.0292576,0.0180653,-0.00604691;
0.0124943,0.00666795,-0.00285102;0.0143594,0.00835817,-0.0047537;0.0121307,0.0108091,0.00592586;
-0.00716495,-0.0032276,0.00575331;-0.00574252,-0.00198369,0.00669834;0.000902233,-0.00320511,0.00188727;
-0.0104665,-0.0150887,-0.0145413;-0.0114371,-0.016888,-0.0184774;-0.00813266,-0.0149938,-0.0144964;
-0.0062017,0.000973017,0.00580928;-0.0111195,-0.0137664,-0.00655482;-0.00276914,-0.0180641,-0.0211039;
0.00515383,-0.00968984,-0.0126936;0.00972231,-0.0124669,-0.0229591;0.0220445,0.00646662,-0.0148871;
-0.000717404,-0.00787517,-0.0118739;0.012165,0.00126672,-0.0100327;0.012169,0.0158378,0.00104938;
-0.0112411,-0.0240413,-0.0246926;0.00816889,0.00114918,-0.00726164;0.0106529,0.0205743,0.0139616;
0.0204687,0.0397227,0.0419341;0.00819717,0.0368325,0.0457407;-0.00766594,0.00543429,0.0185872;
0.00473166,-0.000648002,-0.00618928;0.00201147,0.00461178,0.000370951;-0.00455445,-0.00493245,-0.00152562;
-0.00670564,-0.0101403,-0.00803671;-0.00857309,-0.0085146,-0.00763442;-0.0104213,-0.0149784,-0.0155556;
0.00554895,0.0070717,0.0108281;0.00500318,-0.00202545,0.00670241;0.0152772,5.87595e-06,-0.00354316;
-0.00183691,-0.00234685,0.00214033;-0.000111056,-0.00311108,0.00315317;0.00323836,-0.00165376,-0.0011929;
-0.0206316,-0.0204464,-0.0128586;-0.0179009,-0.0331593,-0.0310738;-0.00416774,-0.0159941,-0.029849;
#
0.0435366,0.0142676,0.0165684;0.0717105,0.0765484,0.0366614;0.0155721,0.0714608,0.0708347;
0.00855203,0.0128841,0.00799029;0.00846887,0.0177429,0.0170285;0.0182091,0.00893058,0.0135192;
-0.00539509,-0.0146384,-0.0138797;-0.000532214,-0.00789752,-0.0126542;0.00729421,0.000409197,-0.00213896;
-0.00726595,-0.0121111,-0.00867019;0.0056481,-0.00145736,-0.00545001;0.011113,0.0117875,0.00239947;
0.01479,0.0124201,-0.00735131;-0.00524549,0.0183889,0.00775172;-0.0174403,-0.00451887,0.00383851;
-0.0221553,-0.0439204,-0.0386162;-0.0146951,-0.0309673,-0.0335684;0.0046698,-0.00648206,-0.0117936;
-0.0160409,-0.0218082,-0.0162448;0.0261187,0.00445931,-0.0204961;0.0317446,0.0347431,0.00328184;
0.000495937,-0.0158118,-0.0106439;0.00687591,0.00464378,-0.00682668;0.00473391,0.0168671,0.0106406;
-0.015953,-0.00815223,-0.0119137;-0.0122273,-0.0233487,-0.00274009;0.00301186,-0.0185645,-0.00352451;
-0.0183082,-0.0275553,-0.0292324;-0.00412343,-0.0194589,-0.0303586;0.00391676,0.000314457,-0.00529075;
-0.00329038,0.00942408,0.0112512;-0.00717605,-0.000815845,0.0119514;0.0505844,0.0222419,0.00171925;
-0.0225235,-0.0207416,-0.0153254;0.010188,-0.00815339,-0.0201904;0.029182,0.0215558,-0.00849938;
0.0259146,0.0182051,0.0302875;0.0777938,0.0545779,0.0266711;0.0662722,0.0872318,0.0565281;
0.0280465,-0.00700463,-0.0201381;0.0922597,0.0634801,0.00312993;0.0396355,0.0746665,0.0646648;
0.00936764,0.00697839,-0.0120045;-0.00725575,0.0134204,0.00675355;-0.0167222,-0.00907171,-0.00673066;
0.0468781,0.0409907,0.0208878;0.0485294,0.0737802,0.0566008;0.0260018,0.0298961,0.0442526;
0.0105551,-0.000490137,-0.00909947;0.0194495,0.0206083,0.00759696;0.0113342,0.00687581,0.00843954;
-0.00788362,0.0125957,0.0182848;-0.00201539,-0.00298556,0.0233296;0.0421744,0.0147562,-8.55103e-05;
-0.00169575,0.00753932,0.0164706;0.000337598,-0.000500189,0.0209703;0.0239387,0.00403048,0.0111244;
0.0213346,0.0197812,0.0157424;0.0708723,0.0364887,0.011392;0.0890043,0.085143,0.0414537;
#
0.0125073,0.00223076,-0.0116622;0.0133929,-0.00136025,-0.0111406;0.00503184,-0.00551927,-0.0085876;
-0.00515084,-0.0028605,-0.00470273;-0.00578865,-0.00378518,-0.00278764;-0.00393821,-0.0019868,-0.00300871;
0.00310343,-0.00158202,-0.0025189;0.00151601,-0.00236053,-0.00192121;-0.00422246,-0.00225104,0.00334565;
0.00375865,-0.000387002,-0.0020729;0.00113441,-0.00140174,0.0016454;0.00235629,-0.000458576,0.00596957;
0.0276304,0.0427301,0.0373884;0.0311589,0.0394378,0.0194694;0.0254957,0.0164512,-0.0102262;
0.0158704,0.00765038,-0.00404265;0.0140909,-0.00261565,-0.00922277;-0.000615897,-0.0104042,0.0012269;
0.00429495,-0.00641429,-0.00752259;-0.00161469,-0.0073168,0.00700976;0.00274626,0.0140272,0.0248396;
0.0130528,0.00537897,-0.00232411;0.0129387,-0.000193785,-0.00481692;0.00506122,-0.00246462,0.00246404;
-0.00510484,0.0077785,0.0227959;0.00274049,0.0231472,0.0299857;0.0144008,0.0253678,0.0215768;
-0.000740537,-0.00657964,-0.00344287;-0.00368453,-0.00989838,0.00461771;-0.0100792,-0.000886396,0.0150204;
0.00113615,-0.00631808,-0.0129935;-0.00343926,-0.0135667,-0.0167364;-0.0113183,-0.0209447,-0.0106093;
0.00724439,-0.00594147,-0.0071123;-0.00205913,-0.00785691,0.00451736;-0.000519569,0.00635491,0.0246115;
-0.00722544,-0.0132685,-0.0153566;-0.00946463,-0.0168231,-0.0119052;-0.0122137,-0.0107425,-0.0101901;
-0.0138095,-0.0186837,-0.00205482;-0.0139187,0.00269395,0.0228922;0.00493711,0.0238673,0.026438;
0.0345043,0.048298,0.0338433;0.0368197,0.0384732,0.00711468;0.0232874,0.00660668,-0.0218964;
-0.00831309,-0.0156126,-0.0147194;-0.0147817,-0.0152632,-0.0145578;-0.0152771,-0.0155699,-0.0126609;
-0.00511494,-0.00869572,-0.0048518;-0.00716403,-0.00703814,-0.006694;-0.0101227,-0.0122653,-0.00978519;
-0.00271771,-0.00273537,0.000382331;-0.00466139,-0.00389618,0.00248727;-0.00309231,-0.00142066,0.00643878;
-0.00674316,-0.00278855,0.00702994;-0.00167895,0.00446074,0.0138919;0.00252608,0.00957257,0.0129451;
-0.0151191,-0.0247934,-0.0298128;-0.0281128,-0.0365641,-0.0232343;-0.0352413,-0.0251619,-0.0116468;
#
-0.00255283,0.0175387,0.0211347;-0.00580741,-0.0180819,-0.0076457;0.00264339,-0.0191806,-0.0199775;
0.00815546,0.00103462,0.00642059;0.0104559,0.00839594,0.00902602;0.0019339,-0.00105756,0.00208809;
0.00287278,0.00229368,0.00209448;-0.00147389,0.00232967,0.00230286;-0.00842035,-0.00883662,-0.00713734;
0.0202054,0.0255785,0.0242116;0.0151808,0.0233213,0.0235048;0.0148084,0.0107944,0.0126;
-0.0182573,-0.022772,-0.0110177;0.0131647,-0.00256537,-0.00822678;0.0241435,0.0166355,0.0154776;
0.0101195,0.0134853,0.0186741;0.0057816,0.0158063,0.0169041;-0.0130681,-0.0131479,-0.0080345;
0.012447,0.0271201,0.0243922;-0.0147839,-0.00685836,0.00817017;-0.0191549,-0.0272107,-0.0218036;
5.35888e-05,0.00829499,0.0114166;-0.00533405,-0.00111963,0.00571924;-0.00855605,-0.0148776,-0.0120476;
0.0159761,0.00120543,6.89719e-05;0.0113258,0.000614834,0.0020061;-0.00733809,-0.0103178,-0.00828108;
0.00552585,0.00638622,0.00552245;-0.00469215,-0.00526,-0.00196208;-0.015679,-0.0195201,-0.0108067;
0.0387773,0.027246,0.0205964;0.040404,0.0538245,0.0440458;0.00457899,0.0132642,0.0271681;
0.00695175,0.0151562,0.0201442;-0.0102178,-0.000804514,0.00774331;-0.0221219,-0.0253187,-0.0153894;
0.0235367,0.0403812,0.033577;-0.00670519,0.00341846,0.0177798;0.00491927,0.00137445,-0.00317676;
0.00623916,0.0376365,0.0435199;-0.0332234,-0.0320151,-0.00757658;-0.0128379,-0.0232891,-0.0370068;
-0.0223897,-0.0244612,-0.0160738;0.00962125,0.000298185,0.000940659;0.0216384,0.0154797,0.020085;
0.00271212,0.00851545,0.0207055;0.0170338,0.0144045,0.00589508;0.00323187,0.00547448,0.0058121;
0.00512693,0.0103547,0.0126706;0.0108478,0.0083021,0.00491402;-0.00379234,0.0022877,0.0010134;
0.0561497,0.0415528,0.0319664;0.0530494,0.0612715,0.0526922;0.0257858,0.0314875,0.0344136;
0.0178609,-0.00117993,-0.00321318;0.0143189,0.0131943,0.0059287;-0.00638852,-0.0060993,-0.00605057;
0.04746,0.0501879,0.034388;-0.00168445,0.0241248,0.0354909;0.00390427,0.000859311,0.00449137;
#
-0.00210833,0.0111408,0.0227051;0.00864369,0.0204239,0.0394591;-0.0142484,-0.018546,-0.0073833;
-0.00073615,0.00281435,0.00834106;0.0134449,0.0132877,0.0121567;0.0150125,0.0140191,0.0102594;
0.00778371,0.00211633,-0.00133919;0.0177598,0.0222853,0.0252461;0.0122297,0.0205343,0.0208435;
0.0031828,0.00481734,0.00992399;0.0115845,0.018512,0.0194506;0.00663095,0.0142421,0.0160838;
-0.016489,-0.0153541,-0.0146394;-0.0125139,-0.01789,-0.0190955;0.00999301,0.00275157,0.00518028;
0.0134896,0.00260756,-0.00622315;0.0267199,0.0323611,0.0469897;0.0260029,0.0474633,0.0583337;
0.0211225,0.0324874,0.0333774;0.0385836,0.0570383,0.0570996;0.0194691,0.0298454,0.0235831;
-0.00386622,0.00138112,0.00398511;0.00493626,0.0120594,0.0240706;0.00723573,0.0128982,0.0282055;
0.00301663,-0.00137129,-0.0041148;0.0230145,0.018709,0.00469136;0.0117097,0.00232587,-0.00108776;
0.0191726,0.00278833,-0.0049263;0.0417578,0.0527807,0.0512784;0.0241689,0.0328483,0.0279827;
0.00166423,-9.11761e-05,0.00391514;0.0295984,0.0304549,0.0278597;0.0500554,0.0633486,0.0629573;
0.0209703,0.0259505,0.0307824;0.0325691,0.0442796,0.0501525;0.02846,0.044416,0.0403492;
0.00781753,0.014852,0.0231644;0.0429361,0.0635541,0.06724;0.0111611,0.010122,0.00841018;
0.0583138,0.0687864,0.0653755;0.0711258,0.095842,0.087366;-0.0124302,-0.0170302,-0.0238266;
-0.0163261,-0.013294,-0.0146372;-0.0139999,-0.0193042,-0.0161676;0.0133923,0.00443474,0.0159957;
0.0194951,0.0337112,0.0441486;0.0174055,0.0201084,0.0252396;0.0166324,0.0178552,0.0148399;
0.0246913,0.0310723,0.0250759;0.0213268,0.0173136,0.0151581;0.0266447,0.032195,0.0308806;
-0.00265775,-0.0026578,0.00982758;0.0273905,0.0304663,0.0216275;0.034505,0.0377534,0.0329699;
-0.00707058,-0.0154341,-0.00606;0.0166899,0.0131352,0.00298638;0.0231455,0.021016,0.00311467;
0.0223992,0.0223039,0.0263002;0.0893014,0.114791,0.111771;0.0395782,0.0430445,0.040872;
#
0.0108027,0.00188728,-0.00871654;0.0131793,0.00239937,-0.00863374;0.00360239,0.000177444,0.00074937;
-0.000578694,0.000776138,-0.000528161;-0.00454829,2.75462e-05,-0.00106931;-0.00392768,-0.0010402,-0.000370453;
0.000436301,0.000207796,-0.00229827;-3.83208e-05,-0.00381954,0.00105968;-0.00178061,-0.00380586,0.00279454;
0.00580957,0.0015574,0.00400905;0.00703363,0.00195097,0.00507279;0.00481979,0.00478841,0.00562456;
0.014139,0.0202763,0.0133497;0.0166493,0.0170908,0.00338346;0.0100562,0.00421166,-0.0087679;
0.010819,0.00434513,-0.00287024;0.00843697,-0.00323414,-0.00438562;-0.0023715,-0.00624579,0.00460752;
0.000508038,-0.00816716,-0.00231619;-0.0022086,-0.00314776,0.00582281;0.00429155,0.0116592,0.0133299;
0.00987958,0.00246917,-0.00167913;0.0100997,0.000152257,-0.0024448;0.0042416,-0.000921952,0.00330658;
-0.00200093,0.01047,0.0201198;0.00289763,0.0169654,0.0215516;0.0103343,0.017589,0.0148171;
-0.000157688,-0.00470852,-0.000228386;-0.00407249,-0.00818414,0.00675522;-0.010025,-0.00296393,0.00739305;
0.00140692,-0.00383012,-0.00780862;-0.00345129,-0.01346,-0.00819734;-0.0116085,-0.0181253,-0.00602182;
0.00287143,-0.00601354,-0.00556058;-0.00375056,-0.00875514,0.00454742;-0.000839493,0.00436004,0.0136684;
-0.00355388,-0.00852427,-0.00833135;-0.00403939,-0.0127264,-0.00955439;-0.00925005,-0.0118636,-0.0115112;
-0.00688403,-0.0131145,0.00274405;-0.00987106,-0.00117988,0.00592039;0.000213708,0.00642599,0.00381063;
0.0169058,0.0201256,0.00985653;0.0181397,0.0152171,-0.00677307;0.00774236,-0.0016292,-0.0130752;
-0.00379601,-0.0101707,-0.0106363;-0.00827045,-0.0116129,-0.012614;-0.0132333,-0.0120868,-0.00933472;
-0.00333268,-0.00543337,-0.00224079;-0.0076759,-0.0087661,-0.00919573;-0.0103721,-0.012897,-0.00852107;
0.00312279,0.00453625,0.00867836;0.000526244,0.00397382,0.0117155;0.00345558,0.00405503,0.00739019;
-0.00158847,-0.000217645,0.00826356;-0.00139605,0.00574305,0.0130611;0.000563515,0.0045168,0.00806681;
-0.00996812,-0.017496,-0.0209393;-0.0207474,-0.0298237,-0.0171717;-0.0304737,-0.0268271,-0.0206932;
#
0.00218301,0.0275495,0.0212671;-0.00150544,0.0200601,0.044421;0.00723246,-0.00228887,0.0220879;
0.00505071,0.00104095,0.0060068;0.0115096,0.00205277,0.00457945;0.0083424,0.00751892,0.00238036;
0.000287972,0.00147817,-0.000963186;0.000952334,0.00439015,0.00354036;0.00100685,0.00576452,0.00281636;
0.0017554,0.00597851,0.00247008;-0.000954196,0.0107222,0.00577353;-0.00277727,0.00515104,0.00734181;
-0.00373558,-0.00505795,0.0061993;0.000824229,-0.0112497,0.00497891;0.0117358,-0.00764636,-0.00618472;
-0.0102139,-0.00114411,0.00193256;-0.00507627,0.00478661,0.00815139;-0.00685961,0.00189955,0.00774834;
-0.00131467,0.00410069,-0.00955931;-0.00714511,0.01144,-0.00315471;-0.0116631,-0.00429594,-0.00189316;
-0.00552992,0.00907321,0.00718913;-0.00346585,0.00729167,0.0149757;-0.000665242,0.00158889,0.0130535;
0.0199469,-0.00354301,-0.00496458;0.0295335,0.0110566,-0.00523316;0.0232069,0.0153303,-0.000824213;
-0.002925,0.00110867,-0.00447824;0.00356191,0.0053876,0.000822563;0.000353934,0.00561476,-0.00115213;
-0.0025746,-0.00573939,0.000400051;0.00778311,0.00508363,-0.0101473;-0.000374877,0.0115758,0.00246856;
-0.00328028,0.000306277,-0.00778679;-0.00671337,0.0037836,-0.00825141;-0.0102733,-0.000950084,-0.00568335;
0.00823424,0.0118112,0.00209926;0.0021719,0.0282222,0.025015;-0.00228818,-0.000292349,0.0174329;
-0.00187542,0.00623548,-0.0120989;-0.0157783,0.00698205,0.0134952;-0.0113005,-0.0184349,-0.00449089;
-0.00683286,-0.00527514,0.00799501;-0.00151663,-0.0160194,0.00318871;0.0107263,-0.00646809,-0.00318565;
0.00368269,0.0153969,0.0182975;0.00497513,0.00229331,0.0153006;0.00803329,0.0062078,0.00350101;
-0.00094193,0.00393972,0.00160453;0.00033066,0.00117334,0.0041071;0.00229409,0.000899511,-0.00257343;
0.0160757,0.000692331,0.000539202;0.0275217,0.0210225,-0.00510372;0.010374,0.0274004,0.0104767;
0.0212929,0.00195058,-0.00389745;0.0301821,0.0188326,-0.00420952;0.0208739,0.0283036,0.00183072;
0.00662701,0.000995469,0.00369345;0.0120736,0.0254315,0.0106263;-0.00738817,-0.00039189,0.0147676;
#
-0.0325153,-0.0259817,-0.0169542;-0.0254272,-0.0275231,-0.0214449;-0.0168287,-0.0228187,-0.016026;
-0.012208,-0.00802392,-0.011056;-0.00681414,-0.00860844,-0.00861575;-0.0114597,-0.00821002,-0.00946858;
0.0041123,0.00786951,0.00471178;0.0100483,0.0107741,0.0069844;0.00219884,0.00357524,0.0138169;
0.025111,0.0275089,0.0277875;0.028916,0.0278779,0.0315627;0.0290545,0.0279357,0.0320268;
0.0286508,0.0181685,0.0230593;0.018652,0.0100814,0.0129296;0.0174323,0.00745568,0.00410619;
0.0196818,0.0317322,0.0247381;0.0330163,0.0378885,0.0173272;0.0156018,0.0118393,0.0270437;
-0.00814732,-0.0169692,-0.00550629;-0.0119539,-0.0181672,-0.00228271;-0.00289427,0.0114916,0.0225719;
-0.00732288,-0.00224721,-0.00499883;-0.0010968,-0.00162042,-0.00787969;-0.00429816,-0.00685715,-0.00103254;
0.0111065,0.00443042,0.0014557;0.00976671,0.0106245,0.00813397;0.0170949,0.0183228,0.00436347;
0.015591,0.0225125,0.0111173;0.0277866,0.0186916,0.0208994;0.00638081,0.0179888,0.0376488;
-0.00350746,0.00233632,0.00112016;0.00126795,-0.00457786,-0.00327442;-0.00764462,-0.0196815,-0.00805257;
-0.0144875,-0.016767,-0.00728186;-0.015156,-0.023777,-0.00920738;-0.00944276,-0.00193665,0.0185708;
-0.0214186,-0.0183469,-0.0175661;-0.0180023,-0.0181383,-0.0073065;-0.0167703,-0.0116097,-0.00381118;
0.0269963,0.0142501,0.0168914;0.00051019,0.0181252,0.0434474;0.00410919,0.0312744,0.0356426;
0.0209649,0.0155224,0.0309931;0.00883317,0.00743588,0.008931;0.0104111,-0.00170363,0.00428982;
-0.0160019,-0.0145388,-0.0122439;-0.0185541,-0.0148908,-0.00812893;-0.0257932,-0.0178161,-0.0111505;
0.00547589,0.00518388,0.0128179;0.00534997,0.014841,0.0161897;0.00536462,0.0103435,0.0135146;
0.0247235,0.0202006,0.0213675;0.0274373,0.0233304,0.0247839;0.0356458,0.0252932,0.0273439;
-0.0201372,-0.0255437,-0.0277892;-0.0172736,-0.0301882,-0.0283881;-0.0107005,-0.0195347,-0.0222355;
-0.00362552,0.00359332,0.00567436;0.00440282,0.00346168,0.0187992;-0.0116852,0.0116776,0.027748;
#
-0.0119103,-0.00678879,0.00513466;-0.0114851,-0.022724,-0.0239977;-0.00479132,-0.0146271,-0.0179992;
0.00381955,0.000910651,0.00475498;0.00495212,0.0094927,0.01006;0.00377844,0.00220746,0.00320083;
0.0135017,0.0152595,0.00623059;0.0115474,0.00610416,0.00150298;0.000268103,0.00723591,0.0132306;
0.00129079,0.000787652,0.00105609;-0.0012011,-0.00118411,0.00232959;0.00106759,-0.000386615,-0.00270212;
-0.00925979,-0.00912971,-0.0128788;0.00243715,0.00942279,0.00352563;0.00816196,0.00648395,0.00642825;
0.0169113,0.0169675,0.00782744;0.0309162,0.0200958,0.00972714;-0.0102077,0.00396864,0.0173533;
0.00789199,0.00552217,0.012788;-0.012612,-0.0143639,-0.00835168;-0.0154906,-0.0162572,-0.0158234;
0.000458669,-0.00498754,-0.0059583;0.00195895,-0.0037997,-0.0039013;-0.010217,-0.0144469,-0.0105731;
-0.00762629,-0.0176073,-0.0104371;-0.0176037,-0.0180797,-0.00461698;-0.0146338,-0.0147972,-0.00746561;
0.0393173,0.0387541,0.0172647;0.0191972,0.00653669,0.00511003;0.00247974,0.0262467,0.0334638;
0.0225184,0.0250165,0.0193207;0.0307241,0.0296449,0.0302587;0.0178617,0.0128663,0.010925;
0.0106398,0.00611706,0.0124959;-0.00322345,-0.00587525,0.00220284;-0.0212426,-0.0198661,-0.0129851;
0.036715,0.0528467,0.0539199;0.00708167,0.0011188,0.00845184;0.0304292,0.0378742,0.0262276;
0.0828886,0.0738937,0.0606998;-0.0019462,-0.00262432,0.00454507;0.042049,0.0616933,0.0549587;
-0.0108273,-0.0087729,-0.00881604;0.00600612,0.0107222,0.00523265;0.00169547,-0.00238135,0.00374519;
0.0126472,0.013719,0.0182552;0.0282516,0.0428082,0.0381989;0.0235317,0.0235875,0.0189268;
0.024804,0.0182041,0.017944;0.0421396,0.0518849,0.0394067;0.0237602,0.0282723,0.0274633;
-0.00629491,-0.00277424,-0.00104565;0.00213927,0.00489223,0.0134732;0.00851564,-0.00323571,-0.00907663;
-0.0141846,-0.0182174,-0.00796639;-0.00920855,-0.013834,-0.00549129;-0.00891161,-0.0187353,-0.0157494;
0.109229,0.119097,0.0969086;0.0432262,0.0355379,0.0450214;0.0659251,0.0898939,0.06736;
#
-0.00522021,0.0108257,0.0295433;0.0122618,0.00707976,0.044748;0.029322,0.000453228,0.0181894;
0.00877362,0.00304453,0.00607485;0.0163133,0.0119641,0.0105925;0.010286,0.0113057,0.0094373;
-0.00308012,0.0087608,0.00665473;-0.000517144,0.00827582,0.00640952;-0.00326891,0.00223875,0.00608676;
-0.00367797,0.00701777,0.00958475;-0.00363311,0.0116324,0.0170554;0.000774927,0.00554525,0.0176327;
0.0121987,-0.0124378,-0.00511402;0.0201103,-0.0154401,-0.0104331;0.0229324,0.00225088,-0.0165912;
-0.0160217,0.004759,0.0166585;-0.0098089,0.00220485,0.0140954;-0.00915156,-0.00775718,0.00449956;
-0.0223907,0.00860611,0.0161014;-0.0249212,0.00653666,0.022575;-0.0114773,-0.010591,0.0119383;
-0.00993335,0.00197589,0.0177761;-0.00375258,-0.000490252,0.0193628;0.0051538,-0.0031786,0.0113476;
0.0538057,0.0303554,0.00497786;0.0520653,0.0405658,0.00934582;0.0299082,0.0403026,0.0139995;
0.00221363,0.0190854,0.0143399;-0.000257217,0.0134404,0.0109978;-0.00215705,0.00399594,0.00272666;
-0.011898,-0.0106003,-0.00242982;-0.00442632,0.0119247,0.00264207;-0.0197275,0.0101875,0.0208537;
-0.0240294,0.00698981,0.0153131;-0.0238619,0.00312152,0.0141064;-0.017408,-0.00624185,0.0106065;
-0.00662163,0.012134,0.00660511;-0.0141414,0.0112052,0.0368641;-0.00345682,-0.00346957,0.0197369;
-0.0211073,0.00143513,0.00329504;-0.035571,-0.0133547,0.0194451;-0.0229742,-0.030805,-0.0188894;
0.00722936,-0.0169734,0.000444716;0.0155989,-0.0214166,-0.0127852;0.0259804,-0.00536391,-0.0136949;
-0.00910634,-0.000158055,0.0197389;0.00432908,0.00144449,0.0158086;0.00284821,0.00527962,0.00692345;
-0.00816021,0.00136349,0.00885155;-0.00605556,0.000406566,0.00788597;-0.0115273,-0.0010675,0.000269393;
0.0293265,0.0226068,0.00940566;0.029575,0.0471666,0.0226644;0.0116295,0.0461494,0.0383524;
0.0401216,0.0299554,0.00338351;0.043279,0.0486509,0.0127304;0.0241046,0.0489888,0.0290852;
-0.0069025,0.00300784,0.0125123;-0.0179066,0.0164387,0.0316198;-0.0218138,-0.00705196,0.0258907;
#
0.00456805,-0.00381422,0.000610525;0.00716204,-0.00142413,-0.00488999;0.00678551,0.000370792,-0.00464912;
0.00413912,0.00247945,0.00212141;0.000805873,0.00413347,0.00349634;-0.00033805,0.000355235,0.00353587;
0.00123778,0.000614075,0.00222332;0.000444938,8.33895e-05,0.00134802;-0.000450002,-0.000775803,-0.000140453;
-0.00070087,-0.00229235,0.00132506;-0.00353602,-0.00470328,-0.00130014;-0.00251352,-0.00449851,-0.00402702;
0.0155678,0.0045428,-0.00875918;0.025937,0.0205976,0.00415512;0.0271718,0.0288796,0.0143149;
0.00168843,0.00275575,0.00427559;0.0023384,0.000185518,0.00102295;0.0025671,-0.00388703,-0.0069982;
-0.0062089,0.0020297,0.0143564;-0.00500173,-0.00260698,0.00620415;-0.00574247,-0.00613826,-0.0015055;
0.000960344,-0.00196431,0.00532097;0.0029213,-0.00312971,-0.000973908;0.00102203,0.000156474,-0.00267703;
0.0110581,0.0143006,0.0102683;0.00575217,0.015003,0.0123863;0.000349186,0.00799163,0.0129115;
0.00281625,0.00261283,0.00308149;0.00318717,0.000398645,0.00138124;-0.00245486,-0.00202831,-0.00452363;
0.00787252,0.012981,0.0111816;0.00153397,0.00699873,0.0101435;-0.00183758,-0.000836421,0.00511747;
-0.00532011,0.00506331,0.0164654;-0.0041525,-0.00268877,0.00897111;-0.00531803,-0.00655968,0.000334165;
-0.00523254,-0.00395381,-0.00025001;-0.00339972,-0.0035571,-0.000194083;-0.00365626,-0.00523213,-0.00379607;
-0.0107349,-0.010068,-0.00592385;-0.00491985,-0.0123948,-0.0122901;-0.00972339,-0.0120127,-0.0147444;
0.0177578,0.00541295,-0.00907541;0.0262576,0.0194151,0.00175604;0.0339496,0.031584,0.0145597;
0.00166877,-0.00282715,4.45619e-05;-9.22602e-05,-0.00151993,-0.00319172;-0.00105419,-0.0025171,-0.000348818;
0.00239426,0.0010426,0.00114251;-0.00261997,-0.00128455,-0.00404407;-0.0016308,-0.00448577,-0.00342862;
0.00535641,0.0132604,0.0145206;-0.00124098,0.0101984,0.0149235;-0.00390978,0.00160562,0.0125867;
0.0107569,0.0188503,0.017091;0.00517172,0.013397,0.0166026;0.000876969,0.00989574,0.0163441;
-0.0044728,0.00015842,-0.00439036;-0.00552101,-0.00490736,-0.00416842;-0.00765484,-0.0105727,-0.0111785;
#
0.0340763,-0.012138,0.0194406;0.0380682,-0.0170358,0.0481619;0.0124324,-0.00436802,0.051629;
0.00272407,0.00946612,0.00178611;0.00580857,0.016841,0.00399609;0.00898049,0.0127535,0.00646312;
0.0236172,0.0110432,0.0288992;0.0213457,0.0128153,0.0467688;0.00709647,0.0286674,0.0342478;
0.00458469,-0.013111,0.00787306;0.00118836,-0.00668327,0.0154454;-0.00156481,0.00154941,0.0146677;
-0.00366517,0.0070603,-0.0124196;0.0120225,0.000717127,-0.0196252;0.00824987,-0.0147138,-0.00455555;
0.057021,0.0192749,0.0335978;0.059602,-0.00169753,0.0816471;0.0147897,0.0314211,0.0630311;
-0.0163149,-0.0144154,0.000474149;-0.0234678,0.000977599,0.00638743;-0.0083315,0.0129173,0.0127791;
0.0317834,0.00230689,0.0169357;0.0288485,-0.00614657,0.0364037;0.0129331,0.00501318,0.0371861;
0.0120391,0.0754279,0.0455176;0.0369567,0.101193,0.0165846;0.0623942,0.0756181,0.0117917;
0.0389177,0.0190248,0.0699829;0.0181,0.0512286,0.0889391;0.0163414,0.0785113,0.0413343;
-0.0195593,-0.0300129,-0.0257743;-0.0192113,-0.0297562,-0.015299;-0.0367114,-0.0211313,-0.0127207;
-0.0143947,-0.0183244,-0.00222714;-0.022986,-0.00170077,0.0123951;-0.01443,0.013721,0.0127659;
-0.0205092,-0.0206044,-0.0112085;-0.0217294,-0.020123,-0.00496522;-0.0190646,-0.0190322,0.000249443;
-0.0342559,-0.00585785,0.0166831;-0.0306802,0.0195686,-0.00592098;0.00349762,0.00362043,-0.0237359;
0.0190867,0.013193,-0.0122186;0.0334437,-0.0107217,-0.00663398;0.0146062,-0.020424,0.0176998;
-0.0144119,-0.0247523,-0.00813057;-0.021177,-0.0180315,-0.00108126;-0.0211762,-0.0150436,-0.0105309;
-0.0126556,-0.00155627,0.000897029;-0.00613309,-0.00184876,-0.00270175;-0.00695519,-0.00939915,-0.00510828;
-0.0212521,-0.00180761,-0.00576976;-0.0177695,0.0135183,-0.00308609;-0.0130162,0.0149541,-0.0011487;
-0.000218107,0.0340332,0.0355618;0.00751239,0.0629123,0.0286065;0.0210386,0.0585033,0.013716;
-0.0179296,-0.0263732,-0.00751048;-0.0376698,-0.0196697,-0.000632962;-0.0307317,-0.00782518,-0.0103616;
#
-0.00394068,-0.00248781,0.00756734;-0.00324963,0.00322332,0.0108487;0.0025215,0.0124317,0.0211333;
-0.000716175,-0.00175655,-0.00161868;0.00179464,-0.00143745,0.000533916;0.00065527,2.56812e-05,0.00292739;
0.00310241,0.0045861,0.00929077;0.00489087,0.0133128,0.0113146;0.0098288,0.0149348,0.0109786;
0.0165373,0.0177841,0.0154749;0.0139788,0.0189398,0.0186929;0.0191357,0.0222858,0.0226906;
-0.00754988,-0.00980484,-0.00612714;-0.00375539,-0.0118846,-0.00913105;-0.0107262,-0.0163052,0.000342975;
0.0241754,0.0142458,0.0229774;0.0195788,0.0254152,0.0363188;0.0181103,0.0373603,0.0340237;
-0.00137153,0.00528359,0.00272344;0.0133274,0.0192911,0.0105243;0.0321068,0.0321278,0.0230568;
0.00983007,0.00746153,0.0127791;0.00731366,0.0079927,0.0185833;0.0103955,0.01753,0.0241971;
0.013656,0.022949,0.0144701;0.0260393,0.025893,0.0148054;0.0274028,0.0129132,0.00903011;
0.00714049,0.0158268,0.017931;0.0138679,0.0315875,0.0257858;0.0233665,0.03342,0.0172953;
-0.00284098,-0.0106283,-0.00801575;-0.0118233,-0.00723269,-0.00480493;-0.0145475,-0.0108982,-0.0114338;
-0.000621063,0.00295603,0.000916223;0.00567513,0.0121634,0.00535025;0.0237452,0.0300885,0.0186377;
-0.0118151,-0.00803126,-0.00512042;-0.0126302,-0.0113549,-0.00943416;-0.00749911,-0.00554834,-0.00247905;
-0.00233055,0.00666139,0.00775931;0.0118722,0.0130775,0.00016521;0.0188984,0.00632267,-0.00522002;
-0.00249044,-0.00856881,-0.00575912;-0.00521461,-0.0164523,-0.00358477;-0.0179548,-0.014172,0.00788388;
-0.0120399,-0.0143027,-0.00886509;-0.0121866,-0.00946589,-0.00634567;-0.0094486,-0.0100768,-0.00796622;
0.000570033,0.00182007,3.33112e-05;-0.00173779,0.0014457,-0.00117068;-0.00303212,-0.00398776,-0.000737972;
0.0144278,0.0158673,0.0128767;0.0124903,0.0166857,0.0134249;0.0155948,0.0147197,0.0107865;
-0.00243594,0.00378391,-0.000888511;0.000544893,0.00679629,-0.00210527;0.00413693,0.00118161,-0.00665919;
-0.0122492,-0.00997193,-0.00121596;-0.0165784,-0.00949298,-0.00413188;-0.00847249,-0.00341158,-0.00472596;
#
-0.00300237,0.0154611,0.0115067;-0.0118822,-0.00127965,-0.00459506;-0.010442,-0.00882103,-0.0162061;
0.00297076,0.0023187,0.00437747;0.00175319,0.000100343,0.00180856;-0.00412142,-0.00399091,-0.00237192;
0.0121548,0.018635,0.0132174;0.0155518,0.0175341,0.00871972;0.00623688,0.00406541,0.00275826;
0.00997061,0.0143061,0.006217;0.00774338,0.00748075,0.00102942;0.00168495,-0.00308769,-0.00643335;
-0.0250165,-0.0233995,-0.0113779;-0.0150975,-0.00561284,0.0169224;0.00544973,0.0167056,0.0262245;
0.0283567,0.0509916,0.0446329;0.041993,0.0521688,0.0298821;0.024119,0.0249779,0.00957346;
0.048318,0.0381552,0.0130913;0.0259518,0.0094919,-0.00712877;0.00340182,-0.0111282,-0.012272;
0.013933,0.0279976,0.0232594;0.0142483,0.0217479,0.0125425;0.00673682,0.00631104,-0.00373122;
0.0142777,-0.000702055,0.00205241;-0.00114288,-0.00933935,0.00513565;-0.0111549,-0.00671445,0.0104637;
0.0347522,0.0415016,0.0196751;0.0303179,0.0210784,0.00728563;0.0126949,0.00602798,0.00869012;
0.011299,0.0208008,0.0188898;0.0332154,0.0268009,0.0108608;0.0176891,0.0110502,-0.00176641;
0.0496667,0.0404176,0.0159074;0.0346819,0.0162596,-0.00248351;0.00970057,-0.00617085,-0.0104918;
0.00651035,0.00527991,-0.00131296;-0.00642278,-0.012126,-0.0149687;-0.0127562,-0.0147788,-0.0140145;
0.0347416,0.0134764,-0.0128206;-0.0120005,-0.0246144,-0.0189147;-0.0216572,-0.014456,-0.00206956;
-0.0246822,-0.0186493,0.00136449;-0.0116657,0.00883687,0.0275378;0.0104494,0.0288519,0.0341253;
-0.00409584,-0.00492955,-0.00866426;-0.00466536,-0.00663149,-0.00883042;-0.00653033,-0.00944585,-0.00889372;
0.00424326,0.00183044,-0.00238482;0.00639674,0.0062706,0.00594763;0.00624491,0.00323171,0.00212064;
0.00515261,0.000444493,0.00020154;0.00959583,0.0013541,-0.00458432;-0.00119366,-0.00881201,-0.0114835;
0.00926874,-0.00115046,-0.00596874;0.00416196,-0.00854976,-0.00537656;-0.00714093,-0.0131309,-0.00512805;
0.0224189,0.0265705,0.0167118;0.0177848,0.00141634,-0.0103899;-0.000231405,-0.0028746,-0.00117413;
#
0.00834142,0.0111262,0.00751446;0.00594585,0.0158505,0.0214088;-0.00197901,-0.00199113,0.00834269;
0.00119182,0.00125988,0.00284764;0.00389916,0.00069488,0.00211163;0.00459379,0.00367881,0.00198947;
-0.00087554,-0.00117184,1.32173e-05;0.000663651,0.0031641,0.00146512;0.00741958,0.00710755,0.00559039;
-0.00392718,-0.00367205,-0.00332454;-0.000104885,0.00214637,0.000459717;-0.00139644,0.00288299,0.00239731;
0.00927694,0.00687927,0.00922839;-0.00320298,-0.00555259,-0.00140299;-0.00736907,-0.00905237,-0.0107426;
-0.000803612,-0.00647782,-0.00620239;-0.004856,-0.00207381,-0.00116671;0.011305,0.0139623,0.0108208;
-0.00159749,-0.00402371,-0.00923537;0.0188617,0.018705,0.0103452;0.00968559,0.0154735,0.012713;
0.000761327,-8.29171e-05,-0.00171544;0.00103898,0.00410854,0.00314165;0.00185722,0.00533217,0.00648082;
0.000543439,-0.00270488,-0.00356054;0.00517244,-0.000105792,-0.00598166;0.0039202,-0.000469533,-0.00293962;
-0.00051592,-0.00229137,-0.000980104;0.0041093,0.00320094,0.000529782;0.013805,0.0114511,0.00791073;
-0.000856023,-0.00140106,-0.00166147;-0.00158793,-0.00649803,-0.00777799;0.0219433,0.0213358,0.0109254;
-0.00403422,-0.00577836,-0.00847727;0.0125156,0.0125998,0.00381884;0.0147549,0.0181334,0.0104794;
0.00852431,0.00770591,0.00588658;0.0132815,0.0197321,0.0151816;0.0116743,0.0133428,0.012394;
0.0182342,0.0178221,0.0085192;0.0346339,0.0338974,0.0286038;0.00391872,0.00505902,0.0066469;
0.00671328,0.00590898,0.00444637;-0.00558606,-0.00646605,-0.00608638;-0.00390793,-0.00683844,-0.00619093;
0.00717852,0.0106791,0.00794323;0.0079146,0.00813229,0.00904508;0.00253635,0.000727565,-0.000790066;
0.0036676,0.00467107,0.0017612;0.00314983,0.00266758,0.00226978;0.000522682,0.00167253,-0.00224171;
-0.00190015,-0.00522511,-0.00233904;0.00327219,-0.00310879,-0.00912625;0.00770415,0.0108358,0.0011343;
0.00411388,0.000508558,0.000540537;0.00569696,-0.000831026,-0.00222331;0.0117791,0.00824785,-0.000509762;
0.00814324,0.00400968,0.00596384;0.0148636,0.0139912,0.0048092;0.0256559,0.0273968,0.0181561;
#
-0.000919008,-0.00118744,0.00122459;-0.00600875,-0.00859367,-0.00696368;-0.0043464,-0.00891836,-0.00763834;
0.0034269,0.00164601,0.00184352;0.000313082,0.00103145,0.00138033;-0.00113295,-0.000974558,-0.00190631;
0.00310283,0.00867206,0.00546268;0.00222916,0.00408836,0.0012325;-0.000699194,-0.0012506,-0.000461086;
0.00253596,0.00328415,0.000734295;0.00113145,-0.00145211,-0.00085021;-0.00221658,-0.00293787,-0.00357727;
0.00170006,-0.00416992,-0.00496545;-0.00265364,0.000616843,0.00185292;0.0027987,0.00182761,0.00250557;
0.00950804,0.0186293,0.0152224;0.0109681,0.00948741,0.00479019;-0.000562426,-0.00187267,-0.000572664;
0.0134116,0.0115046,0.00851251;0.000689852,-0.00163908,-0.00531028;-0.00618645,-0.00940492,-0.0071988;
0.00254474,0.00631214,0.00541674;0.00343255,0.00132717,0.00133254;0.000318132,-0.00365469,-0.00565699;
0.00482235,0.000540108,-0.00264457;-0.00319008,-0.00500202,-0.000615424;-0.00569511,-0.0030348,0.000498857;
0.0134671,0.0170304,0.00841331;0.00672542,0.00301511,0.00106328;-0.00182771,-0.00108604,2.21316e-05;
0.00869078,0.0123738,0.0135038;0.0152514,0.0109803,0.00643669;0.00523314,0.00445838,-0.00111552;
0.0142782,0.0149761,0.0111622;0.00683335,0.00164273,-0.000968354;-0.00677524,-0.00895486,-0.00779195;
0.00439099,0.00476697,0.000467178;0.000821288,-0.00133526,-0.00497102;-0.00138289,-0.00216616,-0.00413486;
0.021174,0.00831212,-0.0046748;-0.00345893,-0.0070838,-0.00670939;-0.0021767,0.000570378,0.00483744;
0.000226653,-0.00387252,-0.00140906;-0.000177448,0.00245481,0.00218663;0.00189087,0.00500857,0.00209962;
0.00268669,0.000142719,-0.00186207;0.00186562,-0.00118208,-0.00281546;-7.19239e-05,0.000644337,-0.00096782;
0.00532243,0.00196323,0.00197622;0.00415739,0.00409785,0.00302251;0.00219106,0.0021815,0.00108266;
0.00176761,0.0041023,0.00144234;0.00380847,0.000187639,-0.00223373;-0.0021947,-0.00511865,-0.00501153;
0.00167448,0.0026249,0.0008729;0.000609829,-0.00415416,-0.00379612;-0.00257619,-0.00428067,-0.00169316;
0.018996,0.0154871,0.00837785;0.010473,0.00548513,-0.0011401;0.000255349,0.00042976,0.002288;
#
0.0012748,0.00519648,0.00844499;-0.000221532,0.00245182,0.00425951;-0.00385278,-0.00499733,-0.00720078;
-0.000699533,0.00185216,0.000371736;0.00194216,0.000942954,0.000753769;0.00110643,-0.00134839,9.94492e-05;
-0.000623954,-0.00107783,-0.000244282;0.0025961,0.00269617,0.00239773;0.00267114,0.0019459,-0.000770267;
-0.00306651,-0.00196543,0.00104634;-0.000951477,0.00105152,-0.00197788;-0.00255657,-0.0036429,-0.004368;
-0.00263473,-0.00163833,-0.00356284;-0.00591926,-0.00442813,-0.00179097;0.00341751,0.00716751,0.00961999;
-0.00331627,-0.000435572,-0.000408623;0.00567338,0.00755711,0.00706749;0.00801096,0.0085815,0.00419004;
0.00306326,0.0062922,0.00186145;0.007638,0.00418304,-0.00116566;-0.00379224,-0.00895194,-0.00921986;
-0.00147965,0.00145367,0.000941563;-0.000373305,0.0033649,0.00402;0.00120672,0.000502504,-0.00243009;
0.00253819,-0.00142136,-0.00347259;0.00122992,-0.00328156,-0.0030533;-0.00541029,-0.00465362,0.000186147;
-0.00104651,-0.000329915,-0.000616603;0.00739501,0.0104523,0.00546234;0.00269797,0.00364782,-0.000850311;
-0.00176471,-0.00158969,0.000488833;0.00615376,0.00860327,0.00752164;0.0162023,0.0145851,0.00964398;
0.00350902,0.00652223,0.00423307;0.00451163,0.00541165,-0.00105707;0.00109917,-0.00531963,-0.0061226;
0.00284803,0.00278438,0.00262943;0.00684716,0.00664089,0.00211486;-0.000668084,-0.00276402,-0.00404969;
0.0119199,0.00864376,0.00342066;0.0124756,0.00428539,-0.000995991;-0.00908299,-0.00802901,-0.00743913;
-0.00445777,-0.00602026,-0.0023947;-0.00558745,-0.00450715,0.00209043;0.00688002,0.0134117,0.0111259;
0.00250606,0.00447952,0.00238483;-0.000632157,0.000797958,-0.00257581;-0.00278959,-0.000703638,-0.00277898;
0.0028783,0.00253516,0.000687399;0.000581523,-0.000472713,-0.000475092;0.000909626,0.00134215,0.00403508;
-0.00227207,-0.00364484,-0.00326555;-3.29791e-05,0.000685346,-0.000325913;0.00121277,0.000577089,-0.00132444;
0.00110965,0.000188964,-0.00139783;0.00247274,-0.00122488,-0.001211;0.00100558,-0.00254405,0.00142379;
0.000194289,0.00177429,-0.00242316;0.0149314,0.0159478,0.0101496;0.00711494,0.000601261,-0.00378193;
#
0.00733039,-0.00341692,-0.012087;0.0159556,-0.00137035,-0.0115515;0.0295265,0.0140403,-0.00787933;
-0.000176641,0.00060659,-0.000410714;0.00180415,0.000185705,-0.00163527;-0.000530814,-0.00113983,-0.000657657;
-0.000479937,-0.00176963,-0.000501617;-0.000803108,-0.00284495,-0.00272657;-0.00314254,-0.00628057,-0.0031564;
-0.000648787,-0.00375992,-0.006047;-0.00215344,-0.00501335,-0.0092927;0.00184313,-0.00597106,-0.00866006;
0.0268059,0.0385032,0.0370525;0.0380478,0.0556624,0.0546733;0.0360012,0.057785,0.0581143;
0.00128704,-0.00104893,-0.00158269;0.00419459,0.00281247,-0.0013934;-0.00239014,-0.00647097,-0.0119485;
0.00442739,-0.00321798,-0.00166251;-0.00152294,-0.00661009,-0.00788431;0.00449427,-0.00851412,-0.00697313;
0.00322802,0.000281432,-0.00335204;0.00689826,-0.00167632,-0.00563973;0.00662848,0.000313116,-0.00834377;
-0.00994735,-0.00517652,0.00152401;-0.0126135,-0.00492534,0.00488502;-0.0131187,-0.00366899,0.0109555;
-0.00283312,-0.00337337,0.000328159;-0.00528786,-0.00537609,-0.00368879;-0.00627966,-0.00974799,-0.00430725;
0.00919862,0.00703456,0.00592747;0.00720461,0.0131863,0.0117019;-0.00546453,-0.00674932,-0.00641064;
0.00461476,-0.00226308,0.000256805;-0.000733354,-0.00724004,-0.00502938;0.00184574,-0.00630385,-0.00711381;
0.00277475,0.000946526,-0.000614368;0.00344921,-0.00369935,-0.00373243;0.0113085,0.00400656,-0.00304528;
-0.00179833,-0.00284732,-0.00243589;-0.000919752,-0.00448656,-0.00387142;0.0168027,0.0166805,0.0195429;
0.0313636,0.0429503,0.0414256;0.0450581,0.0609237,0.05753;0.0360959,0.0566986,0.050419;
0.00620008,0.00106136,-0.00154151;0.00768046,0.00661014,0.00305178;0.00545944,0.00717954,0.000850015;
0.00178854,0.00186042,0.000170511;0.00532388,0.00552635,0.00607069;-0.000310445,0.00445584,0.00239614;
-0.00279149,-0.00262407,-0.000379581;-0.00816693,-0.00100961,-0.000848162;-0.0118616,-0.0122731,-0.00301857;
-0.00928894,-0.00629184,0.00182;-0.00501285,-0.00368898,0.00262032;-0.0051643,-0.00571719,0.00391059;
0.0114475,0.00986282,0.00744744;0.00371724,0.0067891,0.00292941;-0.00522796,-0.00534486,-0.00550164;
#
-0.00786048,-6.10067e-05,0.00121701;-0.00338512,0.00522421,0.00487399;-0.00147264,-0.00184636,-0.00352582;
0.00257035,-0.000507564,0.00354899;-0.00119265,0.00100806,0.00176693;0.00113073,0.000605217,0.000882175;
0.00361753,0.00614767,0.00171128;0.00383114,0.00404797,0.000434309;0.00317242,0.00393507,0.00165964;
0.00537368,0.00856168,0.0075302;0.00488728,0.00769012,0.00616109;0.0072746,0.00843755,0.00537178;
-0.00360989,-0.0082975,0.000742768;0.00227121,-0.00189876,0.00575841;-0.00261321,-0.00270677,0.00446481;
0.0071557,0.015861,0.00953097;0.0028404,0.00582727,0.0024909;0.00906725,0.00776092,0.00299441;
-0.00428229,-0.00286162,-0.00300882;-0.00848518,-0.00840471,-0.00895162;-0.00524813,-0.00718606,-0.00359023;
-0.00138845,0.00426509,0.00316051;-0.00379639,-0.000341896,-0.000493562;-0.000316002,-0.000335936,-0.00271638;
0.00393426,-0.00389185,0.00536667;0.00381499,-0.000684673,0.00441596;0.000521623,-5.47769e-05,0.00491791;
0.00586952,0.00728749,-2.27116e-05;0.00572037,0.00260419,0.00130765;0.0101111,0.00234729,0.00240438;
0.0136758,0.0135434,0.00693749;-0.00135935,-0.00486326,-0.00365975;0.0047459,0.00210242,0.00104793;
-0.00140419,-0.00271594,-0.00225764;-0.00865105,-0.0130393,-0.00786788;-0.00391007,-0.00830127,-0.00478953;
-0.0037855,-0.00163952,-0.00172168;0.00307718,0.00519607,0.00399836;-0.000910438,-0.00196943,0.000844718;
-0.00432111,-0.00720379,-0.00816058;0.0138595,0.0100334,0.00165329;-0.00634757,-0.0115117,-0.00860226;
-0.0029937,-0.00532968,0.00332394;-0.00250978,-0.000130863,0.00358543;-0.00186524,0.00256802,0.00663716;
0.0022328,0.00307629,0.00187724;0.00313813,0.00238867,0.0016655;4.7511e-06,-0.000938094,0.00127941;
0.00458057,0.00594786,0.00391562;0.0079637,0.0042112,0.00468808;0.00364513,0.000737629,0.00137833;
0.0128769,0.0102831,0.0100799;0.00737086,0.00336003,0.00709682;0.00997981,0.00907004,0.0106753;
0.000863534,-0.00213869,-0.000676071;0.000441559,-0.00550988,-0.00143009;-0.000952682,-0.00493539,-0.0033422;
0.0106079,0.0108506,0.00755251;0.00739103,0.00844133,0.00318342;0.00817106,0.00673776,0.00708227;
#
-0.00106473,-0.00120899,0.000651215;0.00117885,-0.000631771,0.000558453;0.000481423,-0.000969791,0.00038762;
0.000401925,-0.00151968,-0.000253041;-0.0017202,-0.000585163,-0.00122902;-0.00133125,-0.00062566,-0.000164413;
-0.000272876,0.000141186,-0.000389443;-0.000564259,0.00117058,-0.000517393;-0.00075399,0.00275962,0.00119146;
-0.00199882,-0.00317391,-0.00172399;-0.000686319,-0.000701939,-0.00113659;-0.00268657,-0.00203139,-0.000180654;
0.00267493,0.00209395,0.000201426;0.00513514,0.00100775,-0.00136178;0.000851545,-0.000201891,-0.00429734;
-0.00150254,-0.00120445,-0.00107763;-0.00183571,-0.00166635,-0.00116136;0.000368774,0.00127329,-3.46094e-05;
-0.00306778,-0.00462769,-0.000976824;-0.00204184,0.0022032,0.00383093;0.00135856,0.00111137,0.00421355;
-0.0017505,0.000334184,-0.00105708;-0.00154085,-0.000848387,0.000534687;-0.00200408,-0.000204341,0.00142358;
0.00105524,0.00227452,0.00216554;-0.000468353,0.00291313,0.000636868;0.000606041,0.00248016,0.000139721;
0.000198429,-0.000625179,-0.000132589;-0.00162849,0.00156666,0.00231021;0.00135692,0.00518236,0.00401478;
-0.000768977,-0.00108821,-0.00354363;-0.00170626,-0.0027052,-0.000257719;-0.00171608,0.00183035,0.00281204;
-0.00214176,-0.00413072,-0.00146827;-0.00269308,0.000697114,0.00170741;-0.000492069,0.00161823,0.00334439;
-0.00121595,-0.00281216,-0.00190651;0.000381627,0.000923757,7.80717e-05;0.00180087,0.000782847,0.00222331;
-0.00221169,-0.000351261,-0.000555722;0.00519505,0.00746683,0.0089154;0.00881553,0.0072254,0.00396998;
0.00392153,0.00505058,0.000215012;0.00487919,0.00137433,0.000248662;-0.00051146,-0.00131818,-0.00495873;
-0.000829687,-0.00222046,-0.000252315;-0.000460921,0.000717991,-0.000658558;0.000431893,-0.00164173,0.00119452;
-0.00162539,-0.000335856,-0.00113832;-0.000535205,0.000131451,0.00136201;0.00157474,-0.00117842,0.000300522;
-0.0020211,-0.00168722,-0.00324911;-0.00280793,-0.000705055,-0.00327885;-0.00337989,-0.000339908,-0.00136939;
-0.000753827,0.000209842,0.0020938;0.000672771,0.00368779,0.00140856;-0.00176637,0.00168671,0.00257679;
-0.00358756,-0.00130059,-0.00273303;-0.000969374,-0.00205767,-0.000369148;0.004082,0.00639386,0.00598815;
#
0.00573927,0.00848189,0.0162311;-0.0155488,-0.0236699,-0.0176616;-0.0302197,-0.044321,-0.0432699;
-0.00136116,0.000444759,0.00423542;0.0116859,0.0083361,0.00940209;0.00198699,0.00115006,0.00118868;
0.00681594,0.0102528,0.0142895;0.0260667,0.0325741,0.025754;0.00488544,0.00759833,0.0101638;
-0.00540065,0.00022818,0.00225705;0.00105955,0.0019509,0.0045141;-0.0051964,-0.00564216,-0.0062527;
0.0206741,0.0159887,-0.0093673;-0.0169138,-0.0157899,-0.00967491;0.00354253,0.00752779,0.0151688;
0.00739993,-0.000610615,0.0142834;0.0482643,0.0664562,0.0632968;0.0118765,0.0160883,0.0188835;
0.00556213,0.0144628,0.0116339;0.00340834,-0.00208365,-0.00248328;-0.0234416,-0.0312316,-0.0289251;
-0.0151671,-0.0133614,-0.00473044;0.00156052,0.00377088,0.00765038;-0.00797761,-0.00991101,-0.00980377;
0.0066247,0.00578617,-0.000586985;-0.00202255,-0.0152175,-0.00915955;-0.0246598,-0.0243234,-0.0128039;
0.029085,0.0446327,0.0448938;0.0666725,0.0716923,0.0447489;0.00540743,0.0127052,0.0185944;
-0.00675226,-0.00277819,0.0045316;0.054164,0.0560365,0.0528336;0.0409539,0.0329539,0.0245229;
-0.00946832,0.00126377,0.00502067;0.00876935,0.00953304,0.00858033;-0.0185872,-0.0216176,-0.0202424;
0.03022,0.0413636,0.0422621;0.0388545,0.0352616,0.0272626;-0.000783894,-0.00158935,-0.00324212;
0.158654,0.164826,0.117844;0.0530402,0.0219349,0.0112364;-0.0146131,-0.00635279,-0.00345741;
0.0125036,-0.000310325,-0.0195065;-0.0132349,-0.00809866,0.00240831;0.00359034,0.0076566,0.0183248;
0.0350339,0.0433071,0.0417953;0.006711,0.0116456,0.0144161;0.011899,0.0108501,0.00670998;
0.0514959,0.0438076,0.0256832;0.0220994,0.0292313,0.0312055;0.0280296,0.0300217,0.0248072;
-0.0305681,-0.0200599,-0.00864829;0.0113866,0.0113296,0.00970463;0.00531516,-0.00236088,-0.00927675;
-0.023051,-0.0171822,-0.012184;0.00161744,-0.00945428,-0.0122748;-0.0082232,-0.0201863,-0.019002;
0.0620372,0.0848386,0.0896423;0.126105,0.123411,0.0911602;0.0233781,0.0329611,0.0293971;
#
-0.000972126,5.46677e-05,-0.00147475;-0.000439501,0.000221315,0.000863521;-0.000336311,0.000375372,0.000577432;
-0.000158714,0.000947282,-0.00137664;0.000239954,0.000891745,0.000534838;-0.000609463,-0.000173014,0.000417391;
-0.000996299,0.000220508,0.000745812;0.00164435,-0.000301725,0.000842073;0.000232407,-0.00151269,-0.0014506;
-0.000479586,0.000813354,-0.00134976;0.000669968,-0.00128254,0.00124275;-0.000976251,-0.00140921,-0.000192518;
0.000169003,-0.00140273,0.000310215;0.000979328,0.000494154,0.0014235;-0.000106484,-0.00126901,-0.000647358;
-0.000572814,-0.000165416,-0.000444468;0.00115882,-0.000300986,-0.000657239;-0.0013958,8.36728e-05,0.000917438;
-0.0009042,0.00023513,0.000525404;0.00103867,0.00124319,0.00114019;0.000708373,-0.000503803,0.000855607;
0.000210754,5.86364e-05,0.00124699;-0.000858029,0.000798561,-0.00101551;-0.0014714,0.00109918,-0.00126946;
0.000682396,-0.000757252,-0.000334548;1.27419e-05,-0.000352106,5.5754e-05;0.000476144,-0.00123179,0.000661869;
-0.000385742,0.000407431,0.00140545;0.00151506,0.00111826,-0.00123274;-0.0013911,-0.000190707,-0.000108051;
0.000878966,-0.000367696,0.000426536;-0.000628422,0.000841055,0.000889072;-0.00153555,-0.00139017,-0.000547957;
0.000813593,-0.00136671,-0.00034152;-0.00108392,0.00141599,-0.00151768;-0.00070786,-0.00152748,-0.00157255;
-0.00136122,0.00129129,0.000292472;0.000143245,0.000846738,-0.000761567;-0.000653933,0.00106367,-0.00142194;
0.000907984,-0.00163606,-0.00159017;-0.00130911,0.00081666,-0.00124497;-0.000421012,0.000427916,0.000614415;
-0.00152883,-0.00152137,0.00097847;-0.0013701,-0.00112726,9.46828e-05;0.00125883,-0.00171809,-0.00115743;
0.000679548,-0.000944132,-0.000184334;-0.000594292,-0.000108122,-0.00111731;0.00166098,-0.00156842,0.000760929;
0.00128169,-0.000647615,0.000562988;-0.000312963,0.00112691,-0.000240228;-9.76798e-05,-0.00155819,0.000626245;
0.000661591,-0.000403354,-0.00112768;-0.000870011,-0.0017374,0.00111843;0.000824927,-0.000655559,-0.000598967;
-6.99304e-05,0.000583857,0.000410748;-0.00151444,-0.00171264,2.09148e-05;-0.00125632,0.0011924,0.001045;
-0.000729295,2.05321e-05,0.000424816;0.000136943,0.00066894,-0.000868586;0.000590548,0.000649044,-0.000869987;
#
0.0392196,0.00169482,0.0284504;0.0646213,0.00550979,0.0178961;0.0552807,0.0284228,0.00784328;
0.0130706,0.0072159,0.00373145;0.00849361,0.0145936,0.0046868;0.00172409,0.0111449,0.00561527;
-0.00141319,-0.00228569,0.00418971;0.00208981,-0.000407735,0.00162955;0.00148746,-0.00129399,0.000482741;
0.00774285,0.00608577,0.0124632;0.0128505,0.0049508,0.017732;0.017904,0.00412927,0.0106727;
0.01013,-0.00585757,-0.0121548;0.0195278,0.00970149,-0.0182813;0.00615,0.0143638,-0.00745168;
0.00656617,-0.010498,0.00870073;0.0106236,-0.0126659,0.00309494;0.0117951,-0.0116131,-0.00357558;
-0.0176718,-0.0144181,0.000843473;-0.00355183,-0.0205875,-0.000722582;0.0146888,-0.00315948,-0.00812031;
0.0113639,-0.00564904,0.0123195;0.021835,-0.00453537,0.00724928;0.0228601,0.00753992,0.000151304;
0.0215315,0.0405473,0.00695434;0.0093448,0.0450162,0.0162752;0.00196005,0.0302833,0.0213103;
-0.00268222,-0.00200505,0.00304523;-0.00412303,-0.00221215,0.0024961;-0.00233714,-0.000659385,0.00261028;
-0.00277936,0.00237989,-0.00593103;-0.0161723,0.00515626,0.00800716;-0.0149691,-0.00775924,0.00844634;
-0.0189911,-0.0167379,-0.0014005;-0.0122903,-0.0191123,-0.0044673;0.00780341,-0.00892759,-0.00731519;
-0.00583185,0.00828079,0.0151739;0.013872,-0.00563238,0.0178047;0.0192657,0.00737899,0.00128651;
-0.0199241,-0.0170904,0.00195167;-0.00421042,-0.0274181,-0.0150596;0.0016682,-0.00535625,-0.0280663;
0.0171665,-0.0130495,-0.0138772;0.0244359,0.00112185,-0.0173601;0.0143715,0.00926524,-0.00939568;
0.00908273,-0.00350411,0.00984608;0.0097613,0.0137705,0.00211775;-0.000492931,0.00449215,0.00332462;
-0.00783497,-0.0074796,0.00294479;-0.00468942,-0.00493725,-0.00495395;-0.0105192,-0.00780193,-0.00652008;
0.0136124,0.0417845,0.0111713;-0.00140016,0.0478069,0.0390321;0.00520444,0.0211654,0.0380779;
0.00968806,0.041239,0.00916968;0.0022033,0.0464526,0.0261308;-0.000240957,0.0245112,0.0305253;
-0.00539697,0.001872,-0.00275036;-0.0158639,-0.0135457,0.011346;0.00360572,-0.00919355,-0.00456696;
#
0.0613034,0.0310167,-0.00356217;0.0604715,0.0480961,-0.0068977;0.0471698,0.0490803,0.00503533;
0.00302608,0.00987968,0.00281468;-0.00103726,0.00870661,0.00709807;-0.00188653,0.003123,0.00754654;
0.00410768,-3.46857e-05,0.00142369;0.0088892,0.000518557,-0.000321281;0.012422,-0.00178944,-0.00142668;
0.0127424,0.000425088,-0.00184721;0.0169307,-0.000877473,-0.00115192;0.0143068,0.00376422,-0.00314882;
-0.00770635,0.0104528,0.00221188;-0.0171592,0.018221,0.00905748;-0.0159014,0.0168195,0.0105605;
0.0143177,0.00234977,-0.00765453;0.0265521,0.0090393,-0.0160257;0.0281216,0.00489496,-0.0111175;
0.0132555,-0.016802,0.00129856;0.020949,-0.0154038,-0.00423624;0.0229892,0.00365794,-0.00546111;
0.0274258,0.0123572,-0.00104656;0.0313341,0.0194082,-0.00655953;0.0295052,0.0219491,-0.00152481;
7.8166e-05,0.0246223,0.0377229;0.000361118,0.0231426,0.0460482;0.00312677,0.0163706,0.0380476;
0.00355845,-0.00463505,0.00159778;0.0121656,-0.00885395,0.00150854;0.00871188,-0.00878905,0.0041719;
-0.0155655,-0.00842687,-0.00901383;-0.0167645,-0.0172409,-0.00305588;-0.00993854,-0.0249327,-0.00670484;
0.00923102,-0.0154816,0.00041334;0.0145566,-0.0163282,-0.00288885;0.0226217,-0.000352878,-0.00311731;
0.0105876,-0.00782976,-0.00167402;0.0125881,-0.00752385,-0.0102128;0.00499341,-0.000197003,-0.0129827;
-0.0063276,-0.0281422,-0.0105292;-0.0098031,-0.0259085,-0.0221628;-0.0198206,-0.0175577,-0.0228794;
-0.00669857,0.0148919,0.000438751;-0.0113264,0.0253406,0.00091251;-0.00203394,0.024934,0.00647077;
0.00637828,0.000694329,-0.00994744;-0.000227853,0.000954087,-0.010437;-0.00871413,-0.00889627,-0.00638164;
-0.00854781,-0.0118469,-0.00641121;-0.0107331,-0.0139765,-0.0130411;-0.0120033,-0.0177704,-0.0140448;
-0.00366467,0.00842541,0.0168586;-0.00441472,-0.000962265,0.0260827;0.00293237,-0.00970142,0.0212616;
0.00663047,0.0181424,0.0342822;0.00484492,0.0153623,0.0459543;0.00752412,0.00778585,0.0387192;
-0.0190619,-0.0175246,-0.0162036;-0.014485,-0.0313605,-0.0215543;-0.0147074,-0.0300736,-0.0301738;
#
-0.018872,-0.0156461,0.00886415;-0.0111582,-0.00285934,0.0109491;-0.00640584,0.00262542,0.0069691;
-0.00161696,-0.00131029,-0.00048498;-0.00120246,-0.00195497,0.000737779;0.00134255,0.000547573,0.00216279;
0.00394498,0.00425594,0.0053768;0.00412214,0.00973848,0.0116043;0.0105962,0.012332,0.00482556;
0.00416797,0.00896513,0.010694;0.00590629,0.0100303,0.00959952;0.00932017,0.0110761,0.0110955;
0.00455124,-0.00136111,0.00262856;0.0145148,-0.00630994,0.0051972;-0.00269059,-0.0139359,0.0107069;
0.00941665,0.00627941,0.0153367;0.00132208,0.0196589,0.0266241;0.0170961,0.0350382,0.0186814;
-0.0133948,-0.00672606,-0.00906725;-0.0158459,-0.0163375,-0.0224946;-0.0132446,-0.0152131,-0.0210076;
-0.00591274,-0.00392003,0.00393219;-0.00936162,-0.00209417,0.00425773;-0.00182216,0.00639616,0.00322954;
0.00735068,0.00580826,-0.00529403;0.0209344,0.00595155,-0.00344604;0.0125284,-0.00425147,0.00237379;
0.00777304,0.00939907,0.00884497;0.0153603,0.0278035,0.0180235;0.03226,0.0260574,0.00443865;
0.00921151,0.00345977,0.00211558;-0.00619578,-0.00508726,-0.00148551;0.00549971,0.00615359,0.00099445;
-0.0104856,-0.00464305,-0.00769398;-0.0183135,-0.0173064,-0.0202293;-0.0138601,-0.0183174,-0.0220282;
-0.00877445,-0.00829713,-0.00307655;-0.00167684,0.00237073,0.00144018;-0.0016223,-0.00267362,-0.00121743;
-0.0106637,0.00111745,-0.00122244;0.0298459,0.0215793,-0.00866302;0.00447147,-0.0153505,-0.0108339;
0.00965264,-0.00366122,0.00679013;0.00221206,-0.013262,0.0095442;-0.013055,-0.00176686,0.0217684;
-0.00424715,-0.000302188,0.00236605;0.00374308,0.00618839,0.00391904;0.000400809,0.00225198,0.00583761;
0.00648354,0.00548478,0.00454363;0.0165736,0.0123603,0.00767942;0.00870525,0.0127435,0.0138354;
0.0108042,0.0120167,0.0039276;0.00982112,0.00405266,0.000916743;0.0137046,0.0109725,0.00769524;
-0.00242614,-0.00528811,-0.0121368;0.00309171,-0.00510304,-0.0107648;0.00671112,-0.00927246,-0.00816647;
0.0089444,0.00742821,0.0104421;0.00994381,0.0235901,0.0197319;0.0251304,0.0204766,0.0129548;
#
0.0218023,0.0250206,0.017743;0.0294297,0.0396723,0.0362911;0.0115672,0.0205543,0.0338979;
0.00329618,0.00585481,0.00477084;0.00584693,0.00667985,0.00394177;0.00875397,0.00558196,0.00451058;
0.00034634,-0.00189719,-0.0047864;0.00198642,0.000302331,-0.000829314;0.00337729,0.00552073,0.00214812;
0.0258007,0.0242482,0.0198088;0.0285007,0.026611,0.0240823;0.0242102,0.0283249,0.0264511;
-0.0291481,-0.0228653,-0.0120474;-0.0203887,-0.0163343,-0.00345891;-0.00808128,-0.0122776,-0.000505496;
0.0138652,0.0090696,0.00381561;0.0123155,0.0099305,0.00953725;0.0164598,0.021087,0.0191357;
0.052356,0.0443811,0.0306758;0.0628995,0.060047,0.0449578;0.0568761,0.0577396,0.0492198;
0.0221927,0.0220601,0.0148633;0.0211484,0.0220112,0.018883;0.0217768,0.0251422,0.0247834;
-0.000876736,-0.00609642,-0.00274978;0.00857727,0.0020323,0.00374135;0.0105175,0.00687967,0.00413574;
-0.00218344,-0.0117775,-0.0127982;0.00150908,-0.00445513,-0.00546323;0.00302906,0.00473154,0.00470896;
0.0122563,0.00867334,0.00568699;0.00934583,0.00221853,0.00122821;0.0242859,0.0176029,0.00854168;
0.0512706,0.0449074,0.0326883;0.0535594,0.0468779,0.0360186;0.0579676,0.0568893,0.0473356;
0.01105,0.012048,0.0122833;0.0271644,0.0280655,0.0148995;0.0148493,0.0240877,0.0213599;
0.00255703,-0.00531558,-0.00347108;0.0252831,0.0262046,0.0154642;0.0043073,0.00258329,0.0136691;
-0.0277032,-0.0202955,-0.00606095;-0.0238229,-0.0146615,-0.000784596;-0.00725413,-0.0117776,0.000852594;
0.0134406,0.010058,0.00570702;0.0139208,0.0195575,0.0186976;0.013421,0.0107068,0.00725466;
0.00360203,-0.00215758,-0.0024251;0.00675412,0.00427021,0.000298793;0.00844609,0.00322091,0.001214;
0.0330809,0.0288325,0.0256931;0.0360501,0.0261212,0.0234111;0.0458007,0.0404996,0.0269054;
-2.78445e-05,-0.00424474,-0.00269273;0.00435268,0.00105799,0.00153284;0.0116904,0.00752848,0.00150853;
0.00555696,0.00221498,0.00166901;0.0232402,0.00744583,0.00142567;0.0202124,0.0240748,0.0138461;
#
-0.0258579,-0.0175007,0.00331452;-0.00106463,-0.000621176,-0.0042036;-0.0200906,-0.0322881,-0.0294449;
0.00489769,0.00463812,0.0060275;0.00584965,0.00944865,0.0137493;0.00970044,0.00192165,0.00265239;
0.0122974,0.010114,0.00197292;0.00547215,0.00230387,0.0016929;0.00817291,0.0162152,0.0172379;
-0.00450464,-0.00166282,-0.00307732;-0.00338568,0.000939775,0.00316656;-0.00564395,-0.00432815,-0.0081389;
-0.00953278,-0.00998851,-0.0107778;0.0100205,0.014808,0.00794277;0.00758485,0.00247155,-0.000432432;
0.0153449,0.00995792,0.00024671;0.012953,0.00419193,-0.0019487;0.00238549,0.0174619,0.0266993;
0.00100073,0.002843,0.00435729;-0.00189579,-0.00261376,0.00151934;-0.0162772,-0.0225918,-0.0135485;
-0.00502137,-0.00656966,-0.00725329;-0.00506805,-0.00538068,-0.00231268;-0.00845654,-0.0097385,-0.00716849;
-0.0114072,-0.0237148,-0.015094;-0.0112533,-0.0165546,-0.00426303;-0.0170957,-0.0206141,-0.00921177;
0.0287353,0.0222334,0.00447106;0.0122657,0.00306552,0.0031829;0.018453,0.0353338,0.038858;
0.0294122,0.0275965,0.0211536;0.0125192,0.0139611,0.0153628;0.0374317,0.0330627,0.0261664;
0.00524132,0.00283777,0.000964415;0.00257259,-0.000836621,0.00232606;-0.0133372,-0.0163325,-0.00761397;
0.0216108,0.0405238,0.0471228;0.0217918,0.016219,0.0161359;0.031135,0.038789,0.0295841;
0.0339719,0.0313295,0.0232062;0.0379611,0.0400113,0.0381525;0.00287497,0.0136368,0.0169312;
-0.00404712,-0.00364011,-0.00972872;0.00836089,0.0103618,0.00572617;0.00528216,0.00531126,0.00478972;
0.0160587,0.0133205,0.0188073;0.0462274,0.063228,0.0561209;0.00931925,-0.00166414,-0.00634916;
0.0183012,0.0149004,0.0131339;0.0561561,0.062069,0.0485753;0.00769622,0.00765021,0.0105748;
-0.00406516,-9.95299e-05,-0.0030097;-0.00626668,-0.00314045,0.00732169;0.0111682,0.00440156,-0.00698685;
-0.0124113,-0.0150023,-0.00806538;-0.00946047,-0.0149021,-0.00320543;-0.00128232,-0.0130023,-0.00936089;
0.0884046,0.0996059,0.082707;0.0363591,0.0239681,0.0331643;0.104039,0.124559,0.0982414;
#
-0.00691995,0.0077486,0.0304886;0.00538554,-0.00447177,0.0284246;0.0223501,-0.00475816,0.000773301;
0.0131699,0.0078491,0.0110704;0.0159187,0.0128924,0.00956905;0.0076225,0.00970213,0.0049506;
0.00258887,0.00519651,0.000975756;0.00590028,0.0103066,0.0104329;0.000927655,0.0054723,0.0118478;
-0.00921928,-0.00251656,-0.00397936;-0.0142253,-0.00413208,0.000952942;-0.0132542,-0.0121588,-0.0077039;
-0.0090767,-0.0176356,-0.014765;0.0160472,0.00226403,-0.0094341;0.0271963,0.0230298,0.00701158;
0.000402994,0.0016341,-0.00250868;0.00394833,0.00736264,0.0160243;-0.00737428,-0.00151531,0.0188522;
0.00649699,0.0151336,0.0140347;-0.00601505,0.00428617,0.0117955;-0.00718489,-0.00818829,0.001431;
0.000234712,0.00508016,0.00705407;0.000455907,-5.21023e-05,0.0132871;0.000294663,-0.0073563,0.00587888;
0.014278,0.000750145,-0.00999095;0.0115745,0.0209469,0.00484229;-0.000254893,0.0130454,0.0064317;
0.00801535,0.00503746,-0.00398882;0.0129524,0.0175627,0.018501;0.00106042,0.0173804,0.0154539;
0.0101778,0.00700176,0.00110818;0.0227786,0.0271956,0.015521;0.00560412,0.0158046,0.0149799;
0.0109697,0.0149871,0.0126369;-0.003218,0.00577035,0.0111841;-0.00950649,-0.000119468,0.00740803;
0.00651131,0.0198619,0.0191837;0.0117189,0.0235456,0.0384815;0.0196164,0.00824246,0.00507681;
-0.00898726,0.00223343,0.00759547;-0.00399118,0.0104255,0.019431;0.0299637,0.0183603,-0.00350909;
-0.00192433,-0.0165017,-0.0131176;0.0223477,0.00305689,-0.00217156;0.0238359,0.0179182,0.0110824;
0.0157977,0.0222122,0.0346267;0.0205485,0.0153784,0.0143636;0.0287782,0.0231742,0.010373;
0.00654005,0.0131296,0.0127545;0.0151919,0.0148451,0.0109607;0.0231736,0.0222648,0.0111469;
0.00018863,0.00171955,-0.00961978;0.000882299,0.0171191,0.000760456;-0.012248,0.00275437,0.00185791;
0.0213031,0.0164637,0.00244753;0.0192402,0.0345746,0.0159588;0.00774964,0.0261238,0.0166216;
0.0222149,0.0274475,0.0148245;0.039461,0.05057,0.0531616;0.0157462,0.01299,0.00590373;
#
